text,embedding,file
"A Bias-Variance-Covariance Decomposition
of Kernel Scores for Generative Models
Sebastian G. Gruber1 2 3Florian Buettner1 2 3 4
Abstract
Generative models, like large language models,
are becoming increasingly relevant in our daily
lives, yet a theoretical framework to assess their
generalization behavior and uncertainty does not
exist. Particularly, the problem of uncertainty es-
timation is commonly solved in an ad-hoc and
task-dependent manner. For example, natural lan-
guage approaches cannot be transferred to im-
age generation. In this paper, we introduce the
first bias-variance-covariance decomposition for
kernel scores. This decomposition represents a
theoretical framework from which we derive a
kernel-based variance and entropy for uncertainty
estimation. We propose unbiased and consistent
estimators for each quantity which only require
generated samples but not the underlying model
itself. Based on the wide applicability of kernels,
we demonstrate our framework via generalization
and uncertainty experiments for image, audio, and
language generation. Specifically, kernel entropy
for uncertainty estimation is more predictive of
performance on CoQA and TriviaQA question an-
swering datasets than existing baselines and can
also be applied to closed-source models.
1. Introduction
In recent years, generative models have revolutionized daily
lives well beyond the field of machine learning (Kasneci
et al., 2023; Mesk ´o & Topol, 2023). These models have
found applications in diverse domains, including image cre-
ation (Ramesh et al., 2021), natural language generation
1German Cancer Consortium (DKTK), partner site Frank-
furt/Mainz, a partnership between DKFZ and UCT Frankfurt-
Marburg, Germany, Frankfurt am Main, Germany2German Cancer
Research Center (DKFZ), Heidelberg, Germany3Goethe Uni-
versity Frankfurt, Germany4Frankfurt Cancer Institute (FCI),
Germany. Correspondence to: Sebastian G. Gruber <sebas-
tian.gruber@dkfz.de >.
Proceedings of the 41stInternational Conference on Machine
Learning , Vienna, Austria. PMLR 235, 2024. Copyright 2024 by
the author(s).
LLMEmbeddingAnswer #1Answer #2Answer #3Answer #4Question
Figure 1. Top: Illustration of predictive kernel entropy for a gener-
ative model. A kernel measures the pairwise similarities (red lines)
of outputs in a vector space. The predictive kernel entropy is then
the negative average kernel value. Bottom: The predictive kernel
entropy shows the best performance among uncertainty approaches
for single-model settings (c.f. Section 5.3).
(OpenAI, 2023), drug discovery (Paul et al., 2021), and
speech synthesis (Ning et al., 2019). While generative mod-
els have demonstrated remarkable capabilities in generating
data that closely resemble real-world samples, they often
fall short in providing the vital and often overlooked aspect
of uncertainty estimation (Wu & Shang, 2020). Uncertainty
estimation in machine learning is a critical component of
model performance assessment and deployment (Hekler
et al., 2023). It addresses the inherent limitations and chal-
lenges associated with machine learning based decisions.
For generative models, this may include their propensity
to generate improbable or nonsensical samples (“hallucina-
tions”). Even though uncertainty estimation methods for
natural language question answering tasks exist (Kuhn et al.,
2023), they are ad-hoc without theoretical grounding and
1arXiv:2310.05833v2  [cs.LG]  10 Jul 2024
Bias-Variance-Covariance Decomposition of Kernel Scores
are not transferable to other data generation tasks .
Predictive uncertainty is an informal concept, but it is im-
plied that it relates to the prediction error without requiring
access to target outcomes. A formal approach to this is the
bias-variance decomposition, a central concept in statistical
learning theory (Bishop & Nasrabadi, 2006; Hastie et al.,
2009; Murphy, 2022). It helps to understand the general-
ization behavior of models and naturally raises uncertainty
terms by isolating the target prediction into a bias term (Gru-
ber & Buettner, 2023).
Ueda & Nakano (1996) discovered the bias-variance-
covariance decomposition of the mean squared error, which
is the foundation of negative correlation learning (Liu &
Yao, 1999b;a; Brown, 2004) and for reducing correlations
in weight averaging (Rame et al","[-0.006513996049761772, 0.022286955267190933, 0.03737518936395645, 0.0576382614672184, -0.03046732395887375, 0.003984141629189253, 0.017705950886011124, -0.008871153928339481, -0.012379622086882591, 0.05249977856874466, 0.019257189705967903, -0.045204102993011475, -0.04362862557172775, 0.0013474882580339909, -0.003517557866871357, -0.003408486256375909, 0.023171648383140564, 0.009628594852983952, -0.003459992352873087, -0.003962933551520109, -0.004150778986513615, -0.03131565824151039, 0.002952506532892585, 0.021268954500555992, 0.049979012459516525, -0.029158463701605797, 0.009113535284996033, 0.017560521140694618, 0.03936271369457245, -0.045398008078336716, 0.009973988868296146, -0.027122462168335915, -0.03213975578546524, -0.04876710847020149, -0.03102480061352253, 0.05744435638189316, -0.00599287636578083, 0.024080578237771988, -0.02245662361383438, 0.0391930490732193, -0.01455499418079853, -0.010295143350958824, -0.00865907035768032, 0.06961189210414886, -0.0296432264149189, 0.013270373456180096, -0.004493142478168011, -0.06898170709609985, 0.002543488284572959, 0.014979161322116852, -0.05186958611011505, -0.02872217819094658, 0.024480506777763367, -0.023474624380469322, -0.04614939168095589, -0.0012111488031223416, -0.009592237882316113, 0.012628063559532166, -0.0012679569190368056, -0.046852294355630875, 0.023632172495126724, -0.025862079113721848, 0.004744613077491522, 0.008016759529709816, -0.01419142261147499, -0.040889717638492584, 0.01419142261147499, 0.0332547090947628, -0.012834087014198303, -0.00887721311300993, 0.010628418065607548, 0.028673702850937843, 0.02111140638589859, 0.02153557352721691, -0.03172770515084267, 0.058801691979169846, 0.04738553613424301, 0.03870828449726105, -0.02927965484559536, -0.021632526069879532, 0.04229552671313286, 0.022311193868517876, 0.027849605306982994, 0.014336851425468922, -0.08105228841304779, 0.0016784901963546872, -0.01073748990893364, -0.005005172919481993, -0.007653187960386276, 0.0027919290587306023, -0.03356980159878731, -0.0036326891276985407, -0.04028376564383507, 0.05749283358454704, 0.04011409729719162, 0.003820534562692046, 0.00818642694503069, -0.03563004359602928, 0.036938901990652084, -0.002623777138069272, -0.06156483665108681, 0.041277527809143066, 0.00867724884301424, -0.0005002900725230575, 0.05526292696595192, -0.036405663937330246, -0.08250657469034195, -0.021523455157876015, -0.007883450016379356, 0.00839851051568985, -0.015597233548760414, 0.009234725497663021, -0.0286494642496109, 0.01693033054471016, -0.03882947564125061, -0.054584257304668427, -0.04321657866239548, 0.014748899266123772, -0.027607224881649017, 0.00725325895473361, -0.01436108909547329, -0.00851364154368639, 0.02826165407896042, -0.006701841484755278, 0.01134344283491373, -0.05046377703547478, -0.003350920742377639, -0.009325618855655193, -0.010240607894957066, -0.05725045129656792, 0.006707901135087013, 0.03320623189210892, -0.008804499171674252, 0.013161301612854004, -0.04517986625432968, 0.004553737584501505, 0.017330259084701538, 0.015900209546089172, 0.004193195607513189, 0.04231976717710495, -0.012712896801531315, 0.029715942218899727, -0.010089119896292686, 0.001970862504094839, -0.05676569044589996, -0.004680987913161516, 0.0218991469591856, 0.010222429409623146, -0.045398008078336716, 0.03267299383878708, 0.0011619151337072253, -0.01909964345395565, -0.05002748966217041, 0.020008571445941925, -0.015512400306761265, -0.02828589268028736, 0.004796118941158056, 0.035848185420036316, 0.005692929495126009, -0.028891844674944878, -0.012712896801531315, 0.07339303940534592, 0.021026574075222015, -0.029691703617572784, 0.033836424350738525, 0.02091750130057335, -0.07649552077054977, 0.018590642139315605, -0.024989506229758263, -0.024395672604441643, -0.022771717980504036, 0.003232759889215231, -0.018457332625985146, -0.020081287249922752, 0.010937454178929329, -0.006980580277740955, 0.016409210860729218, -0.027655700221657753, -0.0033478911500424147, -0.04682805761694908, -0.057056546211242676, 0.01965712010860443, 0.02391090989112854, 0.03865981101989746, -0.0163001399487257, 0.0464402474462986, 0.004514351021498442, -0.018833022564649582, -0.026564985513687134, 0.04881558567285538, 0.013246135786175728, 0.04937306046485901, 0.03257603943347931, 0.04755520075559616, 0.05065768212080002, -0.03349708765745163, 0.04711891710758209, 0.008671189658343792, -0.0312914177775383, -0.007683485746383667, 0.036405663937330246, 0.012821968644857407, 0.011355561204254627, -0.06248588487505913, -0.010622357949614525, 0.008786320686340332, 0.03306080400943756, -0.0023480684030801058, -0.040259525179862976, 0.021196240559220314, 0.005611125845462084, -0.03167922794818878, 0.031145991757512093, 0.03083089552819729, -0.010355738922953606, 0.005386923439800739, -0.03572699800133705, 0.10722946375608444, -0.00936803501099348, 0.05312997102737427, -0.005559619981795549, 0.03708432987332344, 0.01725754514336586, 0.0008998403791338205, -0.0365510918200016, -0.037205521017313004, 0.023159528151154518, -0.039871715009212494, 0.04663415253162384, -0.006574591621756554, 0.06311608105897903, 0.00446284469217062, -0.010307262651622295, -0.00601105485111475, 0.022408146411180496, -0.03184889629483223, 0.015039756894111633, 0.0004548435681499541, -0.00908929668366909, -0.013064349070191383, 0.01394904125481844, 0.02249298058450222, -0.02697703242301941, 0.021826431155204773, 0.020275192335247993, 0.053663209080696106, -0.02400786243379116, -0.025134935975074768, 0.018299784511327744, 0.030249180272221565, -0.02394726686179638, -0.02137802727520466, -0.028019271790981293, 0.027292128652334213, -0.026007508859038353, -0.012506872415542603, -0.00012459911522455513, -0.016845496371388435, 0.010258786380290985, 0.021547693759202957, -0.022844433784484863, -0.038684047758579254, -0.0750897154211998, 0.0027570866513997316, -0.019390501081943512, 0.012446276843547821, -0.03243061155080795, -0.01184032391756773, 0.0063928053714334965, -0.027970796450972557, 0.022771717980504036, -0.05395406484603882, -0.023292837664484978, -0.001970862504094839, -0.05545683205127716, -0.031824659556150436, -0.00211174669675529, 0.02486831694841385, 0.0037538795731961727, -0.008865094743669033, -0.03170346841216087, 0.023304957896471024, 0.029764417558908463, 0.02927965484559536, 0.032091278582811356, -0.000569595955312252, -0.02588631771504879, 0.02226271852850914, 0.0028722179122269154, -0.05628092586994171, 0.04224705323576927, -0.008271260187029839, 0.013524874113500118, -0.0023041367530822754, 0.0279950350522995, 0.013888445682823658, 0.008931749500334263, -0.02391090989112854, 0.016554638743400574, 0.004826416727155447, 0.021620407700538635, -0.051821112632751465, 0.0041053323075175285, 0.03642990067601204, -0.03849014267325401, -0.007816795259714127, -0.01110106147825718, 0.05662025883793831, -0.03398185223340988, -0.010682953521609306, -0.04120481386780739, 0.023995744064450264, -0.011155596934258938, 0.04551919922232628, -0.039435431361198425, -0.0013868751702830195, 0.040792763233184814, -0.059334930032491684, 0.03701161593198776, -0.06646093726158142, -0.049882061779499054, -0.00371752236969769, -0.019548047333955765, -0.02634684182703495, -0.009343797340989113, 0.01775442622601986, -0.01863911747932434, 0.009937630966305733, 0.007428985554724932, -0.009513463824987411, -0.006732139270752668, 0.017402973026037216, -0.0020147941540926695, -0.010755668394267559, -0.02229907549917698, -0.07043599337339401, -0.050269871950149536, 0.06151636317372322, -0.007277497090399265, -0.05865626409649849, -0.10684165358543396, -0.03223670646548271, 0.007574413903057575, -0.046488724648952484, 0.03112175315618515, -0.00936803501099348, 0.00718660419806838, 0.045034438371658325, 0.058510832488536835, -0.0032418491318821907, 0.022602051496505737, -0.06961189210414886, 0.0061746626161038876, 0.026274127885699272, -0.014058112166821957, 0.021656764671206474, -0.023159528151154518, -0.020372144877910614, 0.0013187055010348558, -0.05472968518733978, -0.015997162088751793, -0.0171242356300354, 0.033085040748119354, 0.029061513021588326, 0.005777763202786446, -0.04993053898215294, -0.0019951006397604942, -0.0035902722738683224, 0.0288191307336092, 0.017099997028708458, -0.03599361702799797, 0.023401910439133644, -0.07630161941051483, -0.01432473212480545, -0.046876534819602966, -0.033472850918769836, -0.006465519778430462, 0.04881558567285538, 0.021620407700538635, 0.024553220719099045, 0.0362359955906868, 0.019414737820625305, -0.022541455924510956, -0.011028346605598927, 0.024432029575109482, 0.023292837664484978, -0.020699359476566315, -0.019778309389948845, -0.0294735599309206, 0.0345878042280674, 0.00020450918236747384, 0.01126466877758503, -0.042828768491744995, 0.02137802727520466, 0.02753451094031334, 0.04147143289446831, -0.014651946723461151, 0.02792232111096382, 0.032721467316150665, 0.040720049291849136, -0.020566049963235855, 0.017669593915343285, -0.010707192122936249, 0.0114464545622468, 0.020044930279254913, 0.052451301366090775, 0.06544293463230133, 0.024759244173765182, 0.04847624897956848, 0.04471934214234352, 0.044573910534381866, -0.02753451094031334, 0.01141009759157896, -0.05094853788614273, -0.010531465522944927, -0.03582394868135452, 0.05889864265918732, 0.01972983404994011, 0.049979012459516525, 0.05482663959264755, 0.007095711305737495, -0.03274570778012276, -0.026783129200339317, -0.04067157581448555, 0.003260027850046754, -0.040986668318510056, -0.010428453795611858, 0.02048121578991413, 0.017269663512706757, -0.06951494514942169, -0.060983121395111084, 0.04917915537953377, 0.024395672604441643, -0.01752416417002678, -0.031049039214849472, 0.03909609466791153, 0.053275398910045624, -0.0024783483240753412, -0.030321894213557243, 0.013258254155516624, 0.002511675702407956, 0.0022738391999155283, -0.045204102993011475, -0.005950459744781256, -0.017136353999376297, 0.033085040748119354, -0.003908397629857063, -0.018820904195308685, 0.04030800238251686, -0.012216014787554741, 0.0237170048058033, -0.012615944258868694, 0.0477491058409214, 0.0027828398160636425, -0.026855843141674995, -0.009671011939644814, 0.07984038442373276, -0.02835860662162304, 0.047870296984910965, 0.011876680888235569, 0.037132807075977325, 0.036405663937330246, -0.015669947490096092, -0.0046961368061602116, -0.006738198921084404, 0.015718424692749977, -0.033278945833444595, -0.018008926883339882, -0.051627207547426224, 0.019802547991275787, -0.004417398478835821, -0.04772486910223961, 0.029861370101571083, -0.021159883588552475, -0.015439685434103012, 5.8180969062959775e-05, 0.03148532286286354, -0.0431438609957695, -0.0045688864775002, -0.013440040871500969, 0.012173598632216454, -0.034030329436063766, 0.015633590519428253, 0.029303893446922302, 0.000971039873547852, 0.032357897609472275, 0.03577547147870064, 0.019620763137936592, 0.012955278158187866, -0.00234200875274837, 0.0029797744937241077, -0.047506723552942276, 0.021826431155204773, -0.010913215577602386, 0.011028346605598927, 0.028334368020296097, -0.002913119737058878, -0.0027010361663997173, -0.014421684667468071, -0.003578153206035495, 0.019548047333955765, -0.014239898882806301, -0.015948686748743057, -0.00188754394184798, -0.00031282330746762455, -0.005017291754484177, 0.04404067248106003, 0.004493142478168011, -0.004293177742511034, 0.035387661308050156, -0.030976323410868645, 0.013209777884185314, -0.029037274420261383, 0.03965357318520546, 0.017281783744692802, 0.025474268943071365, -0.02045697718858719, 0.02291714772582054, -0.019208714365959167, -0.007229020819067955, -0.014021755196154118, -0.022553576156497, -0.029134226962924004, -0.006804853677749634, -0.0012906801421195269, -0.021123526617884636, -0.017306020483374596, -0.055311400443315506, -0.02348674274981022, -0.06461884081363678, 0.02552274614572525, 0.014954923652112484, 0.015924448147416115, -0.0020663002505898476, -0.02232331410050392, -0.02107504941523075, 0.01129496656358242, 0.005626274738460779, -0.007859212346374989, 0.028334368020296097, -0.021293193101882935, -0.00021568144438788295, 0.014433803968131542, 0.02828589268028736, -0.01080414466559887, -0.027146700769662857, -0.010349679738283157, -0.046488724648952484, 0.004862773697823286, 0.009265023283660412, 0.0016754603711888194, -0.05734740570187569, 0.008434867486357689, -0.00908929668366909, -0.032260943204164505, 0.03020070306956768, 0.00445375544950366, 0.009543761610984802, -0.030249180272221565, 0.0029828043188899755, 0.018929975107312202, -0.00210720207542181, -0.002423812635242939, 0.014203540980815887, -0.04561614990234375, 0.004814297426491976, -0.010210310108959675, -0.01139797829091549, 0.032551802694797516, 0.05119092017412186, -0.01184032391756773, 0.025134935975074768, 0.03698737919330597, -0.03546037897467613, 0.0016724306624382734, -0.017233306542038918, 0.040986668318510056, -0.03531494736671448, 0.01510035153478384, -0.001397479441948235, -0.01381573174148798, -0.01182214543223381, -0.01917235739529133, -0.014021755196154118, -0.02792232111096382, 0.03609056770801544, 0.019875261932611465, -0.005208167247474194, -0.026371080428361893, -0.010186072438955307, 0.017875617370009422, -0.022190002724528313, -0.0025601519737392664, 0.00910747516900301, -0.00268437247723341, 0.0418350026011467, 0.03332742303609848, -0.020044930279254913, -0.03659956902265549, 0.015039756894111633, 0.0227232426404953, 0.006398865021765232, 0.001798165962100029, -0.031242942437529564, -0.002884336980059743, 0.02249298058450222, -0.01850580796599388, 0.013330969028174877, -0.036114808171987534, -0.013803612440824509, -0.009707368910312653, 0.002696491312235594, -0.01765747368335724, -0.0037811475340276957, -0.0023510982282459736, -0.03444237634539604, -0.009034761227667332, -0.01956016756594181, 0.05589311569929123, -0.03735095262527466, 0.021462859585881233, -0.02671041339635849, 0.006062561180442572, -0.016057757660746574, -0.008234903216362, -0.0015277593629434705, 0.022408146411180496, -0.027049748227000237, 0.013379445299506187, 0.01639709249138832, -0.009586178697645664, -0.0015648739645257592, 0.01514882780611515, -0.03204280138015747, -0.014579231850802898, 0.0006347359158098698, -0.01116165705025196, 0.009034761227667332, -0.01117983553558588, -0.027122462168335915, 0.014857971109449863, 0.026201413944363594, 0.005859566852450371, -0.003987171687185764, 0.007035115733742714, -0.011567645706236362, -0.034927137196063995, 0.010046702809631824, -0.019014809280633926, -0.0388537161052227, -0.018420975655317307, -0.0464402474462986, -0.005453578196465969, -0.035848185420036316, 0.03563004359602928, -0.0017542343121021986, 0.012712896801531315, -0.017827140167355537, -0.006877568084746599, 0.004883982241153717, -0.023559458553791046, 0.023765482008457184, -0.02792232111096382, -0.03422423452138901, 0.013973278924822807, 0.03870828449726105, 0.0063019124791026115, 0.018433094024658203, 0.010313321836292744, -0.005617185495793819, -0.005223316140472889, 0.0147367799654603, -0.028843369334936142, 0.020493334159255028, -0.012858325615525246, 0.013670302927494049, -0.000885449000634253, -0.02569241262972355, 0.001513367984443903, 0.029667465016245842, -0.025450032204389572, 0.0302976556122303, -0.030709704384207726, -0.024189649149775505, 0.012725016102194786, -0.004838535562157631, 0.021559812128543854, -0.021038692444562912, -0.005041529890149832, -0.030443085357546806, -0.000771075370721519, 0.004702196456491947, 0.008537879213690758, -0.017596878111362457, -0.037132807075977325, 0.04818539321422577, -0.01463982742279768, 0.022965623065829277, 0.010834441520273685, -0.03335165977478027, -0.010743549093604088, 0.03441813960671425, -0.03192161023616791, -0.008107652887701988, -0.04360438883304596, -0.004732493776828051, 0.00026415768661536276, 0.027461795136332512, 0.0352422334253788, -0.05317844823002815, -0.01417930331081152, 0.021487098187208176, -0.01432473212480545, 0.014809494838118553, -0.03618752211332321, -0.03003103658556938, 0.00890751089900732, 0.00727143744006753, 0.02414117194712162, -0.03315775468945503, -0.040356479585170746, 0.0014686789363622665, -0.045470722019672394, -0.0312914177775383, 0.00554144149646163, -0.041253287345170975, -0.06675180047750473, -0.022383907809853554, -0.0030433996580541134, -0.003426664974540472, 0.01394904125481844, 0.024129053577780724, 0.02954627387225628, -0.029812894761562347, -0.003175194375216961, 0.015342732891440392, -0.015451804734766483, 0.0014194451505318284, 0.008683308027684689, 0.00114449393004179, -0.006871508434414864, -0.0035902722738683224, -0.016409210860729218, 0.013209777884185314, -0.0035236175172030926, 0.011422216892242432, 0.010276964865624905, 0.035654280334711075, 0.014845851808786392, 0.008253081701695919, -0.00542631046846509, 0.009343797340989113, -0.012222074903547764, -0.005214226897805929, 0.027558747678995132, -0.029303893446922302, 0.02351098135113716, -0.007277497090399265, 0.011010168120265007, 0.01996009610593319, 0.04038071632385254, 0.03121870569884777, 0.007556235417723656, 0.034296948462724686, 0.026274127885699272, -0.03003103658556938, -0.00846516527235508, -0.009852797724306583, -0.0039053678046911955, 0.015500281006097794, 0.004171987529844046, -0.01808164082467556, -0.02166888304054737, 0.03388489782810211, 0.0523543506860733, -0.03095208667218685, 0.028504034504294395, 0.02542579360306263, -0.004062915686517954, 0.04820962995290756, -0.018227070569992065, -0.00285706901922822, 0.020529691129922867, 0.00015092019748408347, -0.03233365714550018, 0.007653187960386276, -0.02671041339635849, -0.02011764422059059, -0.010216370224952698, -0.04290148243308067, -0.023668529465794563, 0.024359315633773804, 0.004159868229180574, -0.00844698678702116, -0.032091278582811356, 0.023826077580451965, -0.0278253685683012, -0.07828914374113083, -0.005968638230115175, 0.036769237369298935, -0.0026465002447366714, 0.01445804163813591, -0.024347197264432907, 0.007501699961721897, -0.00844698678702116, -0.025280363857746124, 0.009937630966305733, -0.026952795684337616, -0.02479560114443302, 0.01600928232073784, 0.02974017895758152, 0.004305297043174505, -0.05642635375261307, -0.0047506727278232574, 0.0021541633177548647, 1.2237413102411665e-05, -0.009907334111630917, -0.001260382472537458, -0.012712896801531315, -0.012531111016869545, 0.014482280239462852, -0.01610623486340046, 0.0025904495269060135, 0.019390501081943512, -0.028019271790981293, -0.00558991776779294, 0.0034418138675391674, -0.03572699800133705, -0.008483343757689, 0.012337205931544304, 0.03075818158686161, -0.0227232426404953, -0.0013785433256998658, -0.0139126842841506, 0.01903904788196087, 0.0012217529583722353, -0.022335432469844818, 0.005920161958783865, -0.03284265846014023, 0.02143862098455429, -0.028043510392308235, 0.004735523834824562, -0.039338476955890656, 0.04551919922232628, 0.036672282963991165, 0.005008202511817217, -0.00925290398299694, -0.01417930331081152, -0.01873607002198696, -0.018324023112654686, -0.022929266095161438, 0.004417398478835821, 0.00036111020017415285, 0.012882563285529613, 0.018105879426002502, 0.0028661582618951797, 0.030055275186896324, -0.025183411315083504, -0.004717344883829355, 0.02993408404290676, 0.004265910014510155, -0.0454464852809906, -0.01633649691939354, 0.01156158559024334, 0.030540037900209427, -0.03112175315618515, -0.03516951948404312, -0.0237170048058033, 0.044283054769039154, 0.0003915972192771733, 0.02022671513259411, -0.021329550072550774, 0.022965623065829277, 0.05148177966475487, 0.04425881803035736, -0.05065768212080002, 0.01487008947879076, -0.0016512222355231643, -0.04963967949151993, 0.01570630446076393, 0.00708965165540576, -0.009095356799662113, 0.056135497987270355, 0.020735716447234154, -0.022093050181865692, -0.024916792288422585, 0.06903018057346344, 0.05322692170739174, -0.034466613084077835, 0.03543613851070404, -0.027704177424311638, -0.01168883591890335, -0.001198272337205708, 0.019705595448613167, 0.016881853342056274, 0.009077178314328194, -0.01610623486340046, 0.021923383697867393, 0.038877952843904495, -0.013633945025503635, -0.01623954437673092, 0.006053471937775612, 0.012179657816886902, -0.020953860133886337, -0.03783571347594261, -0.0015648739645257592, 0.006750317756086588, -0.002082963939756155, 0.0047294641844928265, -0.039435431361198425, 0.015657829120755196, 0.007410806603729725, 0.011095001362264156, 0.01666371151804924, 0.017281783744692802, -0.018239188939332962, 0.014833732508122921, 0.025813603773713112, 0.007925867103040218, -0.04110785946249962, -0.013633945025503635, 3.604947778512724e-05, -0.023074695840477943, -0.0007225990993902087, -0.022638408467173576, -0.041059382259845734, -0.029037274420261383, -0.009780083782970905, -0.0023935148492455482, 0.001373998704366386, -0.009931571781635284, -0.039071857929229736, 0.03706009313464165, -0.022747481241822243, 0.005353596061468124, -0.003375158878043294, 0.021656764671206474, -0.006635186728090048, -0.02417753078043461, 0.04433153197169304, -0.02532884106040001, -0.022311193868517876, 0.002766176126897335, -0.012579587288200855, -0.024674411863088608, 0.015463924035429955, -0.004774910863488913, 0.0021890057250857353, -0.01996009610593319, 0.00015508613432757556, -0.03150956332683563, 0.016784900799393654, 0.012319027446210384, 0.01979042962193489, -0.01482161320745945, 0.012628063559532166, 0.02045697718858719, -0.005189988762140274, 0.019281428307294846, -0.009943691082298756, 0.004253791179507971, 0.013161301612854004, -0.013234016485512257, -0.02872217819094658, -0.011119239963591099, -0.017136353999376297, 0.01919659599661827, -0.011537347920238972, -0.06844846904277802, 0.04416186362504959, 0.03531494736671448, 0.013852088712155819, 0.018033165484666824, -0.04430729150772095, 0.018190713599324226, 0.0013550627045333385, -0.00013406712969299406, 0.0058110905811190605, -0.020856907591223717, -0.04185924306511879, -0.016578877344727516, 0.02641955576837063, 0.00854393932968378, 0.02753451094031334, -0.03606633096933365, -0.0018481570295989513, 0.010767786763608456, 0.0233897902071476, 0.030806656926870346, -0.009277142584323883, 0.019390501081943512, -0.000656701682601124, -0.023789720609784126, -0.01956016756594181, 0.021038692444562912, 0.023341314867138863, -0.00828337948769331, -0.05802607163786888, 0.02651650831103325, 0.014397446066141129, 0.009004463441669941, -0.026734651997685432, 0.009410452097654343, -0.0007877390598878264, 0.007883450016379356, 0.048888299614191055, 0.0040689753368496895, -0.021365907043218613, 0.0075865332037210464, 0.0009043850586749613, 0.01404599379748106, 0.007968283258378506, -0.009119594469666481, 0.0163001399487257, 0.0011308600660413504, -0.033812183886766434, 0.015682067722082138, 0.015185185708105564, 0.005417220760136843, 0.00452041020616889, -0.02107504941523075, -0.018069522455334663, -0.007059353869408369, -0.006841210648417473, 0.0012346295407041907, 0.004850654862821102, -0.0014709512470290065, -0.03083089552819729, 0.024419911205768585, 0.00045257125748321414, 0.0009498315048404038, -0.0032751767430454493, 0.007725902367383242, -0.012422039173543453, -0.017439331859350204, 0.003687224816530943, 0.015960805118083954, 0.03121870569884777, -0.01689397357404232, 0.001056630746461451, -0.02944932132959366, -0.03882947564125061, -0.03170346841216087, 0.026564985513687134, 0.03444237634539604, -0.013633945025503635, -0.006913925055414438, -0.015694186091423035, 0.013149183243513107, 0.04614939168095589, -0.006404924672096968, 0.009192309342324734, -0.0028070779517292976, 0.028576750308275223, 0.03083089552819729, 0.04389524459838867, 0.006883627735078335, -0.024116935208439827, 0.0174514502286911, -0.02535307966172695, -0.04956696555018425, 0.010767786763608456, -0.02588631771504879, 0.002367761917412281, -0.009525583125650883, 0.005332387518137693, 0.010283024981617928, -0.019851025193929672, 0.04278029128909111, -0.0037084331270307302, 0.018651237711310387, 0.004887011833488941, -0.013427921570837498, 0.011616121046245098, -0.0029888637363910675, 0.025862079113721848, 0.0021905205212533474, -0.015524519607424736, -0.00925290398299694, -0.03187313303351402, -0.03514528274536133, 0.02385031431913376, -0.009289261884987354, -0.016057757660746574, 0.00915595144033432, 0.04954272881150246, -0.02634684182703495, -0.01610623486340046, 0.04173805192112923, 0.004517380613833666, 0.010895037092268467, -0.013197659514844418, -0.009477106854319572, 0.01742721162736416, 0.0014239898882806301, 0.033909138292074203, -0.020808430388569832, 0.0036175402346998453, 0.01965712010860443, 0.037859950214624405, -0.006871508434414864, 0.001770898001268506, 0.006447341293096542, -0.004938518162816763, 0.005917132366448641, -0.04093819484114647, -0.0025859049055725336, -0.016687950119376183, 0.03955661877989769, 0.012918921187520027, 0.007568354718387127, 0.023886673152446747, -0.01165853813290596, -0.020372144877910614, -0.021232597529888153, 0.006901806220412254, 0.012931039556860924, -0.006259495858103037, -0.0015368486056104302, 0.00371752236969769, -0.017463568598031998, -0.023208005353808403, -0.04343472048640251, 0.0056747510097920895, 0.007398687768727541, -0.0005767916445620358, 0.024492625147104263, 0.00842880830168724, 0.033012326806783676, 0.026783129200339317, -0.027752652764320374, -0.014797375537455082, -0.00037928877281956375, -0.018166474997997284, -0.004132600501179695, -0.008477284573018551, 0.010295143350958824, 0.01417930331081152, 9.969822713173926e-05, 0.00405988609418273, -0.04508291184902191, -0.015439685434103012, -0.021317431703209877, 0.012058467604219913, -0.001570933498442173, 0.018336141481995583, 0.006980580277740955, 0.06180721893906593, -0.008737844415009022, -0.012143300846219063, -0.02707398496568203, -0.009919452480971813, -0.02084478735923767, -0.028019271790981293, -0.01620318740606308, -0.03975052386522293, 0.0019026928348466754, -0.013730897568166256, 0.040332239121198654, -0.0038750702515244484, 0.03221246972680092, 0.010840501636266708, -0.013730897568166256, -0.021584050729870796, 0.004102302715182304, -0.010258786380290985, 0.016118353232741356, 0.03781147673726082, 0.003117628861218691, -0.020626643672585487, -0.019063284620642662, -0.010555703192949295, -0.012737134471535683, -0.01445804163813591, 0.007513818796724081, 0.012143300846219063, 0.02362005226314068, 0.006671544164419174, 0.01923295296728611, -0.030346132814884186, 0.005171809811145067, -0.010410274378955364, 0.029255416244268417, -0.02391090989112854, 0.011210133321583271, -0.001881484524346888, -0.0004828688979614526, 0.042368244379758835, -0.0010520861251279712, -0.009889154694974422, -0.013003754429519176, -0.005105155054479837, -0.010931394062936306, -0.00576261430978775, 0.02042062021791935, 0.010652655735611916, -0.019717715680599213, 0.006786675192415714, 0.006368567235767841, 0.022105170413851738, -0.01982678659260273, -0.009652833454310894, -0.04406491294503212, -0.03056427650153637, 0.03213975578546524, -0.006338269915431738, 0.011434335261583328, -0.015330614522099495, 0.006368567235767841, 0.003169134957715869, 0.01894209533929825, 0.002801018301397562, -0.026201413944363594, -0.0220688134431839, -0.024153292179107666, 0.022177884355187416, 0.03790842741727829, -0.013173420913517475, 0.020238835364580154, 0.029909847304224968, 0.0016754603711888194, 0.008477284573018551, 0.015900209546089172, -0.006944222841411829, 0.0035266471095383167, 0.03550885245203972, 0.01139797829091549, -0.03504832834005356, -0.01577902026474476, -0.015027637593448162, 0.006738198921084404, 0.02588631771504879, 0.0006139062461443245, 0.01145857386291027, 0.007471402175724506, -0.026734651997685432, 0.026007508859038353, -0.03958085924386978, 0.04423457756638527, 0.027679938822984695, 0.02061452530324459, 0.0010899582412093878, -0.013597588054835796, 0.01702728308737278, -0.020044930279254913, 0.0020344876684248447, 0.01854216493666172, 0.007883450016379356, -0.0035660341382026672, -0.03626023605465889, -0.0036751057486981153, -0.01136162132024765, -0.005262702703475952, -0.057589784264564514, -0.007538056932389736, 0.012258431874215603, 0.022565694525837898, 0.04583429545164108, -0.006520055700093508, 0.0007786497590132058, -0.01096775196492672, -0.008253081701695919, 0.021717360243201256, 0.007362330332398415, -0.0014042963739484549, -0.013100706972181797, -0.03313351795077324, 0.008319736458361149, 5.2263458201196045e-05, -0.003208521753549576, 0.00805311743170023, -0.009464987553656101, -0.013779373839497566, -0.016469806432724, -0.012858325615525246, 0.021983979269862175, -0.026783129200339317, -0.027389081194996834, 0.024916792288422585, 0.02496526949107647, 0.00788951013237238, 0.004484053235501051, 0.0018451273208484054, -0.001657281769439578, -0.009822499938309193, -0.006026203744113445, -0.0411805734038353, -0.02229907549917698, -0.0003238061908632517, 0.014033874496817589, 0.0023238302674144506, -0.021850669756531715, -0.02532884106040001, 0.0025934793520718813, 0.007925867103040218, 0.0279950350522995, -0.004171987529844046, 0.02193550392985344, 0.025013744831085205, -0.01748780719935894, 0.0026995211374014616, -0.020360024645924568, -0.0020147941540926695, -0.009943691082298756, -0.023995744064450264, -0.007853152230381966, -0.0010528435232117772, 0.01620318740606308, 0.011488871648907661, -0.019644999876618385, 0.0005177112179808319, 0.04673110693693161, -0.040889717638492584, -0.027849605306982994, -0.008822677657008171, -0.005405101925134659, -0.000471507286420092, -0.015512400306761265, -0.02617717534303665, 0.010761727578938007, 0.030249180272221565, -0.017342379316687584, -0.03701161593198776, -0.005968638230115175, 0.0012914376566186547, 0.004962756298482418, 0.03533918783068657, 0.010973811149597168, -0.0070532942190766335, 0.025571221485733986, -0.013003754429519176, -0.030224941670894623, 0.0008915085345506668, 0.02433507703244686, 0.02578936517238617, -0.003578153206035495, -0.012494753114879131, 0.02071147784590721, -0.03912033513188362, 0.01597292535007, 0.02571665123105049, 0.005108185112476349, 0.023838195949792862, 0.033545564860105515, -0.016966687515378, 0.012943158857524395, 0.019026927649974823, 0.0020390322897583246, 0.005068798083811998, 0.013597588054835796, -0.007168425712734461, 0.018251309171319008, 0.018699713051319122, -0.004096243064850569, -0.005853507202118635, 0.015997162088751793, 0.006683662999421358, 0.04440424591302872, -0.016154710203409195, -0.0030131018720567226, 0.02117200195789337, -0.000627540226560086, -0.01122831180691719, 0.0184452123939991, -0.035193756222724915, -0.022832313552498817, -0.02525612711906433, 0.01863911747932434, 0.04854896292090416, 0.01979042962193489, 0.0278253685683012, -0.017512045800685883, 0.032527562230825424, 0.004980934783816338, -0.012603824958205223, -0.002484407741576433, 0.04185924306511879, 0.008798439055681229, -0.014336851425468922, -0.007144187577068806, 0.0015209423145279288, -0.03706009313464165, 0.017281783744692802, -0.009925512596964836, -0.017075758427381516, 0.015427567064762115, 0.004699166398495436, -0.0047506727278232574, 0.025280363857746124, 0.004759761970490217, 7.839518366381526e-05, -0.0181179977953434, 0.040720049291849136, 0.0005347536643967032, 0.007489580661058426, -0.015039756894111633, -0.03480594605207443, -0.022783838212490082, 0.006647306028753519, 0.011385858990252018, -0.026564985513687134, -0.015621471218764782, -0.05720197409391403, -0.01610623486340046, -0.02394726686179638, 0.030636990442872047, 0.002599539002403617, -0.044283054769039154, -0.009258964098989964, 0.05637788027524948, 0.013536992482841015, -0.004244701471179724, -0.009943691082298756, -0.01791197434067726, 0.016954569146037102, -0.018760308623313904, -0.016687950119376183, 0.01765747368335724, 0.007010877598077059, -0.002060240600258112, -0.02726789005100727, 0.018299784511327744, 0.054390352219343185, 0.03899914398789406, 0.013500635512173176, -0.0076228901743888855, -0.02634684182703495, 0.04605243727564812, 0.002805562922731042, -0.003402426838874817, -0.005835328716784716, 0.011173775419592857, 0.010598120279610157, 0.0005131665384396911, -0.005471756681799889, -0.0024465357419103384, 0.012579587288200855, -0.012652301229536533, 0.0035630043130367994, 0.016821259632706642, 0.0029615960083901882, -0.038514379411935806, 0.018626999109983444, 0.0030827864538878202, 0.0034206053242087364, 0.011882741004228592, -0.0024192677810788155, -0.0019117820775136352, -0.018554285168647766, 0.0039114272221922874, -0.01660311594605446, 0.01096775196492672, 0.023995744064450264, 0.0013520328793674707, 0.01593656651675701, -0.010555703192949295, 0.05002748966217041, 0.022638408467173576, -0.0044901128858327866, -0.03550885245203972, -0.027316367253661156, -0.02460169792175293, -0.011549466289579868, -0.0024435059167444706, -0.0112767880782485, -0.02417753078043461, 0.00800464116036892, -0.01959652453660965, -0.013282492756843567, -0.01193727646023035, 0.005074857268482447, 0.039144571870565414, -0.03827200084924698, -0.049057964235544205, -0.016845496371388435, -0.0074168662540614605, -0.012688658200204372, 0.02542579360306263, -0.03223670646548271, 0.03444237634539604, -0.001798165962100029, -0.01131314504891634, -0.01427625585347414, 0.012652301229536533, -0.01867547631263733, 0.02835860662162304, -0.00887721311300993, 0.010573881678283215, 0.004208344500511885, 0.005399042274802923, 0.00045294995652511716, -0.016178948804736137, 0.01108288299292326, 0.008471224457025528, -0.002376851160079241, 0.005450548604130745, -0.00108238379471004, 0.005232405383139849, 0.0006426890613511205, 0.005138482432812452, 0.009555880911648273, 0.011391919106245041, 0.031097514554858208, -0.021087169647216797, 0.012391741387546062, -0.004311356693506241, -0.0021253805607557297, -0.04096243157982826, -0.0007665306911803782, 0.006871508434414864, -0.002392000053077936, 0.044186100363731384, 0.053372353315353394, -0.021026574075222015, -0.026007508859038353, -0.012749253772199154, -0.008319736458361149, -0.0033872779458761215, 0.006053471937775612, 0.0007472159340977669, 0.03570275753736496, -0.024129053577780724, -0.0005930766346864402, -0.01708787865936756, -0.015451804734766483, -0.004768851213157177, -0.019475333392620087, 0.034830186516046524, -0.021196240559220314, 0.01445804163813591, -0.025643937289714813, 0.009477106854319572, 0.005005172919481993, 0.010270905680954456, -0.007647128310054541, -0.016918212175369263]",A Bias-Variance-Covariance Decomposition of Kernel Scores for Generative Models.pdf
"., 2022). Though the bias-
variance decomposition has been generalized to distribu-
tions (Gruber & Buettner, 2023), the current theory does
not include a covariance term and relies on having access
to the predicted distribution. But, many generative models
only indirectly fit the training distribution by learning how
to generate samples. Others, such as large language mod-
els (LLMs), do explicitly fit the target distribution, but the
prevalence of closed source models means the predictive dis-
tribution is often not available to the practitioner (OpenAI,
2023). This makes it infeasible to apply the powerful frame-
work of the bias-variance decomposition in these cases.
Contrary, kernels allow to quantify differences between dis-
tributions only based on their samples without requiring
access to these distributions (Gretton et al., 2012a). They
are used in kernel scores to assess the goodness-of-fit for
predicted distributions (Gneiting & Raftery, 2007).
Ascontribution in this work, we...
•introduce the first extension of the bias-variance-
covariance decomposition beyond the mean squared
error to kernel scores in Section 3, and propose unbi-
ased and consistent estimators only requiring generated
samples in Section 4.
•examine the generalisation behavior of generative mod-
els for image and audio generation and investigate how
bias, variance and kernel entropy relate to the generali-
sation error in Section 5. This includes evidence that
mode collapse of underrepresented minority groups is
expressed purely in the bias.
•demonstrate how kernel entropy in combination with
text embeddings outperforms existing methods for esti-
mating the uncertainty of LLMs on common question
answering datasets (c.f. Figure 1 and Section 5.3).
2. Background
In this section, we give a brief introduction into kernel
scores, followed up by other bias-variance decompositionsand approaches for assessing the uncertainty in natural lan-
guage generation.
2.1. Kernel Scores
Kernel scores are a class of loss functions for distribution
predictions (Eaton, 1981; Eaton et al., 1996; Dawid, 2007).
For simplicity, we omit complex-valued kernels. We refer to
a symmetric kernel k:Y×Y→Rdefined on a set Yas
positive definite (p.d.) ifPn
i=1Pn
j=1aik(xi, xj)aj>0
for all x1, . . . , x n∈Yanda1, . . . , a n̸= 0 with n∈
N.Positive semi-definite (p.s.d.) refers to the case when
only ’≥’ holds. Assume Pis a set of distributions defined
onXsuch that for a kernel kthe operator ⟨P|k|Q⟩:=R
YR
Yk(x, y) dP(x) dQ(y)is finite for all P, Q∈P
(Eaton, 1981). It follows that ⟨.|k|.⟩is a symmetric bilinear
form and induces the semi-norm ∥P∥k=p
⟨P|k|P⟩.
Akernel score Sk:P×Y→Rbased on a p.s.d. kernel
k:Y×Y→Ris defined as (Steinwart & Ziegel, 2021)
Sk(P, y) =∥P∥2
k−2EˆY∼Pî
kÄˆY , yäó
. (1)
Note that Eaton (1981) and Dawid (2007) use a slightly less
general definition. If Ponly consists of Borel probabil-
ity measures, then the expected kernel score E[Sk(P, Y)]
based on a target Y∼Q∈Pis minimized when
P=Q(Gneiting & Raftery, 2007). Following Dawid
(2007), we refer to −∥Q∥2
k=E[Sk(Q, Y)]as the ker-
nel entropy function for any Q. The kernel score is
connected to the maximum mean discrepancy (MMD)
viaMMD2
k(P, Q) =E[Sk(P, Y)] +∥Q∥2
k(Steinwart &
Ziegel, 2021). The MMD is used for non-parametric two-
sample testing (Gretton et al., 2012a) and generative image
modelling (Li et al., 2015; Bi ´nkowski et al., 2018). Com-
pared to the MMD, kernel scores are","[0.015499988570809364, 0.03013443760573864, 0.035737667232751846, 0.03742318972945213, -0.008308039046823978, 0.002022913657128811, 0.0007295871037058532, -0.012755317613482475, -0.011252012103796005, 0.03530489653348923, 0.01917853206396103, -0.039928700774908066, -0.055348966270685196, 0.02965611405670643, -0.0010463346261531115, -0.005048030987381935, 0.02867668680846691, -0.000987255945801735, -0.030794981867074966, -0.018506599590182304, -0.01415612455457449, -0.030589984729886055, 0.005700032692402601, 0.012926148250699043, 0.06004110351204872, -0.017914388328790665, 0.018506599590182304, 0.006132802460342646, 0.024827314540743828, -0.04539526626467705, -0.011565200984477997, -0.03389270231127739, -0.02787948027253151, -0.050520170480012894, -0.028699465095996857, 0.05598673224449158, -0.02153598703444004, 0.01880270428955555, -0.008740808814764023, 0.02208264358341694, -0.038220398128032684, -0.02412121742963791, -0.06418658047914505, 0.056533388793468475, -0.030430544167757034, -0.0022549580316990614, 0.006064470391720533, -0.06436879932880402, 0.0034166029654443264, 0.018574930727481842, -0.054073434323072433, -0.030681094154715538, 0.04024758189916611, -0.030817758291959763, -0.04284420236945152, 0.019212696701288223, -0.014953332021832466, -0.002888452960178256, -0.003114802995696664, -0.044506948441267014, 0.0440514013171196, 0.01504444144666195, 0.02567007765173912, -0.004168255720287561, -0.01885964907705784, -0.04145478084683418, 0.02024906687438488, 0.04232032224535942, -0.01042063906788826, -0.002535404171794653, 0.010961601510643959, 0.01993018388748169, 0.008216929621994495, 0.02974722348153591, -0.04033869132399559, 0.04355029761791229, 0.04341363534331322, 0.013495581224560738, -0.006781956646591425, -0.002818697365000844, 0.040042586624622345, 0.008718031458556652, 0.010893269442021847, 0.009065386839210987, -0.06108886003494263, -0.007021118886768818, -0.0038209010381251574, -0.011177985928952694, -0.011286178603768349, 0.019155753776431084, -0.04642024636268616, -0.015146940015256405, -0.027105050161480904, 0.04938130080699921, 0.042889755219221115, 0.02562452293932438, -0.013951128348708153, -0.04389195889234543, 0.02986110933125019, -0.01044911053031683, -0.05366344377398491, 0.056852273643016815, -0.009743012487888336, -0.02019212394952774, 0.06682875007390976, -0.041340894997119904, -0.04938130080699921, -0.006867371965199709, -0.009053997695446014, 0.006873066071420908, -0.0035418784245848656, 0.007260281126946211, -0.005270109977573156, 0.017686614766716957, -0.008871778845787048, -0.05247902125120163, -0.02330123260617256, -0.012185883708298206, -0.04416528716683388, -0.020807111635804176, -0.019315196201205254, -0.01756133884191513, 0.0209551639854908, -0.0007673120708204806, 0.01407640427350998, -0.046055808663368225, -0.030202770605683327, -0.018244659528136253, -0.0073343077674508095, -0.03131886199116707, -0.007197643630206585, 0.04024758189916611, 0.015192494727671146, 0.005218861158937216, -0.05393677204847336, 0.0317060761153698, 0.016046645119786263, 0.014304177835583687, 0.0002156730624847114, 0.050201285630464554, -0.02380233444273472, 0.01987324096262455, 0.00138301239348948, 0.005927806254476309, -0.06086108833551407, -0.018654651939868927, 0.01009606197476387, 0.007675968110561371, -0.056852273643016815, 0.024189548566937447, 0.013928350992500782, -0.023460673168301582, -0.035965438932180405, 0.02503231167793274, -0.020932387560606003, -0.020271843299269676, -0.01917853206396103, 0.04327696934342384, 0.025533413514494896, -0.03263994678854942, -0.005005323328077793, 0.06204551085829735, 0.04464361071586609, -0.02078433521091938, 0.02325567789375782, 0.018062440678477287, -0.0521145835518837, 0.008211235515773296, -0.029018348082900047, -0.018495211377739906, -0.026171179488301277, 0.021729594096541405, 0.000384723738534376, -0.029360007494688034, 0.01682107523083687, 0.010050507262349129, 0.026080070063471794, -0.03548711538314819, -0.012686985544860363, -0.03733208030462265, -0.0751652643084526, 0.017014682292938232, 0.021775148808956146, 0.053572334349155426, -0.010790770873427391, 0.042138103395700455, 0.0220257006585598, -0.02416677214205265, -0.0185293760150671, 0.044119734317064285, 0.007909435778856277, 0.038903720676898956, 0.04234309867024422, 0.04143200442194939, 0.03368770331144333, -0.0333004891872406, 0.03587432950735092, 0.012390879914164543, -0.06436879932880402, 0.0015630958369001746, 0.04389195889234543, 0.01560248713940382, 0.004936991259455681, -0.06778540462255478, -0.020795723423361778, 0.017265234142541885, 0.00488858949393034, -0.00837637111544609, -0.03970092535018921, 0.01283503882586956, -0.012607265263795853, -0.031614966690540314, 0.04765022173523903, 0.022481247782707214, -0.001261295867152512, 0.019463248550891876, -0.0271278265863657, 0.07994850724935532, -0.008421925827860832, 0.04389195889234543, -0.01358669064939022, 0.039450373500585556, 0.02056794986128807, -0.006821817252784967, -0.035692110657691956, -0.03191107138991356, 0.015659430995583534, -0.026034515351057053, 0.04373251646757126, -0.017162734642624855, 0.06309326738119125, -0.008900250308215618, -0.0012790907640010118, -0.004273600876331329, 0.010893269442021847, -0.0413636714220047, 0.004498527385294437, 0.008205541409552097, -0.01326780766248703, -0.03605654835700989, 0.03184273838996887, 0.014566116966307163, -0.013393083587288857, 0.028562800958752632, 0.02084127813577652, 0.0477868877351284, -0.01071674469858408, 0.011810057796537876, 0.008826224133372307, 0.017014682292938232, -0.033915478736162186, -0.012743929401040077, -0.03733208030462265, 0.014258623123168945, -0.030658317729830742, -0.019417693838477135, 0.01751578412950039, 0.0059221116825938225, 0.02744670957326889, 0.007772771641612053, -0.032138846814632416, -0.029633335769176483, -0.06509767472743988, -0.012208661064505577, -0.00694139814004302, -0.013825853355228901, -0.03694486618041992, -0.026786167174577713, 0.0006729995948262513, -0.025966182351112366, 0.012527544051408768, -0.029997773468494415, -0.011252012103796005, 0.0008975700475275517, -0.014247233979403973, -0.028175584971904755, -0.010061895474791527, 0.03840261697769165, 0.0005224555497989058, -0.03396103158593178, -0.024143993854522705, 0.031341638416051865, 0.029200566932559013, 0.029200566932559013, 0.02674061246216297, -0.013609468005597591, -0.04393751546740532, 0.039290934801101685, 0.014657226391136646, -0.05607784166932106, 0.018927980214357376, -0.008535812608897686, 0.011753113940358162, -0.008712337352335453, 0.046966902911663055, -0.0005473682540468872, 0.013700577430427074, -0.016581913456320763, -0.0085927564650774, 0.017413286492228508, 0.05152237415313721, -0.05430120974779129, -0.0007345696212723851, 0.035418782383203506, -0.05739893019199371, -0.007123616989701986, -0.0054864948615431786, 0.08131515234708786, -0.031933847814798355, -0.017493007704615593, -0.0542556531727314, 0.01128048449754715, -0.010295363143086433, 0.05029239505529404, -0.03983759135007858, -0.0019147212151437998, 0.040634796023368835, -0.04437028244137764, 0.005449481774121523, -0.0461924709379673, -0.0461924709379673, -0.010807854123413563, -0.01200366485863924, -0.05580451339483261, 0.0009324479033239186, 0.004094229079782963, -0.028426136821508408, 0.02428065799176693, 0.003931940533220768, -0.013825853355228901, -0.00888886209577322, 0.01868881843984127, -0.010329529643058777, -0.007169171702116728, -0.03530489653348923, -0.05899334326386452, -0.005272957030683756, 0.04796910658478737, -0.0177321694791317, -0.038334283977746964, -0.10268031060695648, -0.027241714298725128, 0.02111460641026497, -0.03207051381468773, 0.04115867614746094, -0.0021567305084317923, 0.0171855129301548, 0.03926815837621689, 0.059221118688583374, 0.0011587978806346655, -0.0035475727636367083, -0.06040554121136665, -0.019736576825380325, 0.04302642121911049, 0.006821817252784967, 0.017686614766716957, -0.016718577593564987, -0.050884608179330826, -0.0007822597399353981, -0.04774133116006851, -0.023346787318587303, -0.02357456088066101, 0.04127256199717522, 0.00896858237683773, 0.006229605991393328, -0.042889755219221115, -0.015443045645952225, -0.005315664689987898, 0.03120497427880764, 0.017709391191601753, -0.027196159586310387, 0.043846406042575836, -0.05575896054506302, 0.004316308535635471, -0.020602116361260414, -0.024348990991711617, -0.0003665730182547122, 0.055303413420915604, 0.012197272852063179, 0.0238934438675642, 0.031933847814798355, 0.038060955703258514, -0.02567007765173912, 0.0045326934196054935, 0.008205541409552097, 0.007693050894886255, -0.011434230953454971, -0.0015801788540557027, -0.023119013756513596, 0.04915352910757065, 0.00565163092687726, 0.02260652370750904, -0.054164543747901917, 0.016934961080551147, 0.0300888828933239, 0.03726375102996826, -0.03712708503007889, 0.016878018155694008, 0.039723701775074005, 0.05366344377398491, -0.0214790441095829, -0.011889778077602386, -0.020488228648900986, -0.015499988570809364, 0.006930009461939335, 0.04058924317359924, 0.06186329200863838, 0.04430195316672325, 0.057080045342445374, 0.05238791182637215, 0.05225124955177307, -0.01676413230597973, 0.014634449034929276, -0.0655532255768776, 0.002636478515341878, -0.041819218546152115, 0.04521304741501808, 0.026626724749803543, 0.03781040757894516, 0.06997203081846237, 0.009794262237846851, -0.03701319918036461, -0.049927957355976105, -0.02851724624633789, 0.018119383603334427, -0.02364289201796055, -0.03646654263138771, 0.023551782593131065, 0.04097645729780197, -0.058310024440288544, -0.045099157840013504, 0.049290191382169724, 0.027788370847702026, -0.016183309257030487, -0.03990592062473297, 0.028608355671167374, 0.053526777774095535, -0.005227402318269014, -0.0348949059844017, 0.02073878049850464, 0.0013189511373639107, -0.0018378476379439235, -0.03136441484093666, -0.01783466711640358, -0.004675051663070917, 0.01388279628008604, -0.0035077123902738094, -0.030749427154660225, 0.02851724624633789, 0.013598079793155193, 0.022857073694467545, 0.007129311561584473, 0.050474613904953, -0.008883167989552021, -0.033596593886613846, -0.03471268713474274, 0.0751652643084526, -0.030658317729830742, 0.02965611405670643, 0.011855612508952618, 0.04425639659166336, 0.04013369604945183, -0.02491842396557331, -0.014725558459758759, -0.008473175577819347, 0.02229902893304825, -0.02142210118472576, -0.005070808343589306, -0.041067566722631454, 0.03844817355275154, 0.007806937675923109, -0.016775520518422127, 0.020237678661942482, -0.02213958650827408, -0.027674483135342598, -0.006873066071420908, 0.04519026726484299, -0.07024535536766052, -0.003191676689311862, -0.0021809316240251064, 0.01253893319517374, -0.03393825516104698, -0.014668615534901619, 0.029633335769176483, 0.010733827948570251, 0.02341511845588684, 0.05717115476727486, 0.008826224133372307, -0.015761928632855415, -0.0007495172903873026, -0.01761828176677227, -0.03986036777496338, 0.010329529643058777, -0.008678171783685684, -0.0034080613404512405, 0.019850462675094604, -0.00473768962547183, -0.0011139549314975739, -0.0013360341545194387, -0.006326409988105297, 0.005645936354994774, -0.010266891680657864, -0.022845685482025146, 0.017527172341942787, 7.980970985954627e-05, 0.024417322129011154, 0.04104479029774666, 0.0058167665265500546, -0.0008940111147239804, 0.02847169153392315, -0.03983759135007858, 0.0030208465177565813, -0.03457602113485336, 0.044871386140584946, 0.029724445194005966, 0.02143348939716816, -0.0177321694791317, -0.0005473682540468872, -0.008444703184068203, -0.01611497811973095, -0.011160902678966522, -0.025761187076568604, -0.026285065338015556, -1.926287768583279e-05, -0.01696912758052349, -0.02772003784775734, -0.026080070063471794, -0.09803372621536255, -0.029155012220144272, -0.07953851670026779, 0.023346787318587303, -0.007288753055036068, 0.016240252181887627, 0.010426333174109459, 0.0005345559911802411, 0.0035219481214880943, 0.014383898116648197, -0.015465823002159595, -0.0006338510429486632, 0.026877276599407196, -0.010933129116892815, 0.004945532884448767, 0.007544998079538345, 0.0238934438675642, -0.006383353378623724, -0.031614966690540314, 0.0037127085961401463, -0.03883538767695427, 0.015226660296320915, -0.003157510655000806, -0.029177788645029068, -0.04017924889922142, 0.018984923139214516, -0.002205132506787777, -0.05298012122511864, 0.04323141649365425, -0.005944889038801193, 0.023506227880716324, -0.03270827978849411, 0.004811715800315142, 0.004410265013575554, -0.006178357172757387, 0.012459211982786655, 0.005603228695690632, -0.05006462335586548, 0.004156867042183876, -7.197999366326258e-05, -0.009071080945432186, 0.03737763687968254, 0.05899334326386452, -0.020590726286172867, 0.0024556834250688553, 0.036717094480991364, -0.04109034314751625, 0.0033682009670883417, -0.014110569842159748, 0.03894927352666855, -0.014930554665625095, -0.005685796961188316, -0.005523507948964834, -0.023346787318587303, -0.006702235899865627, -0.028813350945711136, -0.006053081713616848, -0.03093164600431919, 0.03307271748781204, 0.00891733355820179, 0.008809140883386135, -0.025100642815232277, -0.010978683829307556, 0.014463619329035282, -0.01601247861981392, 0.004065757617354393, 0.004484291188418865, -0.0028144267853349447, 0.0381292887032032, 0.02514619752764702, -0.016832463443279266, -0.04496249556541443, 0.003240078454837203, 0.018187716603279114, 0.0052985819056630135, -0.005455175880342722, -0.021501820534467697, -0.01682107523083687, 0.025009533390402794, -0.006548488978296518, 0.015408879145979881, -0.012960313819348812, -0.018187716603279114, -0.014725558459758759, 0.005113515537232161, -0.0066452925093472, -0.002336102304980159, -0.0070040361024439335, -0.03539600595831871, 0.011149514466524124, -0.020499616861343384, 0.06623654067516327, -0.050474613904953, 0.009059691801667213, -0.03368770331144333, 0.0016200392274186015, 0.010574386455118656, -0.004897131118923426, -0.016137754544615746, 0.019053256139159203, -0.03849372640252113, 0.031501080840826035, 0.018666040152311325, -0.012071996927261353, 0.011149514466524124, 0.020613504573702812, -0.03455324470996857, -0.024895647540688515, -0.006531406193971634, -0.01680968701839447, 0.002747518243268132, 0.004293531179428101, -0.03605654835700989, 0.015272215008735657, 0.014805279672145844, -0.007596247363835573, -0.005645936354994774, 0.014577506110072136, -0.008074571378529072, -0.019804907962679863, 0.005882251542061567, -0.02057933807373047, -0.027697261422872543, -0.02642172947525978, -0.03888094052672386, 0.004996781703084707, -0.03669431433081627, 0.03186551854014397, 0.005583298858255148, 0.016422471031546593, -0.042251989245414734, 0.005711421370506287, -0.010938824154436588, -0.0011054134229198098, 0.024963978677988052, -0.03548711538314819, -0.05006462335586548, 0.015454433858394623, 0.04077146202325821, 0.0032173010986298323, 0.020419897511601448, 0.009498156607151031, -0.014315566048026085, -0.018836870789527893, 0.011844223365187645, -0.00891733355820179, 0.0257839635014534, -0.022378750145435333, 0.005882251542061567, -0.007465277332812548, -0.01170755922794342, -0.011775891296565533, 0.018005497753620148, -0.01160506159067154, 0.029041124507784843, -0.03270827978849411, -0.019588524475693703, 0.002687727566808462, -0.01192394457757473, 0.02514619752764702, -0.01735634356737137, 0.009053997695446014, -0.02922334335744381, 0.004851576406508684, -0.0063377986662089825, 0.006087247747927904, -0.026193955913186073, -0.024052884429693222, 0.05840113386511803, -0.012983091175556183, 0.028221139684319496, 0.0020599267445504665, -0.018495211377739906, -0.005264415871351957, 0.042138103395700455, -0.042251989245414734, -0.007698745466768742, -0.0338471457362175, -0.013085589744150639, -0.008700949139893055, 0.025260085240006447, 0.029246121644973755, -0.045782480388879776, -0.03248050436377525, 0.03341437503695488, -0.03172885254025459, -0.0035219481214880943, -0.016137754544615746, -0.050246842205524445, -0.0017111486522480845, -0.018176328390836716, 0.02459954097867012, -0.02142210118472576, -0.03892649710178375, -0.008735114708542824, -0.058036696165800095, -0.020328788086771965, 0.0061612739227712154, -0.03364215046167374, -0.05298012122511864, -0.0038892331067472696, 0.0030720955692231655, 0.011047015897929668, 0.021934591233730316, 0.03136441484093666, 0.02224208600819111, -0.028995569795370102, -0.010050507262349129, 0.010004952549934387, -0.023221511393785477, -0.009538016282022, -0.0038892331067472696, -0.0040202029049396515, -0.006326409988105297, 0.004213810432702303, 0.003752568969503045, 0.014543339610099792, -0.0015474364627152681, -0.007915129885077477, 0.011593672446906567, 0.013393083587288857, 0.021843481808900833, 0.02519175224006176, 0.003792429342865944, 0.007567775435745716, -0.012926148250699043, 0.015488600358366966, 0.036124881356954575, -0.030476098880171776, 0.005287193227559328, 0.002182355150580406, 0.013632245361804962, 0.02185487002134323, 0.041340894997119904, 0.022094031795859337, -0.0032770917750895023, 0.04555470496416092, 0.026831721886992455, -0.038106512278318405, -0.02110321819782257, -0.010637023486196995, 0.008820530027151108, 0.006719319149851799, 0.0456458143889904, -0.017595505341887474, -0.027355600148439407, 0.05042906105518341, 0.04746800288558006, -0.021353768184781075, 0.02895001508295536, 0.009572182781994343, 0.014623060822486877, 0.04678468406200409, -0.015238049440085888, -0.005882251542061567, 0.019736576825380325, -0.013643634505569935, -0.031979404389858246, -0.009446906857192516, -0.03152385726571083, -0.01816493831574917, -0.003997425548732281, -0.03662598505616188, -0.031296081840991974, 0.00100006815046072, -0.011810057796537876, -0.016684411093592644, -0.04131811857223511, 0.019679633900523186, -0.022549578920006752, -0.08090515434741974, -0.022914016619324684, 0.03915426880121231, -0.002918348414823413, 0.029610559344291687, -0.010409249924123287, -0.002370268339291215, -0.020328788086771965, -0.03594266250729561, 0.008199847303330898, -0.03325493633747101, -0.02890446037054062, 0.0009424129966646433, 0.040156472474336624, 0.01133173331618309, -0.06441435217857361, -0.005144834518432617, 0.026512838900089264, -0.016570523381233215, -0.016445249319076538, -0.01412195898592472, 0.008188458159565926, -0.007812632247805595, -0.0012819379335269332, -0.015397490933537483, -0.017584117129445076, 0.03138719126582146, -0.053572334349155426, -0.0017083014827221632, -0.0037611103616654873, -0.014554728753864765, -0.01224282756447792, 0.0011153784580528736, 0.017413286492228508, -0.03195662796497345, -0.0014776807511225343, -0.004099923651665449, 0.01698051579296589, 0.014497784897685051, -0.005196083802729845, -0.012140328995883465, -0.056260060518980026, -0.003997425548732281, -0.026171179488301277, 0.020442673936486244, -0.02756059728562832, 0.04334530234336853, 0.02154737524688244, 0.01793716475367546, -0.01358669064939022, 0.002069891896098852, -0.03610210493206978, -0.017527172341942787, -0.0011224964400753379, -0.005887945648282766, -0.013393083587288857, 0.008814835920929909, 0.020237678661942482, 0.009128023870289326, 0.028448913246393204, -0.024576764553785324, -0.0032600087579339743, 0.021558765321969986, 0.007408333942294121, -0.05129459872841835, -0.02503231167793274, -0.0033027161844074726, 0.012117551639676094, -0.01981629617512226, -0.03726375102996826, -0.022196531295776367, 0.032685503363609314, -0.005312817636877298, 0.010454804636538029, -0.0029952218756079674, 0.02126265875995159, 0.024417322129011154, 0.048105768859386444, -0.04737689346075058, 0.029997773468494415, 0.005321359261870384, -0.04291253164410591, 0.006315021310001612, 0.01766383647918701, -0.005190389230847359, 0.05006462335586548, 0.011832835152745247, -0.006423213519155979, -0.013894185423851013, 0.049335747957229614, 0.05721671134233475, -0.028221139684319496, 0.05188681185245514, -0.014941943809390068, -0.014053626917302608, -0.005694338120520115, 0.02895001508295536, 0.0060132211074233055, 0.019212696701288223, -0.013358917087316513, 0.013336139731109142, 0.01949741505086422, -0.009036914445459843, -0.005292887333780527, -0.004706370644271374, 0.0013040034100413322, -0.0011474092025309801, -0.03872150182723999, -0.008410537615418434, -0.007129311561584473, -0.01412195898592472, 0.0002913009957410395, -0.03614765778183937, 0.004014508333057165, 0.0049256025813519955, 0.0233695637434721, 0.02664950303733349, -0.0016499344492331147, -0.014657226391136646, -0.0009338714880868793, 0.021843481808900833, 0.00738555658608675, -0.04651135578751564, -0.0025368276983499527, 0.010170088149607182, -0.01257309876382351, -0.011365898884832859, -0.021615708246827126, -0.02890446037054062, -0.014850834384560585, 0.0019460400799289346, -0.018609097227454185, 0.0043988763354718685, -0.019782131537795067, -0.04571414738893509, 0.052342358976602554, -0.008444703184068203, 0.0004704947059508413, -0.008678171783685684, 0.00474053667858243, 0.0054864948615431786, -0.036398209631443024, 0.04651135578751564, -0.0016542052617296576, -0.02303929254412651, 0.017652448266744614, 0.0076645794324576855, -0.037468746304512024, 0.02261791191995144, -0.01257309876382351, -0.0011765926610678434, -0.004635191522538662, 0.0026478671934455633, -0.03908593952655792, 0.01168478187173605, 0.01649080403149128, 0.019634079188108444, -0.008626922033727169, 0.02287985198199749, 0.03352826461195946, 0.0029980691615492105, 0.01600109040737152, -0.004697829019278288, 0.010671189986169338, -0.0004996781935915351, -0.01803966425359249, -0.013973905704915524, -0.0053042760118842125, -0.016843851655721664, 0.001313256798312068, 0.004074299242347479, -0.03400658816099167, 0.008444703184068203, 0.05580451339483261, 0.018119383603334427, 0.028448913246393204, -0.018666040152311325, -0.010540219955146313, -0.02052239514887333, -0.0020641975570470095, 0.023130401968955994, -0.011474091559648514, -0.027082271873950958, -0.022173753008246422, 0.0196113009005785, 0.007140700239688158, 0.038060955703258514, -0.02305068075656891, -0.014486396685242653, 0.009663292206823826, 0.00916219037026167, 0.032207176089286804, 0.0013338987482711673, 0.018176328390836716, -0.00915649626404047, -0.018996313214302063, -0.006816122680902481, 0.01168478187173605, 0.006303632631897926, 0.018506599590182304, -0.042889755219221115, 0.02642172947525978, -0.000874080928042531, -0.00829665083438158, -0.028813350945711136, 0.002348914509639144, -0.00153035344555974, -0.00200155982747674, 0.05917556211352348, -0.0031859823502600193, -0.02062489278614521, 0.013700577430427074, 0.0033425765577703714, 0.01326780766248703, 0.02084127813577652, -0.01955435797572136, 0.02835780382156372, -0.010693967342376709, -0.021581541746854782, 0.009458296000957489, 0.0034735463559627533, -0.007738605607300997, 0.01696912758052349, -0.006633903831243515, -0.011177985928952694, -0.012698374688625336, 0.002348914509639144, -0.013939740136265755, -0.0012762435944750905, 0.01917853206396103, -0.01874576136469841, 0.028016144409775734, -0.001317527494393289, -0.008507341146469116, -0.0100732846185565, 0.0037810406647622585, -0.01939491555094719, -0.0033596595749258995, 0.013825853355228901, 0.0055007305927574635, 0.0158530380576849, -0.019167141988873482, -0.00582530815154314, -0.015146940015256405, -0.045941922813653946, -0.034462135285139084, 0.029018348082900047, 0.04774133116006851, -0.016934961080551147, -0.021034885197877884, -0.014429452829062939, 0.01076799351722002, 0.018358547240495682, -0.022583745419979095, 0.007146394345909357, -0.00347069907002151, 0.0023987400345504284, 0.03512267768383026, 0.03906315937638283, 0.004077146295458078, -0.02858557738363743, 0.013746132142841816, -0.004213810432702303, -0.05170459300279617, 0.011081182397902012, -0.018757149577140808, 0.00792651902884245, 0.0036073632072657347, 0.006998341530561447, 0.022948183119297028, -0.015727762132883072, 0.026285065338015556, 0.004071451723575592, 0.026558393612504005, 0.007374167907983065, -0.009298854507505894, 0.02459954097867012, 0.011052710935473442, 0.016035256907343864, 0.01098437886685133, -0.0006406130269169807, -0.020078236237168312, -0.040361467748880386, -0.01938352733850479, 0.008979971520602703, -0.014668615534901619, -0.013085589744150639, 0.01318808738142252, 0.057080045342445374, -0.020454062148928642, -0.01740189827978611, 0.046966902911663055, 0.0060132211074233055, 0.02164987474679947, -0.011855612508952618, -0.006776262540370226, 0.017641060054302216, -0.001682676956988871, 0.035737667232751846, -0.01750439591705799, 0.0018677429761737585, 0.0028642520774155855, 0.023711225017905235, 0.0008890285389497876, 0.00867247674614191, 0.011662004515528679, 0.0040258970111608505, 0.008137209340929985, -0.0483335442841053, -0.0034564633388072252, -0.0026507144793868065, 0.015921369194984436, -0.012015054002404213, 0.015545543283224106, 0.005756976082921028, -0.020556561648845673, -0.01441806461662054, -0.016718577593564987, 0.007863881066441536, 0.030658317729830742, 0.005011017434298992, -0.004712064750492573, 0.012721152044832706, -0.018449656665325165, -0.01803966425359249, -0.021740984171628952, 0.008547201752662659, -0.0029724445194005966, 0.0005071519990451634, 0.01783466711640358, -0.0014086369192227721, 0.044233620166778564, 0.02772003784775734, -0.040908124297857285, -0.016206087544560432, 0.00471491226926446, -0.023324009031057358, -0.017629671841859818, -0.007601941470056772, 0.011103959754109383, 0.0059164175763726234, 0.008700949139893055, 0.003479240695014596, -0.053253449499607086, -0.013928350992500782, -0.028061699122190475, 0.005435246042907238, 0.015511377714574337, 0.0009224828099831939, 0.009327325969934464, 0.0488802008330822, 0.0025069324765354395, -0.008046099916100502, -0.02052239514887333, -0.009258993901312351, -0.009606348350644112, -0.011058405041694641, -0.030111661180853844, -0.03646654263138771, 0.00034077055170200765, -0.007288753055036068, 0.04824243485927582, -0.0076702735386788845, 0.009572182781994343, 0.017641060054302216, -0.008638311177492142, -0.02240152657032013, -0.004185338504612446, -0.011200763285160065, 0.01825604774057865, 0.027833925560116768, -0.012948925606906414, -0.01445223018527031, -0.006787651218473911, -0.030316656455397606, -0.010483277030289173, -0.01761828176677227, 0.0009239063947461545, 0.0021951673552393913, 0.016206087544560432, -0.0020129485055804253, -0.00629793806001544, -0.016695799306035042, 0.004091382026672363, -0.008439009077847004, 0.01133173331618309, -0.014531951397657394, 0.003331187879666686, 0.003405214287340641, 0.0012235709000378847, 0.03607932850718498, -1.7539006876177154e-05, -0.005588992964476347, 0.002895571058616042, 0.00014387101691681892, -0.03614765778183937, 0.0037468746304512024, 0.026717834174633026, 0.0024386004079133272, -0.037514299154281616, -0.008046099916100502, 7.829714741092175e-05, 0.035851553082466125, -0.018449656665325165, -0.008974277414381504, -0.03769651800394058, -0.007391251157969236, 0.018119383603334427, -0.0012435010867193341, 0.018666040152311325, -0.023346787318587303, 0.013472803868353367, -0.0016243100399151444, 0.024622319266200066, 0.002549639903008938, -0.028130030259490013, -0.016798296943306923, -0.028130030259490013, 0.03195662796497345, 0.02760615199804306, -0.007937907241284847, 0.01767522655427456, 0.008473175577819347, -0.0037810406647622585, -0.006981258746236563, 0.01982768625020981, -0.00629793806001544, 0.015511377714574337, 0.01987324096262455, 0.0429808646440506, -0.04093090444803238, 0.0017282316694036126, -0.02088683284819126, 0.02674061246216297, 0.016991905868053436, 0.020932387560606003, -0.007311530411243439, -0.0013381694443523884, -0.02330123260617256, 0.03248050436377525, -0.022276250645518303, 0.03621599078178406, 0.027697261422872543, 0.007180560380220413, 0.0020841278601437807, -0.020693225786089897, 0.04491693899035454, 0.005099279806017876, -0.01350697036832571, 0.0065883491188287735, -0.007396945264190435, -0.02154737524688244, -0.024075662717223167, -0.011662004515528679, -0.009765789844095707, -0.010192865505814552, -0.050565723329782486, 0.0032457727938890457, 0.014019460417330265, 0.03186551854014397, 0.0413636714220047, 0.00048437464283779263, 0.005996138323098421, -0.01735634356737137, -0.011405759491026402, 0.026285065338015556, -0.007032507564872503, 0.02357456088066101, -0.015055830590426922, -0.0034849350340664387, 0.016878018155694008, 0.017436062917113304, 0.016718577593564987, 0.014896389096975327, -0.022640688344836235, -0.009794262237846851, -0.030863313004374504, 0.005722810048609972, 0.016263030469417572, -0.013062812387943268, -0.02100071869790554, 0.02965611405670643, 0.038060955703258514, -0.008137209340929985, 0.011326039209961891, -0.007966379635035992, -0.004191033076494932, -0.020909609273076057, 0.011576589196920395, -0.03286771848797798, -0.026444505900144577, -0.00979995634406805, -0.0012783788843080401, -0.0017709392122924328, -0.020977942273020744, -0.029678890481591225, 0.01573915034532547, 0.0015801788540557027, 0.018016885966062546, 0.011958110146224499, 0.03056720830500126, 0.022788742557168007, -0.010170088149607182, 0.009583570994436741, -0.013028645887970924, -0.003083484247326851, -0.014873611740767956, -0.02293679490685463, -0.0045896368101239204, -0.004603872541338205, 0.00706097949296236, 0.0017524325521662831, -0.02701394073665142, 0.0008370677242055535, 0.035897109657526016, -0.03270827978849411, -0.020431285724043846, -0.015875814482569695, -0.021627096459269524, 0.02196875773370266, -0.00018613367865327746, -0.025214530527591705, -0.0015687901759520173, 0.03104553185403347, -0.021444877609610558, -0.03147830069065094, -0.001726808026432991, -0.003200218081474304, -0.007675968110561371, 0.029405562207102776, 0.012459211982786655, -0.01017578225582838, 0.0163883063942194, -0.0007302988669835031, -0.005714268423616886, 0.00926468800753355, 0.03172885254025459, 0.011246317997574806, 0.005116363056004047, 0.0017965637380257249, 0.009247605688869953, -0.030430544167757034, -0.005808224901556969, -0.002969597466289997, -0.015499988570809364, 0.01757272705435753, 0.03860761225223541, -0.03238939493894577, 0.028107253834605217, 0.0076645794324576855, 0.006981258746236563, 0.0034109086263924837, 0.01557970978319645, -0.008057489059865475, 0.030817758291959763, 0.017914388328790665, -0.008387760259211063, -0.009566488675773144, 0.003968953620642424, 0.01895075850188732, 0.03787873685359955, -0.04022480547428131, 0.014008072204887867, 0.016183309257030487, -0.0007779889856465161, -0.015875814482569695, 0.005865168292075396, -0.033596593886613846, -0.0007096569170244038, -0.016183309257030487, 0.01870020665228367, 0.03443935886025429, 0.024052884429693222, -0.0037411802913993597, -0.018506599590182304, 0.014941943809390068, 0.0059164175763726234, -0.013689189217984676, -0.006400436162948608, 0.034074921160936356, 0.015431656502187252, -0.009401352144777775, -0.016183309257030487, 0.004165408201515675, -0.02970166876912117, 0.025715632364153862, -0.017151346430182457, -0.01563665270805359, 0.0023403731174767017, 0.009896759875118732, -0.012163106352090836, 0.018939368426799774, -0.0010121685918420553, -0.005429551471024752, 0.0016072270227596164, 0.06313882023096085, -0.011935332790017128, 0.0024314825423061848, -0.009179273620247841, -0.045030828565359116, -0.005751281511038542, 0.009065386839210987, 0.003806665074080229, -0.04131811857223511, 0.004250823520123959, -0.05521230399608612, -0.006411824841052294, -0.028107253834605217, 0.025852296501398087, 0.009703152813017368, -0.05120348930358887, -0.00830234494060278, 0.07502859830856323, 0.011889778077602386, 0.0034906293731182814, -0.011616449803113937, 0.0056829494424164295, 0.02020351216197014, -0.031774409115314484, -0.022640688344836235, 0.02400732971727848, 0.0034109086263924837, 0.0010876186424866319, -0.020966554060578346, 0.02191181294620037, 0.0477868877351284, 0.02298234961926937, 0.0002802681992761791, -0.02368844673037529, -0.02582951821386814, 0.05106682702898979, 0.010016340762376785, 0.009036914445459843, -0.004384640604257584, 0.018335768952965736, -0.0033084105234593153, 0.005933500360697508, 0.014429452829062939, -0.003783887717872858, 0.00856997910887003, -0.013632245361804962, 2.2477064703707583e-05, -0.011958110146224499, -0.01098437886685133, -0.03876705467700958, -0.003140427637845278, 0.014258623123168945, 0.0013403048506006598, 0.015522765927016735, 0.00553489662706852, -0.0018378476379439235, -0.019429082050919533, 0.009333020076155663, -0.0053526777774095535, 0.007197643630206585, 0.03983759135007858, 0.007408333942294121, 0.006070164497941732, -0.020237678661942482, 0.05184125527739525, 0.011502563022077084, 0.0010235572699457407, -0.04414251074194908, -0.009811344556510448, -0.030384989455342293, -0.011832835152745247, -0.0053526777774095535, -0.008211235515773296, -0.02432621270418167, 0.0013687765458598733, -0.03282216563820839, -0.0075734700076282024, 0.004541234578937292, 0.002727587940171361, 0.046488575637340546, -0.05225124955177307, -0.043846406042575836, -0.018825482577085495, -0.005700032692402601, -0.006907232105731964, 0.024508431553840637, -0.017811890691518784, 0.044871386140584946, 0.005139140412211418, -0.007841103710234165, -2.2910813640919514e-05, 0.011958110146224499, -0.014907777309417725, 0.031774409115314484, -0.0007815479184500873, -0.005042336415499449, 0.01039216760545969, 0.012151718139648438, -0.007032507564872503, -0.011935332790017128, 0.019747965037822723, 0.002039996674284339, -0.004640885628759861, 0.0014420911902561784, -0.011525340378284454, 0.0029297370929270983, -0.0031973710283637047, -0.007117922883480787, -0.002992374822497368, -0.0021083287429064512, 0.01842687837779522, -0.028403358533978462, 0.017857445403933525, -0.002691998379305005, -0.018290214240550995, -0.03685375675559044, -0.006115719210356474, 0.02380233444273472, 0.0026848805136978626, 0.03455324470996857, 0.035054344683885574, -0.031455524265766144, -0.009253299795091152, -0.0004580383247230202, -0.015488600358366966, -0.005882251542061567, 0.018996313214302063, 0.016957739368081093, 0.03523656353354454, -0.024462876841425896, -0.008336511440575123, -0.004783244337886572, 0.0020300315227359533, 0.011775891296565533, -0.023756779730319977, 0.020078236237168312, -0.04184199869632721, 0.012948925606906414, -0.015830259770154953, 0.013028645887970924, 0.008080266416072845, 0.026011737063527107, 0.0015801788540557027, -0.03648931905627251]",A Bias-Variance-Covariance Decomposition of Kernel Scores for Generative Models.pdf
" applicable to a wider
range of scenarios, since one sample of the target distribu-
tion is sufficient for evaluation. For example, MMDs cannot
be computed for question-answering pairs when there is
only one answer for each question in the dataset. We offer a
more extensive discussion of related work in Appendix B.
2.2. Bias-Variance (-Covariance) Decompositions
Ueda & Nakano (1996) introduced the bias-variance-
covariance decomposition for the mean squared error. For
a real-valued ensemble prediction ˆP(n)=1
nPn
i=1ˆPiwith
identically distributed ˆP1, . . . , ˆPnand real-valued target Y
it is given by
EhÄˆP(n)−Yä2i
| {z }
Expected Squared Error=V(Y)|{z}
Noise+ (EîˆPó
−E[Y])2
| {z }
Bias
+1
nVÄˆPä
|{z}
Variance+n−1
nCovÄˆP,ˆP′ä
| {z }
Covariance,(2)
2
Bias-Variance-Covariance Decomposition of Kernel Scores
with ˆP:=ˆP1andˆP′:=ˆP2. We use VandCov to de-
note the textbook definitions of variance and covariance
for real-valued random variables (Capi ´nski & Kopp, 2004).
Throughout this work, we imply that the pairwise covariance
of identically distributed variables is the same. Rame et al.
(2022) propose an approximate bias-variance-covariance
decomposition for hard-label classification but it only holds
in an infinitesimal locality around the prediction. To our
best knowledge, the mean squared error is the only case
so far with a non-approximated decomposition. Gruber &
Buettner (2023) introduce a bias-variance decomposition for
loss functions of general distributions. They demonstrated
that the variance term is a meaningful measure of the model
uncertainty similar to confidence scores in classification.
However, they require a loss-specific transformation of the
distributions into a dual vector space and a covariance term
is not given.
2.3. Uncertainty in Natural Language Generation
In the following, we give a brief overview of uncertainty
estimation in natural language generation.
A common approach is predictive entropy, which is the Shan-
non entropy −R
log ˆp(y|x) dˆp(y|x)of the predicted dis-
tribution ˆpgiven an input x(Malinin & Gales, 2020). For a
generated token sequence s= (s1, . . . , s l)∈Nlof length
l∈Nit is computed viaPl
i=1log ˆp(si|s1, . . . , s i−1),
where ˆpis the predicted distribution of the generating lan-
guage model. Note that the predicted distribution is not
always available for closed-source models. The computa-
tion also scales linearly with the length of the generated text,
making it costly for larger text generations. Malinin & Gales
(2020) propose to use length-normalisation of the predictive
entropy since the Shannon entropy is systematically affected
by the sequence length. Kuhn et al. (2023) propose semantic
entropy to ease the computation of the predictive entropy
by finding clusters of semantically similar generations. An-
other approach is lexical similarity (Fomicheva et al., 2020),
which quantifies the average pairwise similarity between
generated answers according to a similarity measure, like
RougeL (Lin & Och, 2004; Kuhn et al., 2023). Kadavath
et al. (2022) propose the baseline p(True) , which asks the
model itself if the generated answer is correct. Alterna-
tive approaches exist, which require an ensemble of models
(Lakshminarayanan et al., 2017; Malinin & Gales, 2020).
However, ensembles are practically less relevant due to the
high computational cost of training even a single model.
3.A Bias-Variance-Covariance Decomposition
of Kernel Scores
In this section, we state our main theoretical contribution.
All proofs are presented in Appendix E. To highlight the
similarity to the mean squared error case, we introduce thenovel definitions for distributional variance and distribu-
tional covariance. The latter also implies a distributional
correlation, which we define later in Section 4. Note that
