text,embedding,file
"Do Language Models Exhibit the Same Cognitive Biases in Problem Solving
as Human Learners?
Andreas Opedal* 1 2Alessandro Stolfo* 1Haruki Shirakami1Ying Jiao3
Ryan Cotterell1Bernhard Schölkopf1 2Abulhair Saparov4Mrinmaya Sachan1
Abstract
There is increasing interest in employing large lan-
guage models (LLMs) as cognitive models. For
such purposes, it is central to understand which
properties of human cognition are well-modeled
by LLMs, and which are not. In this work, we
study the biases of LLMs in relation to those
known in children when solving arithmetic word
problems. Surveying the learning science litera-
ture, we posit that the problem-solving process
can be split into three distinct steps: text compre-
hension, solution planning and solution execution.
We construct tests for each one in order to un-
derstand whether current LLMs display the same
cognitive biases as children in these steps. We
generate a novel set of word problems for each
of these tests, using a neuro-symbolic approach
that enables fine-grained control over the prob-
lem features. We find evidence that LLMs, with
and without instruction-tuning, exhibit human-
like biases in both the text-comprehension and
the solution-planning steps of the solving process,
but not in the final step, in which the arithmetic
expressions are executed to obtain the answer.
https://github.com/eth-lre/
solving-biases
1. Introduction
There is active discussion around large pretrained language
models (LLMs) as plausible cognitive models (Mahowald
et al., 2023), e.g., in terms of language acquisition (Warstadt
and Bowman, 2022), decision making (Aher et al., 2023)
and political orientation (Argyle et al., 2023). In the
context of education, cognitive modeling enables the
*Equal contribution1ETH Zürich2Max Planck Institute for
Intelligent Systems3KU Leuven4New York University. Corre-
spondence to: Andreas Opedal <andreas.opedal@inf.ethz.ch>,
Alessandro Stolfo <alessandro.stolfo@inf.ethz.ch>.
Proceedings of the 41stInternational Conference on Machine
Learning , Vienna, Austria. PMLR 235, 2024. Copyright 2024 by
the author(s).
Figure 1. A three-step model of the cognitive process involved in
solving math word problems. We study whether LLMs exhibit
similar biases as human children along each step of this process.
study of human learning without the high cost of data
collection from human subjects, which can lead to a better
understanding of human learning and, therefore, improved
learning outcomes (VanLehn et al., 1994). Several recent
articles have already employed LLMs as models of students
(Macina et al., 2023; Nguyen et al., 2023). However, for
such modeling to be meaningful, it is imperative that the
student model is consistent with actual student behavior.
Yet, that is not always the case: Many existing student
models fail to validate faithfulness to realistic classroom
scenarios (Käser and Alexandron, 2023). Importantly, an
LLM that models the problem-solving process of children
should also make similar mistakes as children, i.e., it should
mimic the cognitive biases that are salient in children
during problem-solving. Given that LLMs may be trained
predominantly on data generated by adults , it is not obvious
that they would exhibit child-like behavior.
In this paper, we study whether LLMs are subject to simi-
lar biases as children when solving arithmetic math word
problems.1These problems are interesting because they are
conceptually simple, and yet, require several distinct skills
to solve (Stern, 1993). A learner needs to understand the
situation described, relate it to arithmetic equations, and
1Related studies have compared LLM biases to human ones
on the task of syllogistic reasoning (Ando et al., 2023; Dasgupta
et al., 2023; Eisape et al., 2024). These are discussed in §7.
1arXiv:2401.18070v2  [cs.CL]  17 Jun 2024
Do Language Models Exhibit the Same Cognitive Biases in Problem Solving as Human Learners?
perform the required computations, as Fig. 1 illustrates. By
Piaget’s","[0.015809565782546997, 0.0023588414769619703, 0.01393670029938221, 0.02756340801715851, 0.012186539359390736, 0.017630765214562416, 0.02587137185037136, 0.018173249438405037, -0.0167524553835392, 0.03213578090071678, -0.0004415763833094388, -0.08008112758398056, -0.031205808743834496, 0.027899231761693954, -0.002323321532458067, -0.00674231443554163, 0.04975363239645958, -0.055178482085466385, -0.021725235506892204, 0.030895816162228584, 0.05683176964521408, 0.006577631458640099, 0.00658408971503377, 0.022706875577569008, 0.04549124836921692, -0.017191611230373383, 0.029707515612244606, 0.0009711451712064445, 0.008744343183934689, -0.0005440996028482914, 0.06370324641466141, -0.024166418239474297, -0.07760120183229446, -0.0028658066876232624, -0.021802732720971107, 0.061584971845149994, -0.002450870117172599, 0.014789176173508167, 0.0007334043039008975, -0.0008072694763541222, -0.0037521885242313147, -0.013355465605854988, -0.044328778982162476, 0.0038199990522116423, -0.0458529070019722, 0.02836422063410282, 0.0021925438195466995, 0.007136262021958828, -0.004827471449971199, 0.05941503122448921, -0.0405830517411232, 0.040970541536808014, 0.02541930042207241, -0.02034319005906582, -0.04921114817261696, -0.02002028189599514, 0.02986251190304756, -0.0006381465354934335, -0.0041009290143847466, -0.034744877368211746, 0.04866866022348404, -0.0388522632420063, -0.016855785623192787, 0.016558710485696793, -0.01879323273897171, -0.016132472082972527, -0.03639816492795944, -0.009900352917611599, -0.046317894011735916, 0.009764731861650944, -0.004704766441136599, 0.005889838095754385, 0.09847395867109299, 0.010423462837934494, -0.03750896826386452, 0.0068456451408565044, 0.022461464628577232, 0.0458529070019722, 0.025522630661725998, 0.0035035493783652782, 0.0237918458878994, -0.01743702031672001, 0.08070111274719238, -0.030585825443267822, 0.004988925065845251, 0.014672929421067238, 0.011954045854508877, 0.008989752270281315, -0.04665371775627136, -0.0661831796169281, -0.03882643207907677, -0.03332408517599106, -0.036243170499801636, 0.021673571318387985, 0.07181469351053238, -0.02101483941078186, -0.013329633511602879, -0.004459356423467398, 0.0670098215341568, 0.006170767825096846, -0.007575416471809149, -0.0076335398480296135, 0.04236550256609917, 0.005001841578632593, 0.03466738015413284, 0.02746007777750492, 0.005876921582967043, -0.010455753654241562, -0.053680188953876495, 0.022125640884041786, -0.09077583998441696, 0.013174637220799923, -0.03980807214975357, -0.02637510746717453, 9.868869528872892e-05, -0.05388684943318367, -0.0838010311126709, 0.017217442393302917, -0.006354825105518103, -0.015732066705822945, 0.0004892052966170013, 0.004191343206912279, 0.033892400562763214, -0.023946842178702354, 0.03164496272802353, 0.007814368233084679, 0.013910867273807526, -0.052001070231199265, -0.0076852054335176945, -0.004643414169549942, -0.017127029597759247, 0.027201751247048378, 0.0030886130407452583, -0.014479185454547405, -0.045646242797374725, 0.0018970832461491227, -0.014104612171649933, 0.031076645478606224, -0.01118552591651678, -0.010675331577658653, 0.019129056483507156, 0.009790563955903053, -0.009906810708343983, 0.02328811027109623, -0.01456959918141365, -0.0022571254521608353, 0.042236339300870895, 0.03146413341164589, -0.02314602956175804, 0.04128053039312363, 0.01552540622651577, -0.030172502622008324, 0.004365713335573673, -0.004856532905250788, -0.005137462634593248, -0.0380256213247776, 0.0036423997953534126, 0.024205166846513748, 0.028751708567142487, -0.014285440556704998, 0.02352060377597809, 0.05455850064754486, 0.018328245729207993, 0.00024863900034688413, 0.030844151973724365, 0.04365713149309158, -0.03549402207136154, -0.014905422925949097, -0.024256832897663116, -0.05988001823425293, -0.01779867708683014, 0.004010514821857214, -0.04293381795287132, -0.027253417298197746, 0.011450310237705708, -0.01738535426557064, -0.016313301399350166, -0.031102478504180908, 0.013116514310240746, -0.03849060833454132, -0.028545048087835312, 0.014001281931996346, -0.04285632073879242, 0.035209864377975464, 0.001252074958756566, -0.00261555309407413, -0.013181095942854881, -0.030404996126890182, -0.008156650699675083, 0.039601411670446396, 0.0034195934422314167, 0.009758273139595985, 0.09733732044696808, 0.01825074851512909, 0.05125192180275917, -0.016868703067302704, 0.07444962114095688, 0.03660482540726662, -0.01816033385694027, -0.005870463326573372, 0.03952391445636749, 0.018044086173176765, -0.0017566183814778924, -0.06246328353881836, 0.035829849541187286, 0.02756340801715851, 0.018211999908089638, 0.03820645064115524, -0.040428053587675095, -0.0379481241106987, 0.02383059449493885, -0.01742410473525524, 0.054765161126852036, 0.012509447522461414, -0.026439689099788666, -0.018599487841129303, -0.039601411670446396, -0.0055830758064985275, -0.011392186395823956, 0.05166524648666382, -0.02805422805249691, 0.06241161748766899, 0.03244577348232269, 0.004759660921990871, -0.028493382036685944, 0.005221419036388397, 0.04634372517466545, -0.00255420058965683, 0.03190328925848007, -0.034977372735738754, 0.07124637067317963, 0.016468297690153122, -0.019400300458073616, 0.016946200281381607, 0.050141122192144394, -0.015641653910279274, -0.03598484396934509, 0.02297811768949032, -0.015693318098783493, -0.026762597262859344, -0.009428907185792923, 0.01915488950908184, -0.019994450733065605, 0.004814554937183857, -0.022719791159033775, 0.024166418239474297, -0.023365607485175133, -0.03283326327800751, 0.02242271602153778, -0.01393670029938221, 0.00153784838039428, -0.022668126970529556, -0.03944641351699829, -0.014672929421067238, -0.0449487641453743, 0.014401687309145927, 0.009312660433351994, 0.004252695478498936, -0.012967976741492748, -0.015680402517318726, -0.044147953391075134, -0.01180550828576088, -0.01951654627919197, -0.00674231443554163, -0.019813621416687965, -0.020808177068829536, -0.023985590785741806, 0.018276579678058624, -0.013678373768925667, -0.031980786472558975, 0.018948229029774666, 0.024256832897663116, 0.00885413121432066, -0.009906810708343983, -0.02823505736887455, -0.03577818349003792, 0.02193189598619938, 0.03668232262134552, -0.02960418537259102, 0.04112553596496582, -0.004449669271707535, 0.0005223033367656171, 0.0712980404496193, 0.022616460919380188, -0.013562127016484737, 0.03818061575293541, 0.0004274491802789271, -0.0057542165741324425, -0.02641385607421398, -0.02709842100739479, 0.017734095454216003, -0.022138558328151703, 0.034564048051834106, -0.013471712358295918, 0.019542379304766655, -0.0029546061996370554, 0.0017985963495448232, -0.017152860760688782, -0.022861871868371964, 0.011282398365437984, 0.060396671295166016, -0.011740926653146744, 0.001664589624851942, -0.010817410424351692, 0.005085797514766455, 0.026840094476938248, -0.0006789136095903814, 0.03063749149441719, 0.05262105166912079, 0.0012730639427900314, 0.014905422925949097, 0.01166342943906784, 0.018224915489554405, 0.027485910803079605, -0.012296328321099281, -0.06401324272155762, 0.0233785230666399, -0.035390693694353104, 0.04748035967350006, -0.014595432206988335, -0.028545048087835312, 0.0024395682848989964, -0.00349063309840858, -0.027124254032969475, -0.026297610253095627, 0.02782173454761505, 0.009952018037438393, 0.05207856744527817, 0.007543125655502081, -0.0661831796169281, 0.0020020282827317715, 0.013549210503697395, 0.03489987179636955, 0.0064161778427660465, 0.005889838095754385, -0.03921392187476158, -0.0074333371594548225, 0.04802284389734268, -0.0043075899593532085, 0.02020111121237278, -0.07083304971456528, -0.02160898968577385, -0.015925811603665352, 0.01707536354660988, -0.037973955273628235, 0.001926144934259355, -0.017282024025917053, 0.012044460512697697, 0.049598634243011475, 0.017036614939570427, -0.040324725210666656, -0.045000430196523666, 0.030353331938385963, 0.03637233376502991, -0.019193638116121292, 0.015112084336578846, -0.02787340059876442, -0.012264037504792213, 0.043424639850854874, 0.023003950715065002, -0.004569144919514656, -0.018057003617286682, 0.0025945641100406647, 0.06623484194278717, -0.01185071561485529, 0.035700686275959015, -0.019994450733065605, -0.014944172464311123, -0.0034841750748455524, -0.03309158980846405, 0.036656491458415985, 0.02175106853246689, -0.01839282736182213, 0.027795901522040367, -0.038516439497470856, -0.02950085513293743, 0.011921755038201809, 0.02419225126504898, -0.007762703113257885, 0.05187190696597099, -0.008912255056202412, 0.03549402207136154, 0.033427413552999496, -0.05399018153548241, -6.049475632607937e-05, 0.004795180633664131, -0.0011124173179268837, -0.04357963427901268, -0.027899231761693954, -0.019904036074876785, 0.012464240193367004, 0.03590734675526619, -0.035752348601818085, 0.014698762446641922, 0.07057472318410873, -0.031076645478606224, 0.025625960901379585, 0.0609133243560791, 0.04980529844760895, 0.02996584214270115, -0.025122225284576416, 0.0002797188644763082, -0.015641653910279274, 0.0242826659232378, 0.031851623207330704, 0.011857173405587673, 0.03657899424433708, 0.03727647289633751, 0.017953673377633095, -0.001719483989290893, 0.020730679854750633, -0.013381298631429672, 0.006735856179147959, 0.003732813987880945, 0.017230359837412834, -0.051458586007356644, 0.006551798898726702, 0.06576985865831375, 0.026388024911284447, 0.04332130774855614, 0.0045013343915343285, -0.05393851548433304, -0.027744237333536148, -0.05006362125277519, 0.02169940248131752, 0.00889933854341507, -0.0024912336375564337, -0.039420582354068756, 0.014479185454547405, -0.057761743664741516, -0.005796194542199373, 0.05528181418776512, 0.010165137238800526, -0.04303715005517006, -0.025768041610717773, -0.029113365337252617, 0.002068224363029003, 0.02769257128238678, -0.0020327044185250998, -0.040195561945438385, 0.02410183660686016, 0.0045142509043216705, -0.046550385653972626, 0.018354078754782677, 0.020588601008057594, -0.01513791736215353, -0.03619150444865227, -0.0035326110664755106, -0.010843243449926376, -0.04262382909655571, 0.03068915568292141, -0.03936891630291939, 0.05528181418776512, 0.004562687128782272, 0.022073976695537567, -0.020911507308483124, 0.08757258951663971, -0.011172609403729439, 0.019180722534656525, -0.009822854772210121, 0.011695720255374908, 0.00542485062032938, -0.008402060717344284, -0.02155732363462448, 0.018315330147743225, 0.03345324471592903, -0.0004058547201566398, -0.019038643687963486, 0.01611955650150776, 0.0265042707324028, -0.01989111863076687, -0.030224168673157692, 0.03541652485728264, -0.027253417298197746, -0.027770070359110832, 0.010436379350721836, -0.005260167643427849, -0.030947482213377953, -0.0370439812541008, -0.021273164078593254, -0.009499946609139442, -0.004578832536935806, 0.03717314451932907, -0.00667127501219511, 0.012864646501839161, 0.030043339356780052, 0.0036423997953534126, 0.0190128106623888, -0.007775619626045227, 0.024437660351395607, -0.03394406661391258, -0.0317741259932518, 0.037379804998636246, -0.013859202153980732, 0.02042068913578987, 0.0055604721419513226, 0.04603373259305954, -0.01261923648416996, -0.006916684564203024, -0.033479079604148865, 0.0036262543871998787, -0.017088279128074646, -0.03159329667687416, 0.03727647289633751, -0.025341803207993507, 0.015073335729539394, 0.01892239600419998, -0.026400940492749214, 0.008247064426541328, 0.03768979758024216, -0.023223528638482094, -0.0014990994241088629, 0.026000535115599632, 0.0414871908724308, 0.004523938056081533, 0.008182483725249767, -0.005008299835026264, 0.03446071967482567, 0.011476142331957817, 0.020963173359632492, 0.009454740211367607, -0.007142720278352499, -0.006890852004289627, -0.0008104985463432968, 0.012419033795595169, -0.03830977901816368, -0.024398911744356155, -0.060086678713560104, -0.03086998499929905, 0.012955060228705406, 0.02901003509759903, 0.01697203330695629, 0.02305561490356922, -0.012018627487123013, -0.050916098058223724, -0.024631405249238014, -0.014375854283571243, -0.017863258719444275, -0.03337574750185013, -0.03489987179636955, 0.011921755038201809, 0.024980146437883377, 0.004336651414632797, 0.040505550801754, -0.01384628564119339, -0.002237750915810466, 0.01593872904777527, -0.045000430196523666, 0.009816396981477737, 0.04598207026720047, 0.046963706612586975, -0.045465417206287384, -0.016197053715586662, -0.03399573266506195, 0.008847673423588276, -0.0006672082236036658, -0.008989752270281315, 0.008156650699675083, -0.014195025898516178, -0.0030660093761980534, -0.00478872237727046, -0.017217442393302917, -0.008634554222226143, 0.008389144204556942, 0.006500133778899908, 0.012147790752351284, -0.007420421112328768, -0.010752828791737556, 0.054765161126852036, 0.046421222388744354, -0.026710931211709976, -0.011728011071681976, 0.04267549142241478, -0.019167806953191757, 0.010423462837934494, -0.014427519403398037, -0.03399573266506195, -0.003623025259003043, 0.0034841750748455524, -0.01684287004172802, -0.03549402207136154, -0.04311464726924896, -0.016920367255806923, -0.036114007234573364, -0.06721648573875427, 0.014130444265902042, 0.019826538860797882, 0.00482424208894372, -0.011062820442020893, -0.0014651940437033772, 0.023365607485175133, -0.019542379304766655, -0.004249466583132744, -0.007975822314620018, -0.02678843028843403, -0.019284052774310112, 0.03978223726153374, -0.017217442393302917, -0.027718404307961464, -0.028493382036685944, 0.0037941664922982454, -0.005557242780923843, 0.01456959918141365, 0.021363578736782074, 0.012722566723823547, 0.0027624759823083878, -0.041513025760650635, -0.0021198897156864405, -0.00018869923951569945, -0.023817678913474083, -0.01906447485089302, 0.013988365419209003, 0.014337105676531792, -0.013768787495791912, -0.05342186242341995, -0.008699135854840279, 0.0019406757783144712, -0.021725235506892204, 0.04177135229110718, -0.011469684541225433, -0.009564528241753578, -0.024179335683584213, -0.0036262543871998787, -0.01969737559556961, 0.0011778061743825674, -0.006322534289211035, 0.005053506698459387, 0.0065873186103999615, -0.01513791736215353, -0.004430294968187809, -0.03753479942679405, 0.010287841781973839, 0.024708904325962067, -0.02451515942811966, 0.033659908920526505, 0.015538322739303112, -0.026633433997631073, 0.013626708649098873, -0.05011528730392456, 0.006128789857029915, 0.016235804185271263, 0.020136529579758644, -0.028338387608528137, -0.033169087022542953, 0.002909399103373289, -0.00482424208894372, 0.015589987859129906, 0.015499573200941086, -0.046317894011735916, -0.02751174382865429, -0.002704352606087923, -0.02733091451227665, 0.025987617671489716, -0.0015733682084828615, 0.019865287467837334, -0.008847673423588276, -0.01098532322794199, -0.030895816162228584, 0.003054707543924451, 0.012102583423256874, -0.06571818888187408, -0.026439689099788666, -0.01357504352927208, -0.003062780248001218, 0.017462853342294693, 0.02278437279164791, 0.017966588959097862, 0.016597460955381393, 0.020989006385207176, -0.01357504352927208, -0.03758646547794342, 0.01284527126699686, 0.04122886434197426, -0.011359895579516888, -0.03598484396934509, -0.004562687128782272, 0.007446253672242165, -0.009222246706485748, -0.014556682668626308, 0.022035228088498116, -0.034073229879140854, 0.017643680796027184, -0.022177306935191154, -0.039239753037691116, -0.007052306085824966, -0.007885407656431198, 0.03368574008345604, -0.01688161864876747, -0.003800624515861273, -0.02782173454761505, 0.009713065810501575, -0.015447908081114292, -0.014311272650957108, -0.03319492191076279, 0.004291444551199675, 0.009900352917611599, -0.027795901522040367, 0.041693851351737976, 0.01336838211864233, -0.07460461556911469, -0.05034778267145157, -0.0051406919956207275, -0.007187927141785622, -0.012593403458595276, -0.010933657176792622, -0.0405830517411232, -0.03699231520295143, 0.051820240914821625, 0.03758646547794342, -0.0037166685797274113, -0.023301025852560997, 0.008589346893131733, 0.011469684541225433, 0.031799957156181335, -0.014104612171649933, -0.014918339438736439, 0.0167524553835392, 0.046782881021499634, 0.00415259413421154, -0.004533625207841396, -0.0742429569363594, 0.01034596562385559, -0.02456682361662388, -0.01579664833843708, -0.00821477361023426, -0.02519972436130047, -0.044922929257154465, 0.04024722799658775, 0.013194012455642223, -0.03327241912484169, 0.014505017548799515, 0.022668126970529556, 0.006096499040722847, -0.02950085513293743, -0.015899978578090668, 0.02296520210802555, -0.04915948212146759, 0.01570623554289341, 0.012909852899610996, 0.01611955650150776, -0.044871266931295395, -0.015912896022200584, -0.020278608426451683, 0.01834116131067276, 0.013523378409445286, 0.009383699856698513, 0.01720452681183815, 0.02696925774216652, -0.020394856110215187, -0.013833369128406048, -0.024683071300387383, 0.010856159962713718, 0.030379164963960648, 0.004123532213270664, 0.0011269481619819999, -0.024256832897663116, -0.026530103757977486, 0.0043108188547194, -0.01039117295295, -0.043605465441942215, 0.04662788286805153, 0.038154784590005875, -0.0158870629966259, -0.015422075986862183, 0.01245778240263462, -0.01185071561485529, 0.007652914617210627, -0.03952391445636749, 0.04368296638131142, -0.010875534266233444, -0.016997866332530975, -0.008686219342052937, 0.0291391983628273, 0.00174531654920429, 0.010358882136642933, -0.002488004509359598, 0.038335613906383514, -0.004239779431372881, 0.01711411215364933, 0.014827925711870193, -0.008272897452116013, 0.008169567212462425, 0.027770070359110832, -0.02206105925142765, -0.01561582088470459, -0.02038193866610527, -0.03332408517599106, -0.005621824413537979, 0.0015717536443844438, -0.06132664531469345, -0.026478437706828117, -0.009409532882273197, -0.03332408517599106, -0.027408413589000702, -0.01584831438958645, 0.011288856156170368, -0.01393670029938221, -0.09940393269062042, 0.018573656678199768, 0.021363578736782074, 0.00415259413421154, 0.00483392970636487, -0.018534906208515167, -0.0017501602414995432, 0.01861240528523922, 0.010856159962713718, -0.007962905801832676, 0.0007903167861513793, -0.032342445105314255, -0.01906447485089302, 0.02079526148736477, 0.031851623207330704, -0.052595220506191254, -0.004617581143975258, -0.03182579204440117, 0.0026978945825248957, 0.008873505517840385, -0.012238205410540104, 0.008518307469785213, -0.009080166928470135, 0.0033001175615936518, -0.04128053039312363, -0.005838172975927591, -0.0055604721419513226, 0.03309158980846405, -0.006096499040722847, -0.0016629750607535243, -0.03500320389866829, 0.0015192811843007803, 0.028441717848181725, 0.021957729011774063, -0.029707515612244606, -0.007375213783234358, -0.007749786600470543, -0.032936595380306244, -0.029759181663393974, 0.027072587981820107, -0.006274098064750433, -0.02193189598619938, 0.05143275111913681, -0.008925171568989754, 0.008653928525745869, -0.013704206794500351, -0.006858561187982559, -0.0061578513123095036, 0.0202915258705616, -0.03526153042912483, -0.02818339131772518, -0.012696733698248863, 0.02106650359928608, -0.010274925269186497, -0.01161822210997343, 0.0032613687217235565, -0.017863258719444275, -0.013872118666768074, 0.005408705212175846, 0.01965862512588501, -0.015783732756972313, 0.0025348260533064604, -0.007317090407013893, 0.016455380246043205, -0.022913536056876183, -0.012341535650193691, -0.013265051878988743, 0.039110589772462845, -0.0242826659232378, -0.017553268000483513, -0.025445133447647095, 0.028984202072024345, 0.013742955401539803, 0.06029334291815758, 0.0229264535009861, 0.008608721196651459, 0.024631405249238014, 0.051226090639829636, -0.0121413329616189, 0.035158198326826096, 0.015925811603665352, -0.028338387608528137, -0.011230732314288616, -0.000546521448995918, 0.01418211031705141, -0.0009735669591464102, 0.044199615716934204, 0.010707622393965721, -0.027175918221473694, 0.020252775400877, 0.040608882904052734, -0.03644983097910881, 0.027718404307961464, 0.010165137238800526, 0.02157023921608925, 0.0043075899593532085, 0.006606693379580975, 0.01837991178035736, 0.03136080503463745, -0.0029998132959008217, -0.010384714230895042, 0.06861144304275513, -0.03210994973778725, -0.0343315564095974, 0.020097780972719193, -0.007982280105352402, 0.011579473502933979, -0.013129430823028088, 0.00407509645447135, -0.011308230459690094, 0.02011069655418396, 0.026633433997631073, -0.032884929329156876, 0.028519215062260628, 0.0008072694763541222, 0.031799957156181335, 0.012373826466500759, 0.030120838433504105, 0.04084137827157974, 0.01241257507354021, -0.0045013343915343285, 0.015021669678390026, -0.015912896022200584, -0.01185071561485529, -0.012974434532225132, -0.03386656939983368, 0.026710931211709976, 0.008776634000241756, -0.018780317157506943, -0.001641986076720059, 0.0036197963636368513, 0.024760568514466286, 0.022913536056876183, -0.0009057563147507608, -0.03435738757252693, 0.030379164963960648, -0.014711678959429264, 0.0010494502494111657, -0.006735856179147959, -0.000959036115091294, 0.013600875623524189, -0.014789176173508167, 0.02787340059876442, -0.005922128912061453, 0.01168926153331995, -0.00966785941272974, -0.002996584167703986, -0.03399573266506195, -0.025793874636292458, 0.017501601949334145, 0.041642189025878906, -0.006093269679695368, 0.03554568812251091, 0.014492101036012173, 0.03650149703025818, 0.0010655956575646996, 0.010972406715154648, -0.05864005535840988, 0.0019778101705014706, -0.0049501764588057995, -0.007181469351053238, 0.005373185500502586, -0.016364967450499535, -0.005689634941518307, 0.023998506367206573, -0.012677359394729137, -0.01182488352060318, 0.0018857814138755202, -0.0003487404028419405, 0.01384628564119339, -0.013084223493933678, -0.03141247108578682, 0.0014159505954012275, 0.018780317157506943, 0.0556434690952301, 0.008970377966761589, 0.003497091354802251, 0.0228877030313015, -0.026814263314008713, 0.009034959599375725, -0.013239218853414059, 0.028131725266575813, -0.038929764181375504, 0.01039117295295, 0.03849060833454132, -0.02350768633186817, -0.0070070987567305565, -0.004856532905250788, 0.008053320460021496, 0.03655315935611725, -0.004039576277136803, 0.016222886741161346, 0.014647097326815128, 0.017592016607522964, 0.03843894228339195, -0.016416631639003754, -0.007368755526840687, 0.04016972705721855, -0.006306388881057501, -0.046421222388744354, -0.08023612946271896, 0.04574957489967346, -0.01094011589884758, -0.007258967030793428, -0.0172432754188776, 0.03396989777684212, 0.009906810708343983, 0.0007418806198984385, -0.00782728474587202, 0.039420582354068756, -0.0036036509554833174, 0.044380445033311844, -0.024579741060733795, 0.0009784105932340026, -0.025186806917190552, -0.008382686413824558, -0.03200662136077881, -0.0015418846160173416, -0.023908091709017754, -0.0027850796468555927, -0.03508070111274719, -0.014634180814027786, -0.03322075307369232, 0.03549402207136154, -0.02352060377597809, 0.004404462408274412, 0.025341803207993507, 0.003616567235440016, -0.00046983081847429276, -0.018095752224326134, 0.018961144611239433, -0.001133406301960349, 0.016558710485696793, 0.008137276396155357, 0.017449935898184776, 0.010210344567894936, -0.011876548640429974, -0.032342445105314255, -0.0030886130407452583, 0.005160066299140453, 0.04652455449104309, -0.015912896022200584, -0.02478640154004097, -0.01819908246397972, 0.004953405354171991, -0.02704675681889057, 0.017269108444452286, 0.016171222552657127, -0.008524765260517597, -0.020123613998293877, 0.027227584272623062, 0.00010020232002716511, 0.030895816162228584, -0.03130913898348808, 0.02478640154004097, -0.007304173894226551, 0.008892880752682686, 0.040324725210666656, 0.013885035179555416, 0.02973334863781929, -0.03283326327800751, 0.054455168545246124, -0.013988365419209003, -0.018082836642861366, -0.002531596925109625, -0.009164122864603996, -0.014750427566468716, 0.011786133982241154, 0.023352691903710365, -0.02709842100739479, -0.049056150019168854, 0.014027114026248455, -0.016894536092877388, 0.011766759678721428, 0.00858288910239935, -0.0012649912387132645, 0.006716481875628233, -0.006832728628069162, 0.006361283361911774, -0.017914924770593643, -0.03187745809555054, -0.0017130258493125439, -0.00014601486327592283, 0.0055249519646167755, 0.02800256386399269, -0.009164122864603996, -0.02583262324333191, -0.012819439172744751, 0.01182488352060318, 0.0006865827017463744, 0.010397630743682384, 0.0440446212887764, -0.0028415885753929615, 0.01345879677683115, 0.0036746906116604805, -0.008201858028769493, 0.004756431560963392, -0.015176665969192982, -0.001998799154534936, -0.03151579946279526, 0.03182579204440117, 0.01110156998038292, 0.011999253183603287, 0.0012117114383727312, -0.010643040761351585, -0.006051291711628437, -0.007407504599541426, -0.03644983097910881, -0.031670793890953064, -0.007917698472738266, -0.0005340087227523327, 0.015422075986862183, 0.04166802018880844, -0.01693328469991684, -0.003355011809617281, 0.0053699566051363945, -0.01357504352927208, -0.03409906104207039, 0.002074682619422674, -0.02233230322599411, 0.03210994973778725, 0.006658358499407768, -0.00043713641935028136, -0.005437767133116722, -0.0045077926479279995, -0.012076751329004765, -0.004417378455400467, -0.033427413552999496, -0.012664442881941795, 0.005428079981356859, 0.0006563100614584982, 0.03601067513227463, 0.01405294705182314, -0.0017001094529405236, -0.04567207768559456, -0.009842229075729847, -0.003987911157310009, -0.0035100076347589493, -0.01041700504720211, 0.0035487564746290445, 0.057090096175670624, 0.02565179392695427, 0.010572000406682491, 0.043786294758319855, 0.031799957156181335, 0.02120858244597912, -0.0008044440182857215, 0.014104612171649933, -0.01200571097433567, 0.01152780745178461, 0.07114304602146149, -0.011760301887989044, -0.017398271709680557, -0.0061739967204630375, -0.0286483783274889, 0.014737511053681374, 0.01002951618283987, -0.01819908246397972, -0.016287468373775482, -0.0036520869471132755, -0.01468584593385458, 0.022732708603143692, -0.016765372827649117, 0.0057606748305261135, 0.0035487564746290445, -0.010513877496123314, 0.008453725837171078, 0.015305829234421253, 0.003180641680955887, 0.019439049065113068, -0.01929696835577488, 0.006406490225344896, -0.007000640965998173, 5.519704791367985e-05, -0.012774231843650341, -0.00010322958405595273, 0.013355465605854988, 0.004165510646998882, -0.010836785659193993, 0.025587212294340134, -0.01707536354660988, -0.0021053587552160025, -0.03717314451932907, 0.026155531406402588, -0.026258861646056175, 0.037741463631391525, -0.04595623537898064, 0.01570623554289341, -0.03068915568292141, 0.0011786133982241154, 0.00930620264261961, 0.013497545383870602, -0.026271777227520943, -0.008473100140690804, -0.006903768517076969, 0.015719151124358177, 0.018534906208515167, -0.013652540743350983, 0.009222246706485748, 0.007743328809738159, -0.033608242869377136, -0.01132760476320982, 0.008414977230131626, -0.002544513437896967, -0.016713706776499748, -0.0055540138855576515, 0.017579099163413048, 0.04709286987781525, 0.020511101931333542, 0.03159329667687416, -0.014375854283571243, 0.030017508193850517, -0.05184607207775116, 0.011883006431162357, 0.01856073923408985, -0.05306020751595497, -0.02872587740421295, -0.0015895136166363955, -0.02541930042207241, 0.03846477344632149, -0.011237191036343575, 0.01168926153331995, 0.023184778168797493, 0.005079339258372784, 0.013742955401539803, -0.005411934573203325, 0.0016040444606915116, -0.007517293095588684, -0.00762708205729723, 0.023546434938907623, 0.006412948481738567, 0.013768787495791912, -0.015577071346342564, -0.03146413341164589, 0.008188941515982151, -0.019594043493270874, -0.00293361721560359, -0.022771457210183144, -0.010061806999146938, 0.0040880125015974045, -0.044690437614917755, 0.02536763623356819, 0.03355657681822777, 0.00770457973703742, -0.026116780936717987, -0.022551879286766052, -0.006684191059321165, 0.010449295863509178, 0.013949615880846977, 0.006038375664502382, 0.01396253239363432, -0.0014894121559336782, -0.01579664833843708, -0.0026688328944146633, -0.006006084848195314, -0.0021828566677868366, -0.0652015432715416, 0.0012536895228549838, 0.016687873750925064, 0.02487681619822979, 0.027899231761693954, 0.01232861913740635, 0.01493125595152378, -0.014982921071350574, -0.005172982811927795, 0.0037877082359045744, -0.03032749891281128, -0.011159692890942097, 0.0030014277435839176, -0.04910781607031822, 0.026220113039016724, -0.019865287467837334, -0.014078779146075249, 0.010668872855603695, -0.011747385375201702, 0.01565456949174404, 0.0012892093509435654, 0.008821840398013592, -0.0432954765856266, -0.0003957638400606811, 0.0031693398486822844, 0.01574498414993286, -0.02206105925142765, 0.008757258765399456, 0.0344865508377552, 0.010410547256469727, 0.0024056630209088326, -0.012244663201272488, -0.013910867273807526, -0.0036197963636368513, 0.03200662136077881, 0.021996477618813515, 0.01998153328895569, 0.006819812580943108, -0.016894536092877388, -0.013110056519508362, 0.038283947855234146, -0.006839186884462833, -0.024902649223804474, 0.030017508193850517, 0.010249093174934387, 0.002341081388294697, -0.026840094476938248, -0.009196413680911064, 0.010184511542320251, 0.0269175935536623, 0.0035003204829990864, 0.013910867273807526, -0.00024924444733187556, 0.01525416411459446, 0.00710397120565176, -0.005405476316809654, -0.02560012973845005, -0.0023426960688084364, 0.05132942274212837, -0.017863258719444275, -0.001672662328928709, 0.04099637269973755, 0.0035390693228691816, 0.006248265504837036, 0.012018627487123013, -0.01504750270396471, 0.03471904620528221, 0.003987911157310009, -0.015125000849366188, -0.05244022607803345, 0.016868703067302704, 0.003329179249703884, -0.00946119800209999, 0.021996477618813515, -0.023662682622671127, 0.005256938748061657, 0.04290798678994179, -0.007530209608376026, -0.03513236716389656, -0.016080807894468307, 0.019439049065113068, 0.014337105676531792, -0.007032931316643953, -0.004633726552128792, -0.012134874239563942, -0.007775619626045227, -0.011263023130595684, 0.006102957297116518, 0.016455380246043205, 0.03164496272802353, 0.022629378363490105, -0.0016468296525999904, 0.024954313412308693, -0.0068456451408565044, 0.01792784035205841, -0.021441077813506126, -0.004113845061510801, -0.005854317918419838, -0.010384714230895042, 0.02352060377597809, 0.024088921025395393, 0.030250001698732376, -0.009803480468690395, 0.0006849681376479566, 0.014944172464311123, -0.020136529579758644, 0.004972779657691717, 0.028984202072024345, 0.0015071721281856298, 0.026349274441599846, -0.012186539359390736, -0.011108027771115303, -0.03996306657791138, -0.014556682668626308, 0.02364976704120636, -0.013013184070587158, -0.009887436404824257, 0.009319118224084377, -0.013381298631429672, 0.03601067513227463, -0.004036347381770611, 0.0012746785068884492, -0.01742410473525524, 0.03291076049208641, 0.004033118020743132, -0.03376323729753494, 0.02592303603887558, 0.03619150444865227, 0.028570881113409996, 0.006948975380510092, 0.010468670167028904, 0.00646784296259284, 0.01232861913740635, 0.010378256440162659, 0.009519321843981743, 0.02859671413898468, 0.011250107549130917, 0.02901003509759903, -0.01396253239363432, 0.01856073923408985, 0.01679120399057865, 0.017320774495601654, -0.014492101036012173, 0.01334255002439022, 0.006561486050486565, -0.01010055560618639, 0.00307569676078856, -0.009564528241753578, 0.015680402517318726, -0.02020111121237278, -0.023133113980293274, -0.00789832416921854, 0.016713706776499748, 0.0033840734977275133, 0.005415163468569517, 0.006341909058392048, 0.015267079696059227, 0.02986251190304756, 0.012606319971382618, 0.0043108188547194, -0.03650149703025818, -0.014014197513461113, -0.0028189849108457565, -0.03182579204440117, 0.0007596405921503901, 2.5756940885912627e-05, 0.0019229158060625196, -0.02610386535525322, -0.004591748584061861, -0.009241621010005474, 0.008143734186887741, -0.0002575189573690295, -0.008272897452116013, -0.028028395026922226, 0.041874680668115616, -0.01432418916374445, -0.016778288409113884, -0.02986251190304756, 0.04159052297472954, 0.027356747537851334, -0.04789368435740471, -0.013316716998815536, 0.00846664234995842, 0.004201030358672142, 0.01866406947374344, 0.0008028294541873038, 0.013181095942854881, -0.0048985108733177185, -0.015512489713728428, 0.041151367127895355, -0.014492101036012173, 0.007355839479714632, 0.020446520298719406, 0.029345858842134476, -0.025315970182418823, 0.0002425844722893089, 0.006839186884462833, 0.004326964262872934, 0.0016952658770605922, 0.03337574750185013, 0.00019757919653784484, 0.03458988294005394, -0.012025086209177971, 0.032290779054164886, -0.015589987859129906, 0.016132472082972527, -0.029061701148748398, 0.012696733698248863, -0.006332221440970898, -0.03092164918780327, -0.011269481852650642, 0.004779035225510597, -0.009848687797784805, 0.02328811027109623, 0.009344951249659061, -0.023391440510749817, -0.022758539766073227, 0.01146322675049305, 0.0216477382928133, -0.004000827670097351, -0.016959117725491524, -0.010856159962713718, 0.016558710485696793, 0.01010055560618639, 0.00914474856108427, -0.0033969897776842117, 0.03668232262134552, -0.004911427386105061, -0.015641653910279274, -0.00029223153251223266, 0.011715094558894634, -0.006022230256348848, 0.004284986294806004, -0.00918995589017868, -0.019193638116121292, -0.0068521033972501755, -0.026207195594906807, -0.007594791240990162, 0.011708635836839676, 0.014543766155838966, 0.012186539359390736, 0.006028688512742519, -0.008156650699675083, 0.027408413589000702, 0.01738535426557064, 0.02782173454761505, -0.03032749891281128, 0.020446520298719406, 0.006248265504837036, 0.017759928479790688, 0.02151857502758503, -0.021324830129742622, -0.021363578736782074, -0.018599487841129303, -0.03727647289633751, 0.016907451674342155, 0.01651996187865734, 0.034615714102983475, 0.04497459530830383, 0.011908839456737041, -0.019994450733065605, -0.01933571882545948, -0.021906064823269844, -0.013039016164839268, 0.022409800440073013, 0.030559992417693138, 0.01321338675916195, 0.024528075009584427, -0.03495153784751892, 0.005731613375246525, -0.007911240682005882, 0.0057832784950733185, -0.008356853388249874, -0.01456959918141365, 0.01752743497490883, -0.05378352105617523, 0.013885035179555416, -0.0265042707324028, -0.004007285460829735, 0.02092442475259304, -0.01257402915507555, 0.0103717977181077, 0.020226944237947464]",Do Language Models Exhibit the Same Cognitive Biases in Problem Solving as Human Learners?.pdf
" (1936) view on cognitive development, a problem
might be difficult for a child due to insufficient development
in any one of these skills. Much is known about what makes
a word problem difficult for humans; we ask whether the
same relative difficulties apply to LLMs.
To answer this question, we construct tests that are grounded
in the extensive literature on word problem solving by chil-
dren,2and perform them on a suite of currently well-known
LLMs. Specifically, each test varies a problem feature for
which an effect on child performance has been established
in the literature, e.g., the manner in which a particular math-
ematical operation is expressed in text, while controlling for
other features. We create new English problems specifically
for these tests, by developing a generation pipeline based
on a semantic formalism over math word problems (Opedal
et al., 2023). Our generation pipeline admits a family of stan-
dard arithmetic word problems, while controlling not only
for numerical features, but structural (e.g., entity relation-
ships) and linguistic ones (e.g., sentence structure) as well.
We test three cognitive biases, each one associated with a
separate step of the solving process (which are illustrated
by arrows in Fig. 1). The first test targets consistency bias :
A problem text is easier to comprehend if the relational
keyword verbally suggests the operation that is required to
solve the problem (Lewis and Mayer, 1987). The second
test targets what we call transfer vs comparison bias ,
that problems with a static comparison relationship are
more difficult for children than problems with a dynamic
change of state, even when they involve the same arithmetic
expressions (Riley et al., 1983). The third test targets the
carry effect , i.e., that arithmetic computations are more
difficult if they entail moving some digit to a column of
more significant digits (Hitch, 1978).
We find that LLMs indeed exhibit some biases that mirror
those observed in children. Our experiments with both
base and instruction-tuned models—specifically, LLaMA2
(Touvron et al., 2023), Mistral (Jiang et al., 2023), Mixtral
(Jiang et al., 2024), GPT-3.5 Turbo and GPT-4 Turbo (Ope-
nAI, 2024)—reveal that almost all models show significant
effects of consistency bias and transfer vs comparison bias,
like child learners. Most of these effects are further strength-
ened by using chain-of-thought prompting (Wei et al.,
2022). However, we do notobserve a carry effect bias in
the solution execution step. These results contribute to our
understanding of the capabilities and limitations of LLMs
as cognitive models, particularly in the context of cognitive
development research and educational applications.
2This comment refers to studies performed on children, but we
note that some of the biases considered seem to be present in adults
as well (albeit with weaker effects). See Jaffe and Bolger (2023) for
a recent review on word problem performance independent of age.2. Cognitive Modeling of the Solving Process
This section discusses the cognitive process that is involved
in solving math word problems. We first introduce our
conceptualization that is illustrated in Fig. 1, which we then
motivate by summarizing relevant literature.
Our conceptualization. We are interested in identifying
when LLMs are likely to exhibit human-like biases, and
therefore, require a holistic analysis of the human problem-
solving process. Our conceptualization, illustrated in Fig. 1,
includes four representational levels of the math word prob-
lem, along with the skills associated with transitioning from
one level to the next. We assume that a child goes through
the following procedure when posed with a math word prob-
lem: First, they form a mental model of the mathematical re-
lationships expressed in that problem (text comprehension).
Next, they distill that mental model into a sequence of arith-
metic expressions representing the step-by-step reasoning
process to find the solution (solution planning) and, finally,
calculate the answer from those expressions (solution execu-
tion). The representational levels will be formalized in §4.1.
Background. Children tend to experience greater diffi-
culty when posed with arithmetic math word problems com-
pared to the same problems formulated solely as arithmetic
expressions; see, e.g., Jaffe and Bolger (2023). This sug-
gests that arithmetic computation skill alone is not sufficient
to successfully solve math word problems. In order to dis-
tinguish the different skills that are involved, past work has
represented math word problems along similar levels as we
","[0.03580921143293381, 0.02293369360268116, 0.045762065798044205, 0.026619935408234596, 0.01800992712378502, 0.022867867723107338, 0.04312903434038162, 0.01152609009295702, -0.00014666801143903285, 0.05168638378381729, 0.01621946692466736, -0.030279848724603653, -0.0323336124420166, 0.013849738985300064, -0.0035677559208124876, -0.015100428834557533, 0.06508851051330566, -0.05466170981526375, 0.0023730185348540545, 0.020063690841197968, 0.06450924277305603, -0.0066681490279734135, 0.029542598873376846, 0.02555355802178383, 0.036520130932331085, -0.01789144054055214, 0.020682452246546745, -0.008089985698461533, -0.012750448659062386, -0.004439947195351124, 0.07451475411653519, -0.010617694817483425, -0.07435677200555801, -0.027278194203972816, 0.0008713684510439634, 0.042154815047979355, -0.009768541902303696, 0.035203613340854645, 0.018233735114336014, 0.017022540792822838, -0.005127826239913702, 0.012434485368430614, -0.07720045000314713, -0.010558451525866985, -0.034071411937475204, 0.026501448825001717, -0.010420217178761959, 0.00830721016973257, -0.006055969744920731, 0.045288119465112686, -0.03188599646091461, 0.06377199292182922, 0.02001103013753891, -0.014784464612603188, -0.037889305502176285, -0.023512959480285645, 0.013994555920362473, -0.0183127261698246, 0.004077905789017677, -0.034282054752111435, 0.06377199292182922, -0.021696168929338455, -0.0189973134547472, 0.013770747929811478, -0.013810243457555771, -0.03185966610908508, -0.020353324711322784, -0.006246864330023527, -0.04202316328883171, 0.02156451717019081, -0.0016505807870998979, 0.022867867723107338, 0.10121368616819382, 0.019510753452777863, -0.03104342706501484, -0.005519489757716656, 0.024526676163077354, 0.003462434746325016, 0.02696222998201847, 0.0027564535848796368, 0.026672596111893654, -0.03185966610908508, 0.061086300760507584, -0.04660463705658913, 0.027041221037507057, 0.02880535088479519, 0.011552420444786549, -0.015179418958723545, -0.03483498841524124, -0.07293494045734406, -0.027831129729747772, -0.018233735114336014, -0.025698374956846237, 0.04499848559498787, 0.06893273442983627, -0.04291839152574539, -0.033597465604543686, 0.013810243457555771, 0.043260686099529266, 0.010676938109099865, -0.017944101244211197, 0.008794320747256279, 0.029542598873376846, -0.01762813702225685, 0.05487234890460968, 0.02496112696826458, -0.004479442723095417, -0.0002779081114567816, -0.07693714648485184, 0.027357185259461403, -0.07983347773551941, -0.007260581012815237, -0.049342986196279526, -0.005361507646739483, 0.016298457980155945, -0.036967743188142776, -0.07314558327198029, 0.0019188207807019353, -0.013296802528202534, -0.004370830021798611, -0.013770747929811478, -0.009215605445206165, 0.007023608312010765, -0.020958920940756798, 0.028252415359020233, 0.003962710499763489, -0.0006648401613347232, -0.060559697449207306, 0.009419665671885014, 0.003492056392133236, -0.010848084464669228, 0.01998469978570938, 0.027067551389336586, -0.03349214419722557, -0.037678662687540054, -0.0035085128620266914, -0.008313792757689953, 0.023670941591262817, -0.0022759255953133106, -0.0066056144423782825, 0.005104787182062864, -0.012710953131318092, 0.0012992358533665538, 0.021419700235128403, -0.0213275458663702, 0.003577629802748561, 0.03860022500157356, 0.023420803248882294, -0.019642405211925507, 0.03291287645697594, 0.006154708098620176, -0.03728370741009712, 0.009202441200613976, -0.029805902391672134, 0.00730007654055953, -0.043497659265995026, 0.0008820651564747095, 0.008326957933604717, 0.039469122886657715, -0.01462648343294859, -0.0012177764438092709, 0.024803144857287407, 0.017720293253660202, -0.02380259335041046, 0.03375544771552086, 0.04563041403889656, -0.029621589928865433, -0.006049387156963348, -0.027488835155963898, -0.042576100677251816, -0.017404330894351006, -0.024013236165046692, -0.051370419561862946, -0.04923766478896141, 0.022301767021417618, -0.00967638660222292, -0.036072514951229095, -0.03709939494729042, 0.010848084464669228, -0.02213061973452568, -0.04165453836321831, 0.018299560993909836, -0.050712164491415024, 0.04268142208456993, -0.019616074860095978, 0.00195337925106287, -6.695713818771765e-05, -0.0017213434912264347, -0.00483819330111146, 0.02519810013473034, 0.0008779510390013456, 0.009123450145125389, 0.07756907492876053, 0.004657172132283449, 0.05084381252527237, -0.02048497460782528, 0.08620540797710419, 0.02672525681555271, -0.009998932480812073, -0.006898539140820503, 0.038099948316812515, 0.02245974726974964, 0.031833335757255554, -0.04902702197432518, 0.02877902053296566, 0.049790602177381516, 0.018036257475614548, 0.03575655072927475, -0.02764681726694107, -0.030490489676594734, 0.008794320747256279, -0.0161668062210083, 0.041075270622968674, 0.03983774781227112, -0.0381789393723011, -0.00489085353910923, -0.018181074410676956, -0.010413634590804577, -0.02034015953540802, 0.03686242178082466, -0.02964792028069496, 0.05155473202466965, 0.02015584707260132, -0.012526641599833965, -0.01207902655005455, 0.011651159264147282, 0.025869522243738174, -0.01932644285261631, 0.025184934958815575, -0.03841591253876686, 0.0557149201631546, 0.01718052290380001, -0.02722553350031376, 0.026738421991467476, 0.025448236614465714, -0.008386201225221157, -0.030306179076433182, 0.009314344264566898, -0.0056182281114161015, -0.028041772544384003, 0.0049698445945978165, 0.02364461123943329, -0.02099841646850109, -0.012230425141751766, -0.03056948073208332, 0.033176179975271225, -0.028621038421988487, -0.04839509725570679, 0.00533188646659255, -0.035414256155490875, 0.02177515998482704, -0.062192175537347794, -0.06271877884864807, -0.02022167295217514, -0.04447188228368759, 0.004123983439058065, 0.0263039730489254, 0.02526392601430416, -0.01687772385776043, 0.0023220034781843424, -0.025119109079241753, -0.006990695372223854, -0.011499759741127491, -0.01017007976770401, -0.0007323115132749081, -0.00685904361307621, -0.01146684680134058, -0.0048743970692157745, -0.0198662132024765, -0.02060346119105816, 0.005094913765788078, 0.0411016009747982, 0.0009034585091285408, -0.008175559341907501, -0.019550248980522156, -0.02385525405406952, 0.02045864425599575, 0.03823160007596016, -0.0421021543443203, 0.05374014750123024, -0.000924851861782372, -0.003121786518022418, 0.06577309221029282, 0.022670390084385872, -0.02135387621819973, 0.04252343997359276, -0.01637744903564453, -0.0028436726424843073, -0.015205749310553074, 0.0053384690545499325, 0.013849738985300064, -0.022867867723107338, 0.04276041314005852, -0.006332437973469496, 0.0017065327847376466, -0.014020886272192001, -0.0079912468791008, -0.013474532403051853, -0.010400469414889812, 0.018299560993909836, 0.025224430486559868, 0.019734561443328857, -0.006072426214814186, -0.0352562740445137, 0.019484423100948334, 0.005730132106691599, -0.0012704371474683285, 0.019642405211925507, 0.03931114077568054, 0.02043231390416622, 0.016021989285945892, 0.008129481226205826, 0.02034015953540802, 0.032675907015800476, -0.01897098310291767, -0.035071961581707, 0.035387925803661346, -0.023302318528294563, 0.04041701555252075, 0.0033307832200080156, -0.02806810289621353, -0.005246312823146582, -0.00839278381317854, -0.04065398871898651, -0.0131980637088418, 0.013415289111435413, -0.00045255207805894315, 0.05189702659845352, -0.004709832835942507, -0.06635235995054245, 0.0028946876991540194, 0.014995107427239418, 0.04197050258517265, 0.0003817893739324063, 0.004650589544326067, -0.025514062494039536, 0.024763649329543114, 0.05323987081646919, 0.013040082529187202, 0.023631446063518524, -0.07067053020000458, -0.0335184745490551, -0.0191816259175539, 0.03412407264113426, -0.030016545206308365, -0.009531569667160511, -0.011506342329084873, 0.01552171353250742, 0.0736195296049118, 0.02663310058414936, -0.039706096053123474, -0.043708302080631256, 0.02993755415081978, 0.0226967204362154, -0.0018562863115221262, 0.014863455668091774, -0.024908466264605522, -0.01750965043902397, 0.04341866821050644, 0.011888131499290466, -0.003617125330492854, -0.020853599533438683, 0.003650038270279765, 0.08204521983861923, -0.01908946968615055, 0.04884270951151848, -0.02126171998679638, -0.03230728209018707, -0.010499208234250546, -0.03559856861829758, 0.017614971846342087, 0.032043978571891785, -0.007425145246088505, 0.02833140641450882, -0.04165453836321831, -0.0053384690545499325, 0.007365901954472065, 0.014363179914653301, -0.010709850117564201, 0.053608495742082596, -0.016390614211559296, 0.03438737615942955, 0.01822056993842125, -0.010624277405440807, 0.027515165507793427, -0.007543631829321384, 0.013072995468974113, -0.037468019872903824, -0.03638847917318344, -0.008287462405860424, 0.025237595662474632, 0.025461401790380478, -0.029410947114229202, -0.0009223833912983537, 0.05089647322893143, -0.0248426403850317, 0.020300664007663727, 0.06935402005910873, 0.07040722668170929, 0.00882723368704319, 0.01935277320444584, -0.006931452080607414, -0.04457720369100571, 0.010156914591789246, 0.022433416917920113, 0.007997829467058182, 0.03975875675678253, 0.02746250480413437, 0.02382892370223999, -0.0029901349917054176, 0.015087263658642769, -0.0014333558501675725, 0.016535429283976555, 0.007892508059740067, 0.008096568286418915, -0.06266611814498901, 0.037441689521074295, 0.054977670311927795, 0.048632070422172546, 0.04900069162249565, -0.013448202051222324, -0.058347951620817184, -0.016838228330016136, -0.04536711052060127, 0.03554590791463852, 0.02469782344996929, 0.004716415423899889, -0.05168638378381729, 0.011322029866278172, -0.04062765836715698, -0.018273230642080307, 0.05210766941308975, 0.036730773746967316, -0.02496112696826458, -0.030674802139401436, -0.023341814056038857, -0.014415840618312359, 0.030227188020944595, -0.011453681625425816, -0.04197050258517265, 0.015732355415821075, 0.014718638733029366, -0.012467398308217525, 0.00691828690469265, -0.002911144169047475, 0.009235353209078312, -0.042865730822086334, -0.01085466705262661, -0.0015617160825058818, -0.03894251585006714, 0.019721396267414093, -0.022617729380726814, 0.06040171533823013, -0.001885907957330346, 0.0020142681896686554, -0.029042324051260948, 0.0767265036702156, -0.03939013183116913, 0.012158017605543137, -0.02120905928313732, 0.003929797559976578, -0.000858203275129199, 0.009985767304897308, -0.05084381252527237, -0.003732320386916399, 0.03530893474817276, 0.015139924362301826, -0.004245761316269636, 0.002532646059989929, 0.030174527317285538, -0.006444341503083706, -0.0038047286216169596, 0.032465264201164246, -0.024737318977713585, -0.04589371755719185, -0.00544378999620676, 0.0006570233381353319, -0.010907327756285667, -0.02340763807296753, -0.012737283483147621, 0.015074098482728004, -0.005190360825508833, 0.028041772544384003, -0.01706203632056713, 0.026224981993436813, 0.021274885162711143, -0.010880997404456139, 0.01923428662121296, -0.0019665444269776344, 0.03570389002561569, -0.03601985424757004, -0.026409292593598366, 0.057242076843976974, -0.014073546975851059, 0.019076304510235786, -0.0013461366761475801, 0.03433471545577049, -0.010775675997138023, -0.00645750667899847, -0.019668735563755035, -0.00582228833809495, 0.021933142095804214, -0.03446636721491814, 0.030016545206308365, -0.03391342982649803, 0.015087263658642769, 0.02993755415081978, -0.001257271971553564, -0.0026955646462738514, 0.022709885612130165, -0.03478233143687248, 0.0015773497289046645, 0.021248554810881615, 0.04378729313611984, -0.0015444367891177535, -0.0007606989238411188, -0.013230976648628712, 0.012612215243279934, 0.017601806670427322, 0.018747175112366676, -0.0018480580765753984, -0.021432865411043167, -0.0138365738093853, 0.01914213038980961, 0.0033999003935605288, -0.035203613340854645, -0.04004839062690735, -0.042365457862615585, -0.022117454558610916, 0.0239737406373024, 0.005670888815075159, 0.0058881137520074844, 0.00897863321006298, -0.0033505309838801622, -0.06224483624100685, -0.030727462843060493, -0.027620486915111542, -0.017338505014777184, -0.022407086566090584, -0.04318169504404068, 0.00753046665340662, 0.028041772544384003, 0.007253998424857855, 0.03939013183116913, -0.021840985864400864, 0.015074098482728004, 0.01696988008916378, -0.0495009683072567, -0.0020702199544757605, 0.0481317937374115, 0.040759310126304626, -0.060822997242212296, -0.012190929614007473, -0.020050525665283203, -0.009834367781877518, -0.0009577647433616221, -0.009222188033163548, 0.01610098034143448, -0.013296802528202534, -0.013520610518753529, -0.006931452080607414, -0.010499208234250546, -0.0057827928103506565, -0.0003003300225827843, 0.011848635971546173, 0.03975875675678253, -0.013020334765315056, 0.015692859888076782, 0.023341814056038857, 0.0508701428771019, -0.018154744058847427, -0.003406482981517911, 0.0283577349036932, -0.02880535088479519, 0.012105356901884079, -0.028910672292113304, -0.028147093951702118, 0.002089967718347907, 0.009465743787586689, -0.0061283777467906475, -0.025158604606986046, -0.03080645389854908, -0.02701489068567753, -0.03983774781227112, -0.05560959875583649, 0.00965005625039339, 0.00796491652727127, 0.006082300096750259, 0.0025984717067331076, 0.00023800124472472817, 0.005282517056912184, -0.02430287003517151, -0.009031293913722038, 0.0016316559631377459, -0.017614971846342087, -0.02964792028069496, 0.03141205012798309, -0.02529025636613369, -0.026738421991467476, -0.03349214419722557, 0.022025298327207565, -0.0013601246755570173, 0.014205197803676128, 0.019747726619243622, -0.005664306227117777, 0.013783913105726242, -0.023012684658169746, 0.012059278786182404, -0.0035578820388764143, -0.017970431596040726, -0.04652564600110054, 0.013132238760590553, -0.0010696685640141368, -0.013402123935520649, -0.04834243655204773, -0.009511821903288364, -0.0024849222972989082, -0.02812076359987259, 0.030885444954037666, -0.013678592629730701, -0.00842569675296545, -0.011598498560488224, -0.007286911364644766, -0.02359195053577423, 0.021511856466531754, -0.010624277405440807, 0.000551290693692863, 0.005282517056912184, -0.007082851603627205, 0.015113594010472298, -0.03151737153530121, 0.010617694817483425, 0.022828372195363045, -0.011815723031759262, 0.024263374507427216, 0.001512346789240837, -0.019760891795158386, 0.022617729380726814, -0.04997491464018822, -0.00011951488704653457, 0.00013196007057558745, 0.028647368773818016, -0.05171271413564682, -0.03528260439634323, -0.02352612465620041, -0.00651674997061491, 0.02180149033665657, 0.0060954648070037365, -0.019997864961624146, -0.034492697566747665, 0.0037487768568098545, -0.012408155016601086, 0.026264477521181107, -0.004265509080141783, 0.023183831945061684, -0.02403956651687622, -0.0070894337259233, -0.005071874707937241, 0.0061612906865775585, 0.008149228990077972, -0.03478233143687248, -0.029516268521547318, -0.029068654403090477, -0.011361525394022465, 0.025026952847838402, 0.04199683293700218, 0.016008824110031128, 0.0016530492575839162, 0.01027540024369955, -0.02722553350031376, -0.04262876138091087, 0.006493710912764072, 0.0368097648024559, 0.0017229891382157803, -0.010742763057351112, -0.006898539140820503, -0.0031941947527229786, -0.014837125316262245, -0.029621589928865433, 0.023670941591262817, -0.04660463705658913, -0.003850806737318635, -0.0050356704741716385, -0.01675923727452755, 0.005187069531530142, -0.0038113112095743418, 0.039653435349464417, -0.02701489068567753, -0.007214502897113562, -0.02409222722053528, 0.018773505464196205, -0.008182141929864883, -0.0023828924167901278, -0.022328097373247147, -0.0033636961597949266, 0.016561759635806084, -0.031622692942619324, 0.050685834139585495, 0.016772402450442314, -0.0945257842540741, -0.039916738867759705, -0.02618548646569252, -0.0054470812901854515, -0.0015189293771982193, -0.0024980874732136726, -0.033202510327100754, -0.02970058098435402, 0.047104910016059875, 0.031385719776153564, 0.012842604890465736, -0.020050525665283203, 0.01577185094356537, 0.004792115185409784, 0.013520610518753529, -0.016653915867209435, 0.0037981460336595774, 0.004818445537239313, 0.03164902329444885, 0.00714867701753974, -0.01224359031766653, -0.061244282871484756, -0.010558451525866985, -0.03912682831287384, -0.0213275458663702, -0.02060346119105816, -0.022802041843533516, -0.032675907015800476, 0.05210766941308975, 0.03928481042385101, -0.03657279163599014, 0.023223327472805977, 0.05110711604356766, 0.011835470795631409, -0.042365457862615585, -0.0131519865244627, 0.021722499281167984, -0.04244444891810417, 0.00961714331060648, 0.020392820239067078, 0.021814655512571335, -0.051581062376499176, -0.014376345090568066, -0.013757582753896713, 0.022854702547192574, 0.007774021942168474, 0.012592467479407787, 0.012000035494565964, 0.030911775305867195, 0.00500934012234211, 0.005907861515879631, -0.01800992712378502, 0.01204611361026764, 0.02600117400288582, -0.007800352293998003, -0.003791563678532839, -0.002060346072539687, -0.018115248531103134, -0.017338505014777184, -0.010657190345227718, -0.0321492999792099, 0.028489386662840843, 0.029963884502649307, -0.018628688529133797, -0.026817413046956062, 0.009215605445206165, 0.013079578056931496, 0.010683520697057247, -0.022314932197332382, 0.04631500318646431, -0.025105943903326988, -0.014284188859164715, -0.003240272868424654, 0.04244444891810417, -0.011216708458960056, 0.027541495859622955, 0.01180914044380188, 0.03594086319208145, -0.004232596140354872, 0.010045010596513748, 0.004272091668099165, -0.023907914757728577, 0.0012589176185429096, 0.014863455668091774, -0.027962781488895416, -0.01619313657283783, -0.012065861374139786, -0.008669252507388592, 0.016509098932147026, -0.012776779010891914, -0.06856410950422287, -0.02451351098716259, -0.019379103556275368, -0.002633030293509364, -0.044392891228199005, -0.004555142484605312, -0.003498638980090618, -0.001704887137748301, -0.09647423028945923, 0.0321492999792099, 0.005256186705082655, -0.016364283859729767, 0.004278674256056547, 0.0006775938672944903, 0.011697236448526382, 0.01750965043902397, 0.0060526784509420395, -0.026119660586118698, -0.027120212092995644, -0.028173424303531647, -0.012743866071105003, 0.006872208788990974, 0.029068654403090477, -0.05955914407968521, 0.005358216352760792, -0.019168460741639137, -0.011091640219092369, -0.0010425153886899352, -0.005308847408741713, 0.0014325330266728997, -0.005282517056912184, -0.01756231114268303, -0.03996939957141876, -0.01774662360548973, 0.0175359807908535, 0.017338505014777184, 0.002532646059989929, -0.0024849222972989082, -0.011506342329084873, 0.006362059153616428, 0.021933142095804214, 0.019958369433879852, -0.04089095816016197, -0.030543150380253792, -0.00451893825083971, -0.03436104580760002, -0.019550248980522156, 0.032228291034698486, -0.006378515623509884, -0.02493479661643505, 0.05555693805217743, 0.013546940870583057, 0.0026429041754454374, -0.02526392601430416, -0.004640715662389994, 0.0015296259662136436, 0.026343468576669693, -0.03217563033103943, -0.025369247421622276, -0.009564482606947422, 0.027146542444825172, -0.02469782344996929, -0.01011083647608757, 0.005664306227117777, -0.027725808322429657, -0.009854115545749664, 0.0002698856114875525, 0.024763649329543114, -0.008754825219511986, 0.003847515443339944, 0.003548008156940341, 0.01640377938747406, -0.026172321289777756, -0.018984148278832436, -0.001676088315434754, 0.042602431029081345, -0.0321492999792099, 0.004894144833087921, -0.034282054752111435, 0.010591364465653896, 0.027594156563282013, 0.037862975150346756, 0.025329751893877983, 0.02746250480413437, -0.010874414816498756, 0.04565674439072609, -0.021432865411043167, 0.02081410400569439, -0.006740557495504618, -0.012803109362721443, 0.002888105111196637, -0.0004155250790063292, 0.023684106767177582, -0.0018924905452877283, 0.03209663927555084, 0.008465192280709743, -0.024526676163077354, 0.01783877983689308, 0.03283388540148735, -0.035888202488422394, 0.0348876491189003, 0.00579266669228673, 0.02069561742246151, 0.024895301088690758, 0.004012079909443855, 0.003003300167620182, 0.03299186751246452, 0.01496877707540989, -0.017720293253660202, 0.06498318910598755, -0.026830578222870827, -0.058821894228458405, 0.005582024343311787, -0.015008272603154182, 0.006236990448087454, -0.024210713803768158, 0.009998932480812073, -0.003311035456135869, 0.024710988625884056, 0.014955611899495125, -0.03757334128022194, 0.035387925803661346, 0.008188724517822266, 0.029621589928865433, 0.01621946692466736, 0.05824263021349907, 0.03415040299296379, -0.00990019366145134, 0.019813552498817444, 0.02144603058695793, -0.033149849623441696, 0.0020356616005301476, -0.019405432045459747, -0.023368144407868385, 0.01592983305454254, 0.020682452246546745, -0.008517852984368801, -0.01589033752679825, -0.02689640410244465, 0.0276731476187706, 0.015455887652933598, 0.008570513688027859, -0.020735112950205803, 0.020024195313453674, -0.009801454842090607, 0.017167357727885246, 0.003436104394495487, -0.015640199184417725, 0.018233735114336014, 0.0006027171039022505, 0.03794196620583534, -0.009643473662436008, 0.000615882221609354, -0.00903787650167942, 0.005022505298256874, -0.025790531188249588, -0.020708782598376274, 0.005832162220031023, 0.03433471545577049, 0.0011165693867951632, 0.03467701002955437, 0.0011659386800602078, 0.01777295395731926, -0.01024248730391264, 0.017009375616908073, -0.04070664942264557, 0.004992883652448654, 0.010281982831656933, -0.020392820239067078, 0.0065628280863165855, -0.003246855456382036, 0.004624259192496538, 0.007253998424857855, -0.017693962901830673, -0.010420217178761959, 0.004354373551905155, -0.008346705697476864, 0.010578199289739132, -0.018260065466165543, -0.0159824937582016, 0.012980839237570763, 0.012118522077798843, 0.06398263573646545, 0.017786119133234024, 0.002893042052164674, 0.016904054209589958, -0.03130672872066498, -0.009709298610687256, -0.023131171241402626, 0.05134408921003342, -0.033386822789907455, 0.02031382918357849, 0.051133446395397186, -0.037652332335710526, -0.0017542564310133457, 0.0128557700663805, -0.010683520697057247, 0.03509829193353653, -0.0017246347852051258, 0.009301179088652134, 0.004130566027015448, 0.023512959480285645, 0.0368097648024559, -0.023763097822666168, -0.01795726642012596, 0.03601985424757004, 0.006885373964905739, -0.0378103144466877, -0.0822032019495964, 0.03185966610908508, -0.007458058185875416, -0.014534327201545238, -0.007681865710765123, 0.024882135912775993, 0.018839331343770027, 9.035613766172901e-05, 0.006503584794700146, 0.033597465604543686, -0.011433933861553669, 0.04302371293306351, -0.036335818469524384, 0.020616626366972923, -0.02338130958378315, -0.02149869129061699, -0.041917841881513596, -0.0005019214004278183, -0.006042804569005966, -0.018352221697568893, -0.04581472650170326, -0.021222224459052086, -0.022077959030866623, 0.024000070989131927, -0.02024800330400467, -0.010940240696072578, 0.028700029477477074, -0.0004064740496687591, 0.01079542376101017, -0.0059572309255599976, 0.016864558681845665, -0.013474532403051853, 0.0043642474338412285, 0.011322029866278172, 0.01528474036604166, 0.010828336700797081, -0.030727462843060493, -0.04668362811207771, 0.010209574364125729, -0.017430659383535385, 0.042391788214445114, -0.024342365562915802, -0.010012097656726837, -0.013244141824543476, -0.006092173978686333, -0.026909569278359413, 0.02609333023428917, 0.030938105657696724, -0.009544734843075275, -0.02561938390135765, 0.022894198074936867, -0.0007236719247885048, 0.03391342982649803, -0.04792115092277527, 0.017575476318597794, -0.008221636526286602, 0.00234504253603518, 0.0383632518351078, -0.0018842623103410006, 0.024829475209116936, -0.032965537160634995, 0.03570389002561569, -0.001198028796352446, -0.036309488117694855, -0.0026725258212536573, -0.009571065194904804, -0.024671493098139763, -0.004091070964932442, 0.033597465604543686, -0.03480866178870201, -0.054503727704286575, 0.01687772385776043, -0.017917770892381668, 0.017812449485063553, -0.0030197566375136375, -0.005226565059274435, 0.00993310660123825, -0.02138020657002926, 0.0004476151370909065, -0.019813552498817444, -0.04399793595075607, 0.0039034674409776926, -0.01687772385776043, 0.024645162746310234, 0.032070308923721313, -0.009130032733082771, -0.0421021543443203, -0.008168976753950119, 0.0066385273821651936, -0.001006311271339655, 0.008089985698461533, 0.04805280268192291, -0.008557348512113094, 0.018470706418156624, 8.984187297755852e-05, -0.00301152840256691, 0.006566119380295277, -0.012355494312942028, 0.005736714694648981, -0.027515165507793427, 0.009893611073493958, 0.019550248980522156, -0.0007286088657565415, -0.021972637623548508, 0.005730132106691599, -0.009801454842090607, -0.009623725898563862, -0.035835541784763336, -0.05039620026946068, -4.420096593094058e-05, -0.007194755133241415, 0.021195894107222557, 0.03262324631214142, -0.01106530986726284, 0.003462434746325016, -0.005740005988627672, -0.010749345645308495, -0.024908466264605522, -0.0064640892669558525, -0.034308385103940964, 0.023684106767177582, 0.007596292067319155, 0.0012918304419144988, -0.00796491652727127, -0.008386201225221157, -0.013981390744447708, -0.018628688529133797, -0.04268142208456993, -0.02170933410525322, -0.0002534291706979275, -0.014955611899495125, 0.01744382455945015, 0.001142899738624692, -0.02215695008635521, -0.023723602294921875, -0.018826166167855263, -0.03278122842311859, -0.014139372855424881, -0.015877172350883484, 0.008675835095345974, 0.026238147169351578, 0.033597465604543686, 0.005335177760571241, 0.036493800580501556, 0.024553006514906883, 0.02920030616223812, -0.0006685428088530898, -0.008893059566617012, -0.017259513959288597, 0.0011889777379110456, 0.06772153824567795, -0.010808588936924934, -0.027304524555802345, 0.008373036049306393, -0.019484423100948334, 0.017720293253660202, -0.015548043884336948, -0.01989254355430603, -0.0333341620862484, -0.016469603404402733, -0.013810243457555771, 0.015232079662382603, -0.002270988654345274, 0.016838228330016136, -0.005990143865346909, 0.007082851603627205, -0.011394438333809376, 0.02540874108672142, 0.008004412055015564, 0.013020334765315056, 0.005052126944065094, 0.00015818752581253648, -0.004153605084866285, 0.00202743336558342, -0.003115203930065036, 0.016298457980155945, 0.012105356901884079, -0.004627550486475229, -0.006951199844479561, 0.010940240696072578, -0.029779572039842606, -0.001235878560692072, 0.0005060355179011822, -0.0003807608736678958, -0.015324235893785954, 0.037441689521074295, -0.030516820028424263, 0.015877172350883484, -0.032280951738357544, 0.024013236165046692, -0.0008113024523481727, 0.026935899630188942, -0.015534878708422184, -0.009472326375544071, 0.004281965550035238, 0.011308864690363407, 0.006473963148891926, -0.019260616973042488, 0.009077372029423714, 0.02120905928313732, -0.010347808711230755, -0.012645128183066845, 0.01786511018872261, 0.011967122554779053, -0.01798359677195549, -0.010117419064044952, 0.01416570320725441, 0.05263427644968033, 0.01694354973733425, 0.01750965043902397, -0.015245244838297367, 0.004818445537239313, -0.05345051363110542, 0.015232079662382603, 0.011335195042192936, -0.056820791214704514, -0.02338130958378315, 0.009373587556183338, -0.03638847917318344, 0.016811897978186607, -0.004653880838304758, 0.01073618046939373, 0.012849187478423119, 0.013296802528202534, 0.0030839366372674704, -0.006032930687069893, 0.006441050209105015, -0.003409774275496602, 0.004538686014711857, 0.021340711042284966, -0.00010033285070676357, 0.011045562103390694, 0.0050356704741716385, -0.03259691596031189, 0.0141788674518466, -0.025843191891908646, 0.011341777630150318, -0.01005159318447113, -0.0033933178056031466, 0.016127310693264008, -0.046894267201423645, 0.017075201496481895, 0.022077959030866623, 0.00870874710381031, -0.027778469026088715, -0.032491594552993774, -0.0021113611292093992, -0.0014193678507581353, 0.012724118307232857, 0.013296802528202534, 0.006253446917980909, -0.015139924362301826, -0.006470671854913235, -0.0002406754210824147, -0.00547341164201498, -0.01720685325562954, -0.06545713543891907, -0.0008281702757813036, 0.016706576570868492, 0.02920030616223812, 0.004453112371265888, 0.006612197030335665, -0.008228219114243984, -0.013105908408761024, -0.008814068511128426, 0.013007169589400291, -0.018470706418156624, -0.006513458676636219, -0.0003040326992049813, -0.059506483376026154, 0.01248056348413229, -0.01914213038980961, 0.0021541479509323835, 0.017259513959288597, -0.02123538963496685, 0.03896884620189667, -0.005776210222393274, -0.0010120710358023643, -0.03994306921958923, 0.0010186536237597466, -0.0030658345203846693, 0.0188130009919405, -0.006865626201033592, 0.007734526414424181, 0.0338870994746685, 0.004265509080141783, -0.01196053996682167, -0.006569410674273968, -0.017259513959288597, -0.004976427182555199, 0.022143784910440445, 0.03083278425037861, 0.007109181489795446, -0.015534878708422184, -0.03420306369662285, -0.011670907028019428, 0.030674802139401436, -0.005318721290677786, -0.02922663651406765, 0.04002206027507782, -0.004114109557121992, 0.02672525681555271, -0.027357185259461403, -0.01998469978570938, 0.0131980637088418, 0.035440586507320404, -0.007109181489795446, 0.024342365562915802, 0.014758134260773659, 0.029042324051260948, 0.006345602683722973, -0.004686793778091669, -0.028015442192554474, -0.0033340745139867067, 0.042181145399808884, -0.014758134260773659, -0.003640164388343692, 0.04207582399249077, 0.018062587827444077, 0.005789375398308039, 0.011611663736402988, -0.01146684680134058, 0.044893164187669754, -0.0037783985026180744, -0.018615523353219032, -0.03536159545183182, 0.01645643822848797, 0.02413172274827957, -0.008642922155559063, 0.019313277676701546, -0.02403956651687622, -0.0016966589028015733, 0.03280755877494812, -0.002471757121384144, -0.02668576128780842, -0.01718052290380001, 0.013356045819818974, 0.012164600193500519, -0.0035381345078349113, 0.009946271777153015, -0.007023608312010765, -0.03617783635854721, -0.025040118023753166, -0.0058881137520074844, 0.012296251021325588, 0.02347346395254135, 0.0018579319585114717, -0.022433416917920113, 0.004311587195843458, -0.0006282245740294456, 0.03978508710861206, -0.02722553350031376, -0.0049040187150239944, -0.00657599326223135, -0.005493159405887127, 0.03154370188713074, 0.035624898970127106, 0.01294134370982647, -0.019063139334321022, 0.002089967718347907, -0.009814620018005371, -0.008972050622105598, 0.0020323703065514565, 0.02263089455664158, -0.0015131696127355099, 0.03354480490088463, -0.00995943695306778, -0.0055458201095461845, -0.0362568274140358, -0.029331957921385765, 0.0039956234395504, -0.03151737153530121, 0.004637424368411303, 0.014995107427239418, -0.018799835816025734, 0.030727462843060493, -0.00217389571480453, 0.008932555094361305, -0.020511304959654808, 0.01727267913520336, -0.015153089538216591, -0.029753241688013077, 0.014323684386909008, 0.03257058560848236, 0.024263374507427216, -0.0034755999222397804, 0.007135511841624975, 0.011394438333809376, 0.017917770892381668, -0.004499190486967564, 0.01450799684971571, 0.034492697566747665, -0.0027679731138050556, 0.006362059153616428, -0.009083954617381096, 0.014218362979590893, 0.026764752343297005, 0.02323649264872074, -0.022683555260300636, 0.00021269948047120124, 0.01392873004078865, -0.01723318360745907, -0.005368090234696865, -0.0220121331512928, 0.0198662132024765, -0.0034690173342823982, -0.016469603404402733, -0.012473980896174908, 0.0263039730489254, 0.023907914757728577, -0.015047768130898476, 0.010071340948343277, 0.0032896422781050205, 0.027620486915111542, 0.027699477970600128, 0.00882723368704319, -0.04202316328883171, -0.02585635706782341, -0.02380259335041046, -0.01429735403507948, -0.0016226049046963453, -0.0029802611097693443, 0.012118522077798843, -0.025329751893877983, 0.0022940277121961117, 0.008728494867682457, -0.006500293500721455, -0.0012161307968199253, 0.00018431211356073618, -0.033386822789907455, 0.0368097648024559, -0.018154744058847427, -0.016509098932147026, -0.02359195053577423, 0.021011581644415855, 0.01438951026648283, -0.03759967163205147, -0.020116351544857025, 0.0005360685172490776, -0.010012097656726837, 0.019010478630661964, 0.0008787738624960184, 0.015548043884336948, -0.017430659383535385, -0.01607464998960495, 0.028937002643942833, -0.02347346395254135, -0.0044958991929888725, 0.023960575461387634, 0.02469782344996929, -0.03459801897406578, 0.02380259335041046, 0.01843121089041233, -0.002759744878858328, 0.015218914486467838, 0.027041221037507057, 0.0019138838397338986, 0.03143838047981262, -0.014705473557114601, 0.015561209060251713, -0.026580439880490303, 0.008649504743516445, -0.011236456222832203, 0.010472877882421017, -0.018207404762506485, -0.033808108419179916, -0.022170115262269974, -0.0066681490279734135, -0.008043907582759857, 0.022762546315789223, 0.013968225568532944, -0.018470706418156624, -0.012684623710811138, 0.023986905813217163, 0.04976427182555199, -0.006115212570875883, -0.02615915611386299, -0.014073546975851059, 0.00932092685252428, -0.010867832228541374, 0.000858203275129199, 0.013290219940245152, 0.025579888373613358, -0.024289704859256744, -0.01914213038980961, 0.02281520701944828, 0.025132274255156517, -0.014902951195836067, 0.0015798181993886828, -0.012546389363706112, -0.02373676747083664, 0.0019056556047871709, -0.018826166167855263, -0.02147236093878746, 0.007681865710765123, 0.014981942251324654, 0.00631598150357604, 0.0026692345272749662, -0.008261132054030895, 0.027804799377918243, 0.016179971396923065, 0.011605081148445606, -0.027093881741166115, 0.004644006956368685, 0.010683520697057247, 0.001086947857402265, 0.013520610518753529, -0.022077959030866623, -0.009367004968225956, -0.00787276029586792, -0.030437828972935677, 0.013474532403051853, 0.011967122554779053, 0.033413153141736984, 0.05042253062129021, 0.019484423100948334, -0.012559554539620876, -0.040101051330566406, -0.014244693331420422, 0.004466277547180653, 0.01869451440870762, 0.0421021543443203, 0.02296002395451069, 0.015390061773359776, -0.025843191891908646, 0.006566119380295277, -0.02425020933151245, -0.0023977032396942377, -0.008610009215772152, -0.0035414258018136024, 0.008879894390702248, -0.05481968820095062, 0.013072995468974113, -0.009492074139416218, -0.02856837771832943, 0.025250760838389397, -0.025211265310645103, 0.003959419205784798, 0.02943727746605873]",Do Language Models Exhibit the Same Cognitive Biases in Problem Solving as Human Learners?.pdf
"do above (Nesher and Teubal, 1975): (i) problem text, (ii)
underlying mathematical relationships, and (iii) arithmetic
expressions. Solving a problem, then, involves transitioning
from level (i) to a final answer, possibly through levels (ii)
and (iii), with each transition requiring a separate skill.3
There is much research on which factors best explain prob-
lem difficulty. Riley et al.’s (1983) model of the problem-
solving process emphasized the degree of complexity at
level (ii) as the leading factor underlying performance, mo-
tivated by empirical evidence that some arithmetic concepts
are harder for children to understand than others. However,
their model does not account for how the mathematical rela-
tionships are derived from the problem text (Cummins et al.,
1988). This part is significant as well, as several studies have
found that altering the linguistic form of a problem with-
outchanging the underlying mathematical relationships can
3Not everyone uses all three levels in their solving process.
Hegarty et al. (1995) find evidence that unsuccessful human prob-
lem solvers often opt for short-cut strategies that rely on surface-
level features of the problem text (thus, by our conceptualization,
moving directly from text to arithmetic expressions), whereas suc-
cessful solvers are more likely to make use of mental models.
2
Do Language Models Exhibit the Same Cognitive Biases in Problem Solving as Human Learners?
have drastic effects on performance (Hudson, 1983; Lewis
and Mayer, 1987; inter alia ) in both children and adults.
This part of the process is encompassed by the models of
Briars and Larkin (1984) and Kintsch and Greeno (1985).
None of these models give an explicit account of the com-
plexity of the arithmetic expression, however, which also has
significant influence on performance (Daroczy et al., 2015).
3. Human Biases in Word Problems
In this section we discuss the particular factors that influence
performance of human children (i.e., cognitive biases) which
we study in LLMs (§5). Each bias is reflected by a variation
in a specific level of Fig. 1. We study one bias for each of
the three levels that precedes the answer.
Problem text: Consistency bias. Given the premise “Al-
ice has 5 apples” and a question querying the (smaller)
number of apples of another agent “Bob”, an additive com-
parison statement between the two agents could take either
of the following forms:
(1) Bob has 3 fewer apples than Alice.
(2) Alice has 3 more apples than Bob.
Here, (1) represents a consistent statement because the
relational keyword (“fewer”) suggests the operation that
is indeed needed to compute Bob’s quantity (subtraction).
Conversely, (2) is an inconsistent statement because the
relational keyword (“more”) suggests a different operation
(“addition”). Note that these two statements express the
same comparison relationship, so the difference lies only in
the problem text. Problems with an inconsistent statement
are more difficult for children to solve than consistent ones
(Nesher and Teubal, 1975; Stern, 1993). This has been
hypothesized to be the case due to inconsistent statements
requiring an additional, error-prone, deduction step: to
rearrange the relational statement to be in the preferred
consistent form (Lewis and Mayer, 1987).
Mental model: Transfer vs comparison bias. Irrespec-
tive of which relational keyword is used, comparison-type
problems tend to be more difficult for children than other
types of arithmetic concepts (Riley et al., 1983). In partic-
ular, grade school children display a significant difference
in performance between comparison problems and transfer
problems. Consider the same premise as above but with a
slightly different continuation:
Alice has 5 apples. Alice gave 3 apples to Bob.
How many apples does Alice have?
This is a transfer problem (often called a change elsewhere;
Nesher et al., 1982), concerning a change of state of some
quantity. It has the same arithmetic expression as thecomparison problems above (although with another men-
tal model), but is easier for young children to solve. In
analyzing their solution strategies, it has been found that
comparison problems require a number-matching type strat-
egy that appears to be more sophisticated than the counting-
type strategies that are often sufficient for solving transfer
problems (Riley et al., 1983; Carpenter and Moser, 1984).
