text,embedding,file
"ExCP: Extreme LLM Checkpoint Compression via Weight-Momentum Joint
Shrinking
Wenshuo Li1Xinghao Chen1Han Shu1 2Yehui Tang1Yunhe Wang1
Abstract
Large language models (LLM) have recently at-
tracted significant attention in the field of artifi-
cial intelligence. However, the training process
of these models poses significant challenges in
terms of computational and storage capacities,
thus compressing checkpoints has become an ur-
gent problem. In this paper, we propose a novel
Extreme Checkpoint Compression (ExCP) frame-
work, which significantly reduces the required
storage of training checkpoints while achieving
nearly lossless performance. We first calculate
the residuals of adjacent checkpoints to obtain
the essential but sparse information for higher
compression ratio. To further excavate the redun-
dancy parameters in checkpoints, we then propose
a weight-momentum joint shrinking method to
utilize another important information during the
model optimization, i.e., momentum. In partic-
ular, we exploit the information of both model
and optimizer to discard as many parameters as
possible while preserving critical information to
ensure optimal performance. Furthermore, we uti-
lize non-uniform quantization to further compress
the storage of checkpoints. We extensively eval-
uate our proposed ExCP framework on several
models ranging from 410M to 7B parameters and
demonstrate significant storage reduction while
maintaining strong performance. For instance, we
achieve approximately 70×compression for the
Pythia-410M model, with the final performance
being as accurate as the original model on vari-
ous downstream tasks. Codes will be available at
https://github.com/Gaffey/ExCP.
1Huawei Noah’s Ark Lab2University of Science
and Technology of China. Correspondence to: Xing-
hao Chen <xinghao.chen@huawei.com >, Yunhe Wang
<yunhe.wang@huawei.com >.
Proceedings of the 41stInternational Conference on Machine
Learning , Vienna, Austria. PMLR 235, 2024. Copyright 2024 by
the author(s).1. Introduction
Large Language Model (LLM) (Brown et al., 2020; Tou-
vron et al., 2023; Wang et al.; Chowdhery et al., 2023; Team
et al., 2023) has attracted the attention of the vast majority
of academia and industry concentrated on Artificial Intel-
ligence (AI). The current LLM can conduct daily conver-
sations with humans, ask questions and answer questions,
help humans extract information from articles and charts,
and even complete professional-related tasks such as con-
sultation and programming, which greatly improves the
efficiency of human-computer interaction. Thousands of
laboratories and companies are involved in the training of
the LLMs. Computing power and storage have become
key resources in the LLM era. Training an LLM requires
up to thousands of GPUs or computing cards like TPUs or
Ascends, and it is difficult to keep such a large computing
cluster running completely smoothly. At the same time, re-
searchers are also faced with the need to interrupt training at
any time to adjust training data and hyperparameters. Some-
times it is even necessary to go back to earlier checkpoints
to solve problems introduced during training. Therefore,
frequent saving of checkpoints has become a must during
the whole training process.
Take the open source model Pythia (Biderman et al., 2023)
as an example, the checkpoint of the largest version Pythia-
12B model takes more than 24GB to save. Not to mention
the relevant momentum states of the optimizer. Adam opti-
mizer requires twice the storage space of the weight. The
training process of Pythia-12B saves 154 checkpoints which
requires about 11TB storage, which would cost $5000 a
month on a general cloud server to store these checkpoints.
And this is just an entry-level scenario for large company.
Conservative estimates suggest that the largest models of
the most advanced LLMs, such as the GPT series and Gem-
ini series, has the number of parameters on the order of
hundreds to thousands of billions. Some publicly available
data is shown Figure 1. Larger models also require more
checkpoints and longer training time. So the total cost of
storage for a cutting-edge LLM may grow to tens of millions
of dollars.
In view of the above problems, compressing model check-
points has become a very urgent need. Model compression
1arXiv:2406.11257v1  [cs.LG]  17 Jun ","[0.023352723568677902, 0.01909215748310089, 0.04852757602930069, 0.004662505816668272, -0.004327555652707815, 0.02880571037530899, 0.026380673050880432, 0.038934603333473206, -0.011957719922065735, 0.05450308695435524, 0.0355583056807518, -0.01144859567284584, -0.04734855145215988, -0.020137201994657516, -0.018462451174855232, 0.00631046062335372, 0.01598381996154785, -0.011482090689241886, 0.011575876735150814, 0.007971812970936298, -0.012895580381155014, 0.0202711820602417, 0.006122888531535864, -0.0033896954264491796, 0.020713316276669502, -0.011562478728592396, -0.013103249482810497, -0.01378654781728983, 0.06506071239709854, -0.05761142075061798, 0.06672206521034241, -0.03400413691997528, -0.036522962152957916, -0.014081303030252457, -0.002813581144437194, 0.06865137815475464, 0.006276965606957674, 0.04014042392373085, -0.02469252422451973, 0.020927684381604195, 0.011013160459697247, -0.007670357823371887, -0.030279491096735, 0.04263245314359665, -0.029636386781930923, 0.0619523748755455, 0.044293805956840515, 0.008253171108663082, -0.031244147568941116, 0.04172138869762421, -0.013089851476252079, 0.04702699929475784, -0.01972186379134655, -0.028082219883799553, -0.013418102636933327, -0.02958279475569725, 0.011106946505606174, -0.013230530545115471, 0.013565480709075928, -0.00537929916754365, 0.022106708958745003, -0.07358184456825256, 0.00967335980385542, -0.004421341698616743, -0.019896037876605988, -0.022495251148939133, -0.013732955791056156, 0.04046197608113289, -0.030627839267253876, 0.00935850664973259, -0.014255477115511894, 0.014161691069602966, 0.011033257469534874, -0.0007967626443132758, 0.016345566138625145, -0.016251780092716217, -0.007054049521684647, 0.052680958062410355, 0.03596024587750435, -0.02283020131289959, -0.003054745262488723, 0.010845685377717018, 0.03392374888062477, -0.022374669089913368, 0.017658570781350136, -0.0003722133405972272, -0.04619632288813591, 0.038934603333473206, -0.06318499147891998, -0.020699918270111084, 0.006759293843060732, 0.01261422224342823, -0.017899734899401665, 0.038639847189188004, 0.06227392703294754, 0.007449290715157986, 0.01646614819765091, -0.011173936538398266, 0.03810392692685127, 0.0216645747423172, -0.03429889306426048, 0.031190555542707443, 0.04078352823853493, -0.03837188705801964, 0.03515636548399925, -0.01940031163394451, 0.004618962295353413, -0.015581879764795303, -0.004692651331424713, 0.005322357639670372, -0.03472762927412987, 0.011977816931903362, -0.07186689972877502, 0.022307679057121277, -0.025402618572115898, -0.060612574219703674, -0.044990502297878265, 0.0497066006064415, -0.008561325259506702, 0.015246929600834846, -0.008882877416908741, 0.03587985783815384, 0.011930923908948898, -0.05463706701993942, 0.03194084390997887, -0.06302421540021896, 0.02571077272295952, -0.030306287109851837, 0.014201885089278221, -0.028082219883799553, 0.042284104973077774, -0.0012267548590898514, 0.06704361736774445, -0.06640051305294037, -0.029716774821281433, -0.010162387043237686, 0.003731344360858202, 0.0219593308866024, -0.015166541561484337, -0.016559934243559837, 0.028162606060504913, 0.0036878008395433426, -0.023098161444067955, 0.019212739542126656, -0.024022623896598816, 0.06361372768878937, -0.015340715646743774, 0.04775049164891243, -0.032717928290367126, 0.026595041155815125, 0.013639169745147228, -0.05954073369503021, 0.012647717259824276, 0.004220371600240469, -0.02493368834257126, -0.026876399293541908, -0.007770842872560024, 0.06682924926280975, 0.04241808503866196, -0.07899463921785355, -0.03424530103802681, 0.0521986298263073, 0.010684909299015999, 0.025683976709842682, 0.041962552815675735, 0.060130245983600616, -0.05841530114412308, 0.002195598091930151, -0.06602536886930466, -0.062381111085414886, -0.010611220262944698, -0.02966318279504776, -0.002661178819835186, -0.03542432561516762, 0.0094388946890831, -0.01831507310271263, -0.02670222520828247, -0.008755596354603767, -0.023794857785105705, -0.043061189353466034, -0.03992605581879616, -0.011729953810572624, -0.05589647963643074, 0.02856454625725746, -0.04169459268450737, 0.0009939644951373339, 0.03507597744464874, 0.0040227510035037994, -0.020552540197968483, 0.05147513747215271, -0.01637236215174198, 0.029020078480243683, 0.04295400530099869, 0.04357031360268593, 0.029100466519594193, -0.03236958011984825, 0.05048368498682976, 0.004257216118276119, 0.022790007293224335, -0.015367511659860611, 0.007690454833209515, 0.0549854151904583, 0.008983362466096878, -0.0563788041472435, 0.02538922056555748, -0.020016619935631752, -0.0071009425446391106, 0.04574079066514969, -0.032583948224782944, -0.05131436139345169, 0.008862780407071114, 0.031029779464006424, 0.03794315084815025, -0.004896970931440592, -0.02273641526699066, 0.028484158217906952, -0.020230988040566444, 0.008246472105383873, -0.015246929600834846, 0.03178006783127785, -0.02289719134569168, 0.008454141207039356, 0.01934671960771084, 0.035209957510232925, -0.04418662190437317, -0.0020800402853637934, 0.030467063188552856, -0.019762057811021805, 0.05045688897371292, 0.0029760319739580154, 0.02856454625725746, -0.0341649129986763, -0.03421850502490997, -0.015246929600834846, 0.014938775449991226, -0.0549854151904583, 0.007998608984053135, 0.01637236215174198, 0.010477240197360516, -0.03625500202178955, 0.02321874350309372, -0.004890271928161383, -0.00795841496437788, -0.025791160762310028, -0.04255206510424614, 0.042900413274765015, -0.0397384837269783, -0.0380503349006176, 0.03949731960892677, 0.008326860144734383, 0.014590427279472351, 0.000300199055345729, -0.010966267436742783, -0.0267960112541914, -0.03269113227725029, 0.0011137091787531972, -0.01894477941095829, 0.016827894374728203, -0.04927786439657211, 0.03488840535283089, -0.01980225183069706, -0.003314331639558077, -0.02313835546374321, 0.005868326406925917, 0.001912565203383565, -0.0044883317314088345, -0.015340715646743774, 0.03628179803490639, -0.030869003385305405, 0.0014980644918978214, 0.04528525844216347, 0.004327555652707815, 0.013471694663167, 0.0029308137018233538, -0.014684213325381279, -0.0037279948592185974, 0.028698526322841644, 0.009331710636615753, -0.012413252145051956, 0.04729495942592621, -0.02390204183757305, -0.007328708656132221, 0.06109490245580673, 0.017832744866609573, 0.02826979011297226, 0.0034767824690788984, -0.01421528309583664, -0.009921222925186157, -0.0369516983628273, -0.009150837548077106, 0.054771047085523605, -0.010021707974374294, 0.007255019620060921, 0.009780543856322765, 0.015112949535250664, 0.01339130662381649, -0.024585340172052383, -0.02313835546374321, -0.02982395887374878, 0.009840834885835648, 0.024746116250753403, 0.0023798206821084023, -0.031726475805044174, -0.00733540765941143, -0.048795536160469055, 0.045687198638916016, -0.01871701329946518, -0.026889797300100327, -0.04667865112423897, 0.024103011935949326, -0.022763211280107498, -0.000447158410679549, 0.016894884407520294, 0.025683976709842682, -0.06377450376749039, -0.027519503608345985, -0.015729257836937904, -0.025737568736076355, 0.03617461398243904, -0.03105657547712326, -0.014804795384407043, -0.04123906046152115, -0.018435655161738396, -0.016881486400961876, 0.010021707974374294, 0.03437928110361099, -0.0016178091755136847, -0.003227244596928358, -0.023031171411275864, -0.0232053454965353, 0.016908282414078712, 0.028135810047388077, 0.010430347174406052, -0.031887251883745193, 0.010952869430184364, -0.0447225421667099, -0.04868835210800171, 0.013063055463135242, 0.044052641838788986, -0.017511192709207535, -0.061845190823078156, 0.00463905930519104, -0.011167237535119057, 0.045606810599565506, 0.016961874440312386, -0.008078997023403645, 0.05782578885555267, 0.014697611331939697, 0.05895122140645981, -0.024866698309779167, 0.01191752590239048, 0.005744394846260548, 0.016827894374728203, -0.009345108643174171, 0.033066276460886, 0.03253035619854927, 0.012553931213915348, -0.023553693667054176, 0.01847584918141365, 0.004538574256002903, -0.016345566138625145, -0.006678905803710222, 0.024960484355688095, -0.0005187540082260966, -0.01823468506336212, 0.005891772918403149, -0.04587477073073387, 0.02057933621108532, 0.028242994099855423, -0.002632708055898547, 0.0316728837788105, 0.04448137804865837, -0.007697153836488724, -0.024652330204844475, -0.05739705264568329, 0.027144359424710274, 0.010189183056354523, 0.04954582452774048, 0.011723254807293415, 0.002518825000151992, 0.033736176788806915, 0.027546299621462822, 0.05900481343269348, 0.04016721993684769, -0.003872023429721594, 0.041507020592689514, -0.00173169223126024, -0.011817040853202343, -0.03756800666451454, -0.017993520945310593, -0.014376059174537659, 0.026514653116464615, -0.015702461823821068, 0.025509802624583244, 0.03939013555645943, 0.032503560185432434, 0.02234787307679653, 0.04839359596371651, 0.016425954177975655, 0.018542839214205742, -0.03869343921542168, -0.026528051123023033, -0.037300046533346176, -0.00888957642018795, 0.00741579569876194, 0.00959297176450491, 0.048340003937482834, 0.020780306309461594, 0.020297978073358536, -0.0022290931083261967, 0.03826470300555229, 0.011890729889273643, 0.0288860984146595, -0.042900413274765015, 0.03735363855957985, -0.016131198033690453, 0.014590427279472351, 0.028537750244140625, 0.00045469478936865926, 0.01192422490566969, -0.007543076761066914, 0.004997455980628729, -0.056271620094776154, -0.022803405299782753, -0.03338782861828804, 0.009653262794017792, 0.0025623685214668512, -0.0380503349006176, 0.0025941887870430946, -0.07953055948019028, 0.0008143475279211998, 0.007094243541359901, 0.03507597744464874, -0.040327996015548706, -0.015340715646743774, -0.023781459778547287, -0.02268282324075699, 0.013659266754984856, 0.016975272446870804, -0.05064446106553078, -0.011897428892552853, 0.011636167764663696, 0.006166432052850723, 0.007543076761066914, 0.015957023948431015, -0.010972966440021992, -0.04260565713047981, 0.007208126597106457, 0.00455867126584053, -0.02717115543782711, 0.036388982087373734, -0.01385353785008192, 0.02982395887374878, 0.025094464421272278, -0.023714469745755196, -0.06484634429216385, 0.09753748029470444, -0.036844514310359955, 0.06431042402982712, -0.007482785731554031, 0.051743097603321075, 0.0035739177837967873, 0.035049181431531906, 0.026903195306658745, 0.0014930402394384146, 0.03121735155582428, 0.013746353797614574, -0.02082050032913685, -0.0219593308866024, 0.004200274590402842, 0.03818431496620178, -0.07417135685682297, 0.001359897549264133, -0.011153839528560638, 0.010966267436742783, -0.01522013358771801, -0.009137439541518688, -0.0009763796115294099, -0.04030120000243187, -0.03127094358205795, 0.03003832697868347, -0.029529202729463577, 0.020364968106150627, -0.03997964784502983, 0.01307645346969366, 0.05118038132786751, -0.0019979774951934814, -0.001230104360729456, -0.014536835253238678, 0.021477002650499344, -0.04287361726164818, -0.011656264774501324, 0.0461159348487854, -0.014577029272913933, 0.002525524003431201, -0.020244386047124863, -0.00658177025616169, -0.018971575424075127, 0.04370429366827011, -0.0205659382045269, 0.010651414282619953, -0.006611915770918131, -0.013585577718913555, 0.01779255084693432, -0.011723254807293415, -0.0017032214673236012, 0.014161691069602966, -0.017189640551805496, 0.01385353785008192, 0.007663658820092678, 0.01708245649933815, 0.024652330204844475, 0.02437097206711769, 0.04295400530099869, -0.007060748524963856, 0.0530828982591629, 0.016519740223884583, 0.01816769503057003, 0.008105793036520481, 0.04528525844216347, 0.022026320919394493, -0.03531714156270027, 0.003031298751011491, -0.0009562826016917825, -0.021999524906277657, -0.0038887709379196167, -0.03317346051335335, -0.08199579268693924, 0.004337604157626629, 0.002656154567375779, 0.01637236215174198, -0.021624380722641945, 0.018355267122387886, -0.012681212276220322, -0.04884912818670273, -2.8784776077372953e-05, -0.0017752356361597776, -0.023433111608028412, -0.05932636559009552, 0.0008080672123469412, 0.025670578703284264, 0.029395222663879395, 0.01370615977793932, 0.0319676399230957, 0.0031049877870827913, -0.0027717123739421368, 0.025040872395038605, -0.02307136543095112, 0.006042500492185354, 0.0034700834657996893, 0.026059120893478394, -0.05584288761019707, 0.005382648669183254, -0.022334475070238113, 0.001755138742737472, 0.0035739177837967873, -0.0031401575542986393, 0.02537582255899906, 0.008206278085708618, 0.027077369391918182, 0.02684960328042507, -0.015970421954989433, 0.020900888368487358, -0.00017155727255158126, -0.021075062453746796, -0.029314834624528885, -0.009787242859601974, -0.019520893692970276, -0.006424343679100275, 0.010349959135055542, -0.01724323257803917, 0.0013984168181195855, 0.0230579674243927, -0.03293229639530182, 0.004438089206814766, -0.02057933621108532, 0.021061664447188377, 0.0004111512971576303, -0.006836332380771637, 0.02260243520140648, -0.0313781276345253, 0.003878722433000803, -0.013907129876315594, -0.0068162353709340096, -0.052680958062410355, 0.026528051123023033, -0.024317380040884018, 0.003949061967432499, -0.03478122130036354, 0.0005643909680657089, 0.015796247869729996, -0.042820025235414505, -0.014268875122070312, -0.02826979011297226, -0.033200256526470184, 0.046544671058654785, 0.007348805665969849, -0.007255019620060921, -0.021852146834135056, -0.011013160459697247, 0.0122256800532341, 0.01824808306992054, 0.00733540765941143, -0.013143443502485752, 0.0018690216820687056, 0.003614111803472042, -0.03767519071698189, 0.013257326558232307, 0.010195882059633732, -0.00292076519690454, -0.005215173587203026, 0.008588121272623539, 0.019909435883164406, -0.030333083122968674, -0.03035987913608551, 0.004943863954395056, -0.01745760068297386, -0.033816564828157425, 0.05356522649526596, -0.04882233217358589, 0.013679363764822483, -0.016425954177975655, -0.03408452495932579, -0.015729257836937904, 0.0270907673984766, 0.01716284453868866, -0.02757309563457966, -0.019520893692970276, -0.0563788041472435, 0.02990434691309929, -0.046303506940603256, -0.008554626256227493, 0.045070890337228775, 0.02739892154932022, -0.006565022747963667, -0.008233074098825455, 0.017497794702649117, -0.008775693364441395, -0.009633165784180164, -0.026729021221399307, 0.031887251883745193, -0.001865672180429101, 0.01004850398749113, -0.03212841600179672, 0.022776609286665916, 0.013337714597582817, -0.024866698309779167, 0.004696000833064318, 0.004943863954395056, -0.000988940242677927, 0.011334712617099285, -0.05040329694747925, 0.031163759529590607, 0.04287361726164818, 0.019440505653619766, -0.001865672180429101, 0.02268282324075699, -0.023312529549002647, -0.024103011935949326, -0.0045653702691197395, -0.059219181537628174, 0.01393392588943243, -0.020016619935631752, 0.000429992243880406, 0.0012259174836799502, 0.0516895055770874, 0.0035002289805561304, 0.004833330400288105, 0.0034014186821877956, 0.017350416630506516, -0.0204185601323843, 0.01004850398749113, 0.0245987381786108, -0.0014344239607453346, -0.01544789969921112, 0.01028296910226345, -0.032878704369068146, -0.0313781276345253, -0.015823043882846832, 0.03673733025789261, -0.02802862785756588, 0.02009700797498226, -0.05605725571513176, -0.01941370964050293, -0.015421103686094284, 0.009552777744829655, 0.02407621592283249, 0.029100466519594193, -5.7883567933458835e-05, -0.00021175129222683609, 0.008648412302136421, 0.007831133902072906, -0.02174496278166771, -0.027841055765748024, 0.021369818598031998, -0.0005308959516696632, -0.028484158217906952, 0.033066276460886, -0.008768994361162186, -0.0500013567507267, 0.008179482072591782, 0.029234446585178375, -0.05814734101295471, -0.006213325075805187, -0.05270775407552719, -0.014804795384407043, -0.05040329694747925, 0.022790007293224335, 0.027385523542761803, -0.042820025235414505, -0.016881486400961876, 0.014161691069602966, -0.00397920748218894, -0.019467301666736603, -0.027305135503411293, -0.015823043882846832, 0.01385353785008192, 0.024813106283545494, -0.001549144391901791, -0.020847296342253685, -0.058736853301525116, 0.0012644367525354028, -0.008407248184084892, -0.022495251148939133, 0.001183211337774992, -0.036764126271009445, 0.004357701167464256, 0.00012351285840850323, -0.003143507055938244, 0.007395698688924313, 0.025134658440947533, 0.017256630584597588, 0.02553659863770008, 0.005710899829864502, 0.020070211961865425, -0.003049721010029316, -0.03992605581879616, -0.0005882561672478914, -0.007033952511847019, 0.021543992683291435, -0.03220880404114723, -0.035906653851270676, -0.037701986730098724, 0.030708227306604385, 0.030386675149202347, -0.004066294524818659, 0.01153568271547556, 0.0416410006582737, 0.040247607976198196, 0.005623812787234783, -0.03654975816607475, 0.012346262112259865, -0.007985210977494717, 0.010966267436742783, 0.014349263161420822, -0.030627839267253876, 0.010544230230152607, 0.03625500202178955, -0.010189183056354523, -0.012949172407388687, 0.013183637522161007, 0.022856997326016426, -0.005131436046212912, 0.058040156960487366, -0.0037882858887314796, -0.01910555548965931, -0.042659249156713486, -0.025898344814777374, 0.01948069967329502, -0.027050573378801346, -0.015863237902522087, 0.010122193023562431, 0.017497794702649117, 0.04900990426540375, -0.016184790059924126, -0.03330744057893753, 0.02974357083439827, -0.005369250662624836, 0.025429414585232735, -0.004823281895369291, -0.004237119108438492, 0.002756639616563916, 0.01957448571920395, -0.04796485975384712, -0.005868326406925917, -0.01106005348265171, -0.0205659382045269, -0.02601892687380314, -0.007315310649573803, -0.020941082388162613, -0.023232141509652138, -0.013692761771380901, 0.003245666855946183, -0.01378654781728983, 0.0007691292557865381, 0.007074146531522274, 0.0004994943737983704, -0.09914524108171463, -0.013197035528719425, 0.03317346051335335, 0.0023647479247301817, 0.012131894007325172, -0.02475951425731182, -0.03011871501803398, 0.0419357568025589, 0.025817956775426865, -0.05605725571513176, 0.023245539516210556, -0.033977340906858444, -0.006005655974149704, -0.017591580748558044, 0.01824808306992054, -0.032583948224782944, -0.010376755148172379, -0.0048299808986485004, 0.0163857601583004, -0.015809645876288414, -0.002461883472278714, 0.0033227053936570883, 0.015273725613951683, 0.024799708276987076, -0.025951936841011047, -0.0245987381786108, -0.0005166605697013438, 0.01964147575199604, -0.025054270401597023, -0.004672554321587086, -0.003220545593649149, 0.016104402020573616, 0.008306763134896755, 0.033039480447769165, -0.022656027227640152, 0.02912726253271103, -0.029261242598295212, -0.012165389023721218, -0.019467301666736603, -0.0006594330770894885, -0.0007511256844736636, -0.032101619988679886, 0.034593649208545685, -0.040890712291002274, -0.0011606022017076612, -0.034057728946208954, 0.05466386303305626, -0.01654653623700142, -0.003791635390371084, -0.010081999003887177, -0.007509581744670868, 0.0036878008395433426, 0.02258903719484806, 0.03207482397556305, 0.00974704883992672, -0.0007657797541469336, 0.008748897351324558, -0.007060748524963856, -0.01230606809258461, 0.0319676399230957, -0.017484396696090698, -0.010457143187522888, -0.03244996815919876, -0.02352689765393734, -0.05155552551150322, -0.00741579569876194, 0.007549775764346123, 0.03563869372010231, -0.002895643934607506, -0.02733193151652813, 0.0001733366952976212, 0.006551624741405249, -0.013217132538557053, 0.026072518900036812, 0.015193337574601173, 0.013659266754984856, -0.0022709618788212538, 0.032583948224782944, -0.025107862427830696, 0.045847974717617035, 0.021008072420954704, -0.03491520136594772, 0.0075363777577877045, -0.009840834885835648, -0.018382063135504723, 0.030413471162319183, 0.03858625516295433, -0.024973882362246513, -0.012118496000766754, 0.00584153039380908, 0.021543992683291435, 0.01324392855167389, 0.029931142926216125, -0.011421799659729004, 0.038639847189188004, -0.017283426597714424, 0.00772394984960556, -0.01444304920732975, 0.005024251993745565, -0.013893731869757175, 0.03220880404114723, -0.003386345924809575, -0.013344413600862026, -0.0288860984146595, 0.010108795017004013, -0.021919136866927147, 0.017256630584597588, -0.02537582255899906, 0.01145529467612505, -0.0037346938624978065, 0.021852146834135056, 0.022548843175172806, -0.0033695984166115522, 0.061148494482040405, 0.002850425662472844, -0.018301675096154213, 0.02049894817173481, 0.03711247444152832, 0.024250390008091927, -0.008695305325090885, -0.0255499966442585, 0.015796247869729996, -0.012312767095863819, -0.027975035831332207, -0.0010073625016957521, -0.0032959093805402517, 0.0014771301066502929, 0.04836679995059967, -0.019306525588035583, 0.017216436564922333, -0.0004425528459250927, 0.00827326811850071, -0.007422494702041149, 0.01583644188940525, -0.02794823981821537, 0.003945712465792894, 0.00014695936988573521, 0.03518316149711609, -0.004364400170743465, 0.020123803988099098, 0.009465690702199936, 0.013840139843523502, 0.01761837676167488, -0.02546960860490799, 0.0016102727968245745, 0.0151397455483675, -0.017256630584597588, -0.035906653851270676, 0.01848924718797207, 0.01467081531882286, 0.039014991372823715, -0.01785954087972641, -0.013478393666446209, 0.0230579674243927, -0.021878942847251892, 0.01168975979089737, 0.014108099043369293, -0.04131944850087166, -0.03044026717543602, 0.017417406663298607, 0.05632521212100983, 0.03411132097244263, -0.05335085839033127, 0.038398683071136475, 0.022240689024329185, -0.009378603659570217, -0.02648785710334778, -0.016734108328819275, -0.0299847349524498, 0.02011040598154068, -0.023352723568677902, -0.04659826308488846, 0.024973882362246513, -0.0005045186262577772, 0.017980122938752174, 0.035451121628284454, 0.014563631266355515, 0.013652567751705647, 0.011039956472814083, 0.02770707570016384, -0.010617919266223907, 0.013418102636933327, -0.011502187699079514, 0.023942235857248306, 0.0067626433447003365, 0.022562241181731224, 0.0014210259541869164, 0.012641018256545067, 0.021289430558681488, 0.061309270560741425, 0.021878942847251892, -0.01199121493846178, 0.0019929532427340746, 0.04233769699931145, -0.005412794183939695, -0.02950240671634674, -0.042578861117362976, 0.024665728211402893, -0.018850993365049362, -0.026260090991854668, -0.020941082388162613, 0.043838273733854294, -0.0031016382854431868, -0.023888643831014633, -0.009365205653011799, 0.03515636548399925, -0.0034432874526828527, -0.01823468506336212, -0.026286887004971504, 0.019896037876605988, 0.009023556485772133, 0.0019259632099419832, 0.006822934374213219, 0.00989442691206932, -0.0071009425446391106, -0.052064649760723114, 0.012734804302453995, 0.011133742518723011, -0.040033239871263504, -0.030333083122968674, 0.00355382077395916, -0.004987407475709915, -0.019735261797904968, 0.011642866767942905, -0.028216198086738586, 0.0026946738362312317, 0.02422359399497509, 0.006531527731567621, 0.003872023429721594, 0.007563173770904541, 0.0014469845918938518, 0.018743809312582016, 0.01013559103012085, 0.0025288735050708055, -0.012440048158168793, -0.02563038468360901, 0.027653483673930168, -0.03783596679568291, 0.005342454649507999, 0.019520893692970276, 0.035611897706985474, -0.004615612793713808, 0.008012006990611553, -0.008983362466096878, -0.00035839664633385837, 0.01421528309583664, 0.014322467148303986, 0.012634319253265858, -0.007013855967670679, -0.0012577377492561936, 0.010899277403950691, -0.004498380236327648, -0.010309765115380287, -0.014188487082719803, 0.03904178738594055, -0.017296824604272842, 0.013652567751705647, 0.02407621592283249, 0.01832847110927105, 0.036844514310359955, -0.044374193996191025, 0.039550911635160446, 0.016908282414078712, 0.010966267436742783, -0.011930923908948898, -0.009023556485772133, -0.01693507842719555, 0.02701037935912609, 0.026916593313217163, -0.00780433788895607, 0.003332753898575902, 0.039952851831912994, -0.014148293063044548, -0.001307142898440361, 0.014697611331939697, 0.01637236215174198, 0.020632928237318993, 0.01505935750901699, 0.015890033915638924, 0.004237119108438492, -0.03872023522853851, -0.021557390689849854, 0.014429651200771332, -0.012761600315570831, 0.007817735895514488, -0.012346262112259865, -0.029931142926216125, -0.027680279687047005, 0.04558001458644867, 0.003654305823147297, -0.0244513601064682, 0.053618818521499634, 0.007248320616781712, 0.024947086349129677, -0.01044374518096447, -0.00702725350856781, -0.004314157646149397, -0.00827326811850071, -0.005864976905286312, -0.014242079108953476, 0.021718166768550873, -0.012192185036838055, -0.004354351665824652, -0.017591580748558044, -0.028752118349075317, -0.0020113755017518997, -0.012185486033558846, -0.04340953752398491, 0.005560172256082296, -0.008909673430025578, -0.013759751804172993, 0.039256155490875244, 0.016184790059924126, -0.0003406024188734591, 0.006585119757801294, -0.03178006783127785, -0.00998151395469904, -0.035129569470882416, 0.013217132538557053, -0.022615833207964897, 0.01405450701713562, 0.04008683189749718, 0.012239078059792519, -0.02671562321484089, 0.006163082551211119, -0.018891187384724617, -0.009840834885835648, -0.0216645747423172, -0.0031418323051184416, 0.01662692427635193, 0.0179265309125185, 0.014041109941899776, -0.005094591528177261, 0.008460840210318565, -0.033119868487119675, 0.014161691069602966, -0.01818109303712845, -0.0405423641204834, -0.0288860984146595, -0.004762990865856409, 0.036844514310359955, 0.0267960112541914, -0.006859778892248869, 0.009887727908790112, -0.036764126271009445, 0.03330744057893753, -0.035987041890621185, -0.02328573353588581, 0.004819932393729687, -0.011669662781059742, 0.07395698875188828, -0.020056813955307007, -0.025027474388480186, -0.01745760068297386, -0.006086044013500214, 0.04697340726852417, 0.0019695067312568426, -0.004220371600240469, -0.008340258151292801, -0.011642866767942905, 0.002607586793601513, 0.030011530965566635, 0.006263567600399256, 0.007255019620060921, 0.014563631266355515, -0.02359388768672943, -0.006755944341421127, 0.017296824604272842, 0.010577725246548653, 0.010664812289178371, 0.0288860984146595, -0.03424530103802681, -0.005597016774117947, -0.03403093293309212, 0.0030698180198669434, 0.0011019859230145812, -0.012567329220473766, 0.019855843856930733, -0.001230104360729456, 0.04263245314359665, 0.010624618269503117, -0.017270028591156006, -0.030493859201669693, 0.015461297705769539, 0.006243470590561628, 0.00529891112819314, -0.027291737496852875, 0.016680516302585602, -0.009921222925186157, -0.02786785177886486, 0.03282511234283447, 0.004180177580565214, -0.024504952132701874, -0.008675208315253258, -0.0063272081315517426, -0.0023044568952172995, -0.013337714597582817, 0.007328708656132221, 0.0034298894461244345, 0.03802353888750076, -0.006474586203694344, -0.029073670506477356, 0.0057611423544585705, -0.018060510978102684, -0.023660877719521523, -0.004562020767480135, -0.006139636039733887, 0.04324876144528389, 0.018502645194530487, 0.032021231949329376, 0.0006133774295449257, 0.0071009425446391106, -0.03255715221166611, 0.028591342270374298, -0.017069058492779732, -0.036924902349710464, -0.024880096316337585, 0.0020030017476528883, -0.013384607620537281, 0.03818431496620178, -0.0074425917118787766, 0.024705922231078148, 0.0033478266559541225, 0.018690217286348343, 0.01631877012550831, 0.008012006990611553, -0.014496641233563423, 0.02103486843407154, 0.010718404315412045, 0.01693507842719555, -0.014684213325381279, 0.0037179463542997837, 0.0072416216135025024, 0.03965809568762779, -0.00038896084879525006, 0.010631317272782326, 0.017913132905960083, -0.006367402151226997, 0.013659266754984856, 0.030467063188552856, 0.009659961797297001, 0.005794637370854616, 0.0299847349524498, 0.001106172800064087, -0.019293127581477165, -0.02134302258491516, -0.0033880206756293774, -0.019453903660178185, 0.016050809994339943, 0.007322009652853012, -0.018904585391283035, -0.0020616180263459682, -0.01684129238128662, -0.00733540765941143, 0.01654653623700142, 0.00935850664973259, -0.02576436474919319, 0.03354860469698906, -0.010698307305574417, 0.008259870111942291, 0.001477967482060194, -0.007677056826651096, 0.04450817406177521, 0.024036021903157234, 0.0033428024034947157, 0.00927811861038208, -0.008393850177526474, 0.030788615345954895, -0.026193100959062576, -0.030788615345954895, 0.029368426650762558, -0.03429889306426048, 0.032182008028030396, 0.03850586712360382, 0.01191752590239048, -0.012205583043396473, -0.009994911961257458, 0.016640322282910347, -0.01661352626979351, 0.00658177025616169, -0.0032707881182432175, 0.007020554970949888, -0.010416949167847633, -0.002768362872302532, 0.023312529549002647, 0.018998371437191963, 0.013866935856640339, -0.007174631580710411, -0.004163430072367191, 0.0007100942893885076, 0.01544789969921112, 0.03515636548399925, -0.014456447213888168, -0.008748897351324558, -0.00896326545625925, -0.005623812787234783, 0.0044179921969771385, -0.02205311693251133, 0.026367275044322014, -0.021182246506214142, -0.020137201994657516, 0.008259870111942291, 0.0016714012017473578, 0.019440505653619766, 0.01436266116797924, -0.0005576919647864997, -0.016680516302585602, -0.004531875252723694, -0.0006334744393825531, -0.0121519910171628, -0.0011681385803967714, 0.010711705312132835, 0.0005639722803607583, 0.03341462463140488, 0.051501933485269547, -0.025509802624583244, -0.02289719134569168, 0.00780433788895607, -0.004655806813389063, -0.01894477941095829, 0.01832847110927105, 0.0030949392821639776, 0.02498728036880493, -0.01677430234849453, 0.006812885869294405, -0.030708227306604385, -0.004773039370775223, -0.010296367108821869, -0.02104826644062996, 0.015112949535250664, -0.011127043515443802, -0.00888957642018795, 0.01538090966641903, 0.012172088027000427, -0.003543772269040346, -0.02414320595562458, -0.008460840210318565, 0.008172783069312572, 0.002927464200183749, -0.00873549934476614, 0.00444813771173358, 0.0017986821476370096, 0.00028784776804968715, -0.01129451859742403, 0.014255477115511894, 0.0447225421667099, -0.019078759476542473, 0.020673122256994247, 0.04536564648151398, -0.017805948853492737, -0.021999524906277657, -0.0377555787563324, -0.029931142926216125, -0.007543076761066914, 0.02453174814581871, -0.0025757665280252695, 0.006578420754522085, 0.00355382077395916, 0.01576945185661316, -0.01693507842719555, 0.013652567751705647, -0.00858142226934433, -0.0011463668197393417, 0.020981276407837868, -0.006086044013500214, 0.0030999635346233845, 0.002090088790282607, -0.003915566951036453, -0.05541415140032768, -0.045928362756967545, 0.012607523240149021, 0.005938665941357613, 0.021008072420954704, -0.001118733431212604, -0.01722983457148075, 0.0015148120000958443, 0.017765754833817482, 0.001077702036127448, 0.01491197943687439, 0.037219658493995667, 0.00796511396765709, -0.02220049500465393, 0.000700883159879595, -0.009385302662849426, -0.0008892925688996911, 0.017122650519013405, 0.019735261797904968, -0.006243470590561628, 0.024625534191727638, 0.014349263161420822, -0.02757309563457966, 0.006343955639749765, 0.048098839819431305, 0.009251322597265244, -0.00028198614018037915, 0.050590869039297104, 0.03542432561516762, 0.04244488105177879, -0.01637236215174198, 0.004585467278957367, -0.0011622769525274634, 0.03352180868387222, -0.0010048503754660487, 0.014965571463108063, 0.006920069921761751, -0.044749338179826736, -0.01037005614489317, -0.01724323257803917, -0.006856429390609264, 0.027077369391918182, 0.01818109303712845, -0.01576945185661316, 0.004354351665824652, 0.0006887412164360285, -0.009150837548077106, 0.042980801314115524, -0.016265178099274635, 0.017055660486221313, -0.03223560005426407, 0.007395698688924313, 0.0020984625443816185, -0.009686757810413837, -0.0009906149934977293, -7.771889613650274e-06, -0.026286887004971504, 0.018529441207647324, -0.009713553823530674, -0.005369250662624836, 0.01879740133881569, -0.03898819535970688, -0.000947908847592771, -0.004669204819947481, -0.024826504290103912, -0.037380434572696686, -0.0026109362952411175, 0.020941082388162613, -0.0216645747423172, 0.007797638885676861, 0.012038107961416245, 0.012841988354921341, 0.026112712919712067, 0.012801794335246086, 0.009325011633336544, -0.012701309286057949, -0.004233769606798887, 0.026675429195165634, 0.0004982383106835186, 0.01593022793531418, -0.023406315594911575, 0.022964181378483772, -0.02422359399497509, -0.003290885128080845, 0.00014748272951692343, 0.018341869115829468, 0.03772878274321556, 0.04139983654022217, 0.006571721751242876, 0.04892951622605324, 0.01183713786303997, 0.03748761862516403, -0.02725154347717762, -0.00413328455761075, 0.0030379977542907, 0.018033714964985847, 0.009184332564473152, -0.005536725744605064, -0.027050573378801346, 0.0041466825641691685, -0.0067626433447003365, 0.06398887187242508, -0.006796138361096382, -0.016050809994339943, -0.03011871501803398, 0.012131894007325172, 0.018060510978102684, -0.007857929915189743, -0.015354113653302193, -0.001501413993537426, 0.02074011228978634, -0.0053190081380307674, 0.04541923850774765, -0.031887251883745193, -0.006575071252882481, -0.01716284453868866, -0.011415100656449795, 0.028055423870682716, 0.003362899413332343, 0.03965809568762779, 0.013384607620537281, -0.020606132224202156, -0.02359388768672943, 0.013089851476252079, -0.00967335980385542, -0.01988263987004757, -0.002425038954243064, 0.0019226137083023787, -0.02019079402089119, 0.0063741011545062065, -0.053913574665784836, -0.0018338519148528576, 0.04308798536658287, 0.05900481343269348, 0.009907824918627739, 0.003439937951043248, 0.007308611646294594, -0.00035002289223484695, 0.017216436564922333, -0.0047127483412623405, -0.018650023266673088, -0.008708703331649303, -0.03322705253958702, 0.0070473505184054375, 0.04086391627788544, 0.013773149810731411, 0.02360728569328785, -0.006822934374213219, -0.013813343830406666, -0.017363814637064934, -0.007322009652853012, -0.011569177731871605, 0.012627620249986649, 0.010483939200639725, 0.004984057974070311, 0.03579946979880333, -0.024344176054000854, 0.021008072420954704, 0.0026410818099975586, 0.00702725350856781, -0.017216436564922333, 0.009579573757946491, -0.0007092569139786065, -0.024799708276987076, 0.01918594352900982, -0.014657417312264442, -0.001708245719783008, 0.008708703331649303, -0.005881724413484335, 0.007924919947981834, 0.0038921204395592213]",ExCP: Extreme LLM Checkpoint Compression via Weight-Momentum Joint Shrinking.pdf
"2024
ExCP: Extreme LLM Checkpoint Compression via Weight-Momentum Joint Shrinking
(b)Pre-training
PromptingFine-tuningSelf-supervised
Learning
Human -feedback
Learning
Prompt -based
LearningHigh Capacity Storage
ckptckptckpt
Unlabeled 
data
Supervised 
data
Specialized 
data
Augmented ModelT5GPT3Yuan 1.0PaLMPanGu -∑
LLaMAGLMFLMLaMDA
0200400600800100012001400
2019 2020 2021 2022 2023 2024Parameters ( Billion)Model Param.
T5 11B
GPT3 175B
Yuan 1.0 245B
LaMDA 137B
PaLM 540B
GLM 130B
LLaMA 65B
PanGu -∑1085B
FLM 101B
(a)
Figure 1. The number of parameters of some LLMs and the general training process of LLMs. (a) Parameters of some recent LLMs, most
of them contain billions of weights and keep getting larger in trend. (b) The training of LLMs consists of several stages with variety
of schemes and data. A large quantity of checkpoints would be stored in each stage. Considering the magnitude of LLMs’ parameters,
extremely high capacity storage is needed for training of LLMs, which could cost tens of millions of dollars.
itself is not a new topic. The model size is compressed to re-
duce the storage occupied by checkpoints (Han et al., 2015;
Hu et al., 2020; Eisenman et al., 2022; Chen et al., 2020; Jin
et al., 2023; Agrawal et al., 2023) or compress the calcula-
tion amount of the model to improve the model’s inference
performance (Liu et al., 2017; Tang et al., 2020; Dettmers
et al., 2022; Xiao et al., 2023; Chen et al., 2022; Shu et al.,
2023; Wu et al., 2023). These researches have drawn atten-
tions of researchers in the past ten years. However, previous
checkpoints compression work concerns more about the size
of weight checkpoints instead of the whole training states,
so there is a lack of relevant researches on momentum states
compression. In addition, the similarity of adjacent check-
points should also be considered in the compression pipeline.
This feature can improve the pruning ratio instead of simply
reducing the final size using some encoding techniques.
In this paper, we propose a checkpoints compression frame-
work that does not rely on training code and information. We
calculate the residual value of adjacent checkpoints, apply
weight-momentum joint pruning, and then non-uniformly
quantize the weights and momentum states to extremely
compress the checkpoints. Meanwhile, our residual com-
pression strategy ensures that we can resume the training
from compressed checkpoints nearly lossless. Our main
contributions are as follows:
•We propose a checkpoints compression frame-
work which contains residual calculation, weight-
momentum joint pruning and non-uniform quantiza-
tion. This framework makes full use of the character-
istics of checkpoints compression, achieving almost
lossless training recovery while achieving a high com-pression ratio.
•We derive a weight-momentum joint pruning method,
and prove the convergence of the optimizer under this
pruning method. This is the first work to our knowl-
edge that jointly considers both weights and momen-
tum states pruning.
•We conduct experiments on various models and evalu-
ation benchmarks. Our compressed model achieves up
to 70×nearly lossless compression on Pythia-410M
model, which could largely reduce the storage of sav-
ing checkpoints.
2. Related Work
2.1. Large Language Model
Recently, the emergence of large language model and
the corresponding strong capabilities in various natu-
ral language processing (NLP) applications have drawn
widespread attention in research society. The demonstrated
powerful abilities by the model scaling have furthermore
increased the parameters of large language models. The re-
markable work GPT3 (Brown et al., 2020) shows impressive
performance on solving real-world NLP tasks. However, as
shown in Table 1, the model contains 175 billion parame-
ters and requires large amount of hardware resources to be
trained and stored. A single training checkpoint of GPT3
can reach up to 2.3TB. Following large language models
such as PaLM (Chowdhery et al., 202","[0.01107559259980917, 0.02738463692367077, 0.0457581989467144, -0.0016566325211897492, -0.019992541521787643, 0.03554229810833931, 0.023155204951763153, 0.05527128651738167, 0.001157760270871222, 0.03576820343732834, 0.049272265285253525, 0.025251096114516258, -0.05027628690004349, 0.0070720636285841465, -0.016804778948426247, -0.019590934738516808, 0.004489850718528032, -0.016817329451441765, 0.026957929134368896, 0.004891458433121443, -0.003686634823679924, 0.005459357053041458, -0.002588488394394517, -0.01314010750502348, 0.027409737929701805, -0.0076682004146277905, -0.020795758813619614, 0.0012495338451117277, 0.05737972632050514, -0.06992997229099274, 0.06882555037736893, -0.030948907136917114, -0.043825458735227585, 0.004273358732461929, 0.031601522117853165, 0.04422706738114357, -0.003909401595592499, 0.03757543861865997, -0.026154713705182076, 0.011232470162212849, 0.0028379245195537806, 0.0007518382044509053, -0.06485967338085175, 0.05012568458914757, -0.02200058102607727, 0.04947306960821152, 0.034764181822538376, 0.03130031377077103, -0.03684752434492111, 0.054267264902591705, 0.003237963654100895, 0.03534149378538132, -0.02296695113182068, -0.03009549155831337, 0.0008879299275577068, -0.02015569619834423, -0.0007216391386464238, -0.01721893809735775, 0.013692318461835384, -0.03230433538556099, 0.026255115866661072, -0.07660670578479767, -0.0027234035078436136, -0.008885574527084827, -0.03993488475680351, -0.023017151281237602, -0.02487458847463131, 0.051405809819698334, -0.019013622775673866, 0.007241492159664631, 0.0019970580469816923, 0.011213645339012146, 0.012230214662849903, 0.0043674856424331665, -0.004289046861231327, 0.007994506508111954, 0.00960721354931593, 0.038378652185201645, 0.031149711459875107, -0.02457338199019432, -0.0018182169878855348, -0.01596391387283802, 0.03627021238207817, -0.022477490827441216, -0.0040066661313176155, -0.015524654649198055, -0.030873605981469154, 0.008979701437056065, -0.0372491292655468, -0.009262082166969776, 0.008076083846390247, 0.007530147675424814, -0.0033728787675499916, 0.05517088249325752, 0.07098419219255447, -0.024636132642626762, 0.015424252487719059, -0.025589952245354652, 0.028514159843325615, 0.019754087552428246, -0.015989013016223907, 0.021285217255353928, 0.03047199733555317, -0.018724966794252396, 0.03790174424648285, -0.006102557294070721, 0.007003037258982658, -0.03207843005657196, -0.00997117068618536, 0.0007906655082479119, -0.04204332455992699, 0.022502591833472252, -0.05958857014775276, 0.038453955203294754, -0.016666727140545845, -0.03112461045384407, -0.03150111809372902, 0.03150111809372902, 0.020783208310604095, 0.01180978212505579, -0.00610883254557848, 0.05077829584479332, 0.011408173479139805, -0.051405809819698334, 0.030271194875240326, -0.04982447624206543, 0.014746539294719696, -0.016302770003676414, 0.02215118519961834, 0.004063142463564873, 0.02008039504289627, 0.00894832517951727, 0.05052729323506355, -0.06054238975048065, -0.02906637080013752, -0.0024896550457924604, -0.019528184086084366, 0.030497098341584206, -0.020369049161672592, -0.005205214489251375, 0.040135689079761505, 0.004853807855397463, -0.014846941456198692, 0.03250513970851898, -0.03130031377077103, 0.04789173975586891, -0.010680259205400944, 0.058032337576150894, -0.044201966375112534, 0.030773203819990158, 0.0017225212650373578, -0.044252168387174606, 0.014257079921662807, -0.014219429343938828, -0.04166681692004204, -0.03428727388381958, -0.01971643790602684, 0.05123010650277138, 0.048594553023576736, -0.0619480162858963, -0.0331326499581337, 0.04091380164027214, 0.01037277840077877, 0.02605431154370308, 0.05768093094229698, 0.05557249113917351, -0.050451990216970444, -0.006137070246040821, -0.07690791040658951, -0.08117499202489853, -0.009218156337738037, -0.007260317448526621, -0.017833899706602097, -0.043900761753320694, -0.002255906816571951, 0.005832727067172527, -0.05276123434305191, -0.0047094798646867275, -0.00956956297159195, -0.05722912400960922, -0.03692282363772392, -0.021536223590373993, -0.045883700251579285, 0.029543280601501465, -0.03802724555134773, 0.0028724377043545246, 0.04247003421187401, 0.03534149378538132, 0.007404645439237356, 0.05983957275748253, 0.0014683788176625967, 0.04638570919632912, 0.046461012214422226, 0.03119991160929203, 0.01779625006020069, -0.05010058358311653, 0.058383744210004807, 0.02590370923280716, 0.007505047135055065, -0.005327579565346241, -0.005189526826143265, 0.043825458735227585, -0.0053307171911001205, -0.06380545347929001, 0.020042743533849716, -0.0493224672973156, 0.009224430657923222, 0.01258162222802639, -0.03729933127760887, -0.04349915310740471, 0.002695165341719985, 0.0413656122982502, 0.042495135217905045, -0.008521617390215397, -0.019754087552428246, 0.023343458771705627, -0.03795194625854492, 0.0036897724494338036, -0.011044216342270374, 0.026832425966858864, 0.0004361210740171373, -0.0015985876088961959, 0.03200312703847885, 0.03935757279396057, -0.05115480348467827, 0.0011099124094471335, 0.021661724895238876, -0.016980484127998352, 0.05481947585940361, -0.004518088884651661, 0.02472398616373539, -0.03421197086572647, -0.02868986316025257, -0.0012777720112353563, 0.0011828606948256493, -0.0627010315656662, 0.022201385349035263, -0.006209234241396189, 0.020883610472083092, -0.03893086314201355, 0.011621528305113316, 0.0049479347653687, 0.0037776241078972816, -0.026179814711213112, -0.01424452941864729, 0.060391783714294434, -0.035718001425266266, -0.035366594791412354, 0.0403364934027195, 0.013127557933330536, 0.0013915086165070534, -0.015938812866806984, -0.023632114753127098, -0.01218001451343298, -0.03054730035364628, 0.0029179323464632034, -0.019189326092600822, 0.04349915310740471, -0.038755159825086594, 0.024247076362371445, 0.000280615669908002, 0.00647592730820179, -0.02266574464738369, 0.006664180662482977, 0.0008440040401183069, -0.0019437194569036365, -0.013692318461835384, 0.03310754895210266, -0.0027265409007668495, -0.006770858075469732, 0.024535732343792915, 0.003862338373437524, 0.002552406396716833, 0.010360227897763252, -0.015800761058926582, -0.015612506307661533, 0.0503515899181366, 0.0016817330615594983, -0.012092161923646927, 0.04302224516868591, -0.031250111758708954, -0.004888320807367563, 0.0565263107419014, 0.0334087572991848, 0.00876007229089737, 0.007517597638070583, -0.010598682798445225, -0.002519462024793029, -0.03413667157292366, 0.004129031207412481, 0.05562269315123558, 0.0042419834062457085, 0.0018103730399161577, 0.01298950519412756, 0.029116570949554443, -0.0228790994733572, -0.020507102832198143, -0.012161188758909702, -0.016152167692780495, -0.0006792820640839636, 0.014671238139271736, -0.005942541640251875, -0.0334087572991848, 0.0023233643732964993, -0.048669856041669846, 0.020256098359823227, -0.023356009274721146, -0.019440332427620888, -0.03867986053228378, 0.011489750817418098, -0.014834390953183174, 0.006438276264816523, 1.7011467207339592e-05, -0.0020943223498761654, -0.05587369576096535, -0.022050783038139343, -0.0016299632843583822, -0.018561813980340958, 0.03009549155831337, -0.02369486540555954, -0.010912438854575157, -0.018900670111179352, -0.014784189872443676, -0.00015217173495329916, 0.0282631553709507, 0.030647700652480125, 0.0024723985698074102, 0.015700358897447586, -0.018599465489387512, -0.02868986316025257, 0.0006855571991764009, 0.04214372858405113, 0.0017758598551154137, -0.021749576553702354, 0.002632414223626256, -0.01148347556591034, -0.04339875280857086, 0.014432783238589764, 0.060090579092502594, 0.0022684570867568254, -0.06536168605089188, -0.0015107359504327178, 0.0019123437814414501, 0.05793193727731705, 0.013441313989460468, 0.0010401016334071755, 0.03177722543478012, 0.014508084394037724, 0.057279326021671295, -0.03250513970851898, 0.029995089396834373, 0.010761836543679237, 0.031099511310458183, -0.0034732806961983442, 0.02575310505926609, 0.026732023805379868, 0.005060886964201927, -0.019691336899995804, 0.02405882254242897, -0.018875570967793465, -0.024912238121032715, -0.008044707588851452, 0.02162407524883747, 0.003583095269277692, -0.010109223425388336, 0.011772130616009235, -0.04262063652276993, 0.018511613830924034, 0.023343458771705627, 0.013077356852591038, 0.025276195257902145, 0.03878026083111763, 0.0038372378330677748, -0.006795958615839481, -0.08037177473306656, 0.018637115135788918, -0.0016644764691591263, 0.029493078589439392, -0.006300223525613546, 0.01809745468199253, 0.019691336899995804, 0.017909200862050056, 0.05376525595784187, 0.0495985746383667, -0.021310318261384964, 0.033157750964164734, 0.01956583373248577, -0.005217764992266893, -0.023268157616257668, -0.02502519078552723, -0.008013332262635231, 0.02103421278297901, -0.004813019651919603, 0.02126011811196804, 0.0231175534427166, 0.03453827649354935, 0.0027877234388142824, 0.03905636817216873, 0.016290219500660896, 0.007925480604171753, -0.022314338013529778, -0.02221393585205078, -0.026581421494483948, -0.006714381743222475, 0.036772221326828, 0.006695556454360485, 0.048243146389722824, 0.033735062927007675, 0.04377526044845581, -0.024560831487178802, 0.04003528505563736, 0.01413157768547535, 0.015712907537817955, -0.03694792464375496, 0.03275614231824875, -0.01306480634957552, -0.0029100882820785046, 0.037274230271577835, 0.017269138246774673, 0.014746539294719696, -0.002870868891477585, 0.021824877709150314, -0.062349624931812286, -0.004423961974680424, -0.03393586724996567, -0.008138834498822689, -0.0013146382989361882, -0.041315410286188126, 0.00894832517951727, -0.06490987539291382, -0.015097945928573608, 0.0022700258996337652, 0.020105494186282158, -0.034337472170591354, -0.012487495318055153, -0.020331399515271187, -0.027208933606743813, 0.027786245569586754, -0.009444060735404491, -0.04334855079650879, -0.008967150934040546, 0.0046467287465929985, 0.015876062214374542, 0.011539951898157597, 0.007021863013505936, -0.00422943290323019, -0.0344378761947155, 0.006651630625128746, 0.02067025564610958, -0.024824386462569237, 0.050075482577085495, -0.013190308585762978, 0.055371686816215515, 0.021435821428894997, -0.03130031377077103, -0.03980937972664833, 0.10823332518339157, -0.02171192690730095, 0.049774277955293655, -0.016378071159124374, 0.053815457969903946, 0.003360328497365117, 0.01933993026614189, 0.007122264709323645, -0.00328502687625587, 0.021523673087358475, 0.023945869877934456, 0.0008149816421791911, -0.02434747852385044, 0.0026135887019336224, 0.03913166746497154, -0.06696811318397522, -0.020795758813619614, -0.014106476679444313, 0.014846941456198692, 0.002615157514810562, -0.0093122823163867, 0.027635643258690834, -0.0388304628431797, -0.05210862308740616, 0.03642081469297409, -0.03438767418265343, 0.012161188758909702, -0.02640571817755699, 0.017708398401737213, 0.05200821906328201, 0.0036395713686943054, 0.01567525789141655, -0.011765856295824051, 0.012481220066547394, -0.011288946494460106, -0.023142654448747635, 0.046686917543411255, -0.012707124464213848, 0.0014691632241010666, -0.01782134920358658, -0.012449844740331173, -0.029894687235355377, 0.02567780390381813, -0.0182480588555336, 0.02354426123201847, -0.014457883313298225, -0.008245511911809444, 0.008785172365605831, 0.014156677760183811, -0.022929299622774124, 0.020281197503209114, 0.0017162461299449205, 0.01428217999637127, 0.023933319374918938, 0.010968915186822414, 0.00010197074880125001, 0.02339365892112255, 0.035140689462423325, -0.001940581831149757, 0.04869495704770088, 0.024171775206923485, 0.013629567809402943, 0.0076744756661355495, 0.056476108729839325, 0.028714964166283607, -0.014407683163881302, -0.007542698178440332, -0.004034904297441244, -0.0357431024312973, -0.02508794330060482, -0.026305316016077995, -0.09352443367242813, 0.017419742420315742, -0.01026610191911459, 0.017244039103388786, -0.016528675332665443, 0.03253023698925972, -0.017846450209617615, -0.055070482194423676, 0.008207861334085464, -0.016352970153093338, -0.02502519078552723, -0.042118627578020096, -0.015562305226922035, 0.018599465489387512, 0.045356590300798416, 0.0001457985636079684, 0.018800269812345505, 0.0023061076644808054, 0.004442787263542414, 0.05597409978508949, -0.018009603023529053, 0.0005490732728503644, 0.0011828606948256493, 0.03534149378538132, -0.0493224672973156, 0.008665945380926132, -0.034462977200746536, -0.009927244856953621, 0.0006871260120533407, 0.009255806915462017, 0.028438858687877655, 0.00997117068618536, 0.03283144533634186, 0.03644591569900513, -0.014671238139271736, 0.0046906545758247375, -0.0064320010133087635, -0.02648101933300495, -0.010234725661575794, -0.01428217999637127, 0.0043486603535711765, 0.0014856354100629687, 0.006469652056694031, -0.02103421278297901, 0.02796194888651371, 0.025778206065297127, -0.05281143635511398, -0.00044161180267110467, -0.029894687235355377, 0.028940867632627487, -0.013127557933330536, -0.00229826383292675, 0.003921952098608017, -0.03428727388381958, -0.007994506508111954, -0.0019060686463490129, -0.010636333376169205, -0.03890576213598251, 0.015587406232953072, 0.0018527301726862788, 0.002977545838803053, -0.03245493769645691, -0.0012260022340342402, 0.03629531338810921, -0.04465377703309059, 0.012569071725010872, -0.026230014860630035, -0.04204332455992699, 0.04460357502102852, -0.023569362238049507, -0.030346496030688286, -0.04269593954086304, 0.009111478924751282, 0.014219429343938828, 0.00911775417625904, 0.006444551516324282, -0.01789665035903454, 0.016152167692780495, 0.019703887403011322, -0.03847905620932579, 0.010178249329328537, -0.00956956297159195, -0.01662907563149929, -0.007109714671969414, 0.015487004071474075, 0.004320422187447548, -0.03747503459453583, -0.04003528505563736, -0.0005129913333803415, -0.013190308585762978, -0.037650737911462784, 0.07831353694200516, -0.049196965992450714, 0.02399607188999653, -0.02628021501004696, -0.008396115154027939, -0.030848504975438118, 0.02735953778028488, 0.00834591407328844, -0.04056239500641823, -0.028965968638658524, -0.045507192611694336, 0.022351989522576332, -0.04063769802451134, -0.024761635810136795, 0.038453955203294754, 0.01803470402956009, -0.009387584403157234, -0.004072554875165224, 0.03140071779489517, -0.005512695759534836, 0.0060335309244692326, -0.039106566458940506, 0.026506120339035988, -0.002670064801350236, -0.0008996957913041115, -0.0049824477173388, 0.024912238121032715, 0.01180978212505579, -0.031752124428749084, 0.014947343617677689, 0.0020221583545207977, -0.01254397165030241, 0.00029944104608148336, -0.03355935961008072, 0.04289674013853073, 0.04450317472219467, 0.014043726027011871, -0.008050982840359211, 0.00229983264580369, -0.008847923949360847, -0.028388656675815582, -0.00612452020868659, -0.05421706289052963, 0.01367976889014244, -0.017997052520513535, -0.009174230508506298, -0.018448861315846443, 0.05808253958821297, 0.0007314440445043147, 0.019189326092600822, 0.016892632469534874, -0.009877043776214123, -0.03355935961008072, 0.006375525146722794, 0.015235998667776585, -0.005227177403867245, -0.010366503149271011, 0.006726932246237993, -0.031978026032447815, -0.06099419668316841, -0.010724185034632683, 0.044478073716163635, -0.03009549155831337, 0.029317375272512436, -0.06691791117191315, -0.015160697512328625, -0.020343950018286705, 0.018637115135788918, 0.010586133226752281, 0.008898125030100346, 0.0009875475661829114, -0.00422943290323019, 0.008270611986517906, 0.005597409792244434, -0.02038159966468811, -0.008609469048678875, 0.01566270738840103, 0.004053729586303234, -0.017105985432863235, 0.03458847850561142, -0.01912657544016838, -0.05306244269013405, 0.009764092043042183, 0.030923806130886078, -0.06747012585401535, -0.009626039303839207, -0.04317284747958183, -0.010517106391489506, -0.05481947585940361, 0.024836936965584755, 0.019402680918574333, -0.03669692203402519, -0.008176485076546669, 0.011684278957545757, 0.01232434157282114, -0.010209625586867332, -0.012424743734300137, -0.009042452089488506, 0.011063042096793652, 0.02449808083474636, -0.005346404854208231, -0.02803725004196167, -0.0578315332531929, -0.009042452089488506, 0.010253551416099072, -0.02582840621471405, 0.017093434929847717, -0.03258043900132179, 0.010661434382200241, -0.005318166688084602, -0.001501323189586401, 0.029342476278543472, 0.03401116654276848, 0.030697902664542198, 0.015323850326240063, 0.006425726227462292, 0.007837628945708275, 0.020293748006224632, -0.02951817959547043, -0.001782134990207851, -0.002062946790829301, 0.016453372314572334, -0.012788700871169567, -0.03047199733555317, -0.02398352138698101, 0.019666235893964767, 0.041968025267124176, -0.007699576206505299, 0.026179814711213112, 0.02000509202480316, 0.042269229888916016, -0.006708106491714716, -0.07233961671590805, 0.010040197521448135, -0.01744484156370163, 0.019841939210891724, 0.021912729367613792, -0.021737026050686836, -0.0004616137593984604, 0.03202822804450989, -0.017645645886659622, -0.012964404188096523, 0.012412193231284618, 0.010799487121403217, 0.005531521048396826, 0.04181741923093796, -0.0009812724310904741, -0.013290710747241974, -0.03742483630776405, -0.017708398401737213, 0.01721893809735775, -0.006764582823961973, -0.0052428655326366425, -0.0008267475059255958, 0.019992541521787643, 0.03253023698925972, -0.0025743693113327026, -0.04214372858405113, 0.03672201931476593, -0.004376898519694805, 0.011157169006764889, -0.0017068334855139256, -0.01192273385822773, 0.00022806150082033128, 0.015072845853865147, -0.033458955585956573, 0.0032536513172090054, -0.00653240317478776, -0.01597646437585354, -0.0251757949590683, -0.0068775350227952, -0.028162753209471703, -0.00838356465101242, -0.017043234780430794, 0.011533676646649837, 0.01453318540006876, 0.0025320122949779034, 0.02811255119740963, 0.012650648131966591, -0.09216900914907455, -0.019691336899995804, 0.042118627578020096, -0.010887338779866695, 0.0023908219300210476, -0.02891576662659645, -0.012876552529633045, 0.04743993282318115, 0.02009294368326664, -0.054568469524383545, 0.025778206065297127, -0.04149111360311508, 0.011088142171502113, 0.0021445234306156635, 0.005038924049586058, -0.040512196719646454, -0.01817275583744049, -0.012161188758909702, 0.011728204786777496, -0.03466378152370453, 0.01603921502828598, -0.012349442578852177, 0.00726659270003438, 0.031149711459875107, -0.03694792464375496, -0.03554229810833931, 0.003250513691455126, 0.001324835349805653, -0.028388656675815582, 0.005616235081106424, -0.003510931506752968, 0.008603193797171116, 0.01846141181886196, 0.03323305398225784, -0.01752014458179474, 0.017495043575763702, -0.023594463244080544, -0.01788410171866417, -0.004436512012034655, -0.007442296016961336, -0.011778405867516994, -0.02743483893573284, 0.01965368539094925, -0.03980937972664833, -0.010033922269940376, -0.03629531338810921, 0.052861638367176056, -0.01634042151272297, 0.005264828447252512, -0.012399643659591675, -0.006890085060149431, 0.0035328944213688374, 0.017018133774399757, 0.02097146213054657, -0.00023629760835319757, -0.006752032320946455, 0.009851943701505661, -0.024598482996225357, 0.012098437175154686, 0.040662799030542374, -0.02083340846002102, 0.005716637242585421, -0.030371597036719322, -0.010968915186822414, -0.05542188882827759, -0.021084412932395935, 0.0219880323857069, 0.04872005805373192, -0.006017843261361122, -0.04096400365233421, -0.010241000913083553, 0.00879772286862135, -0.009167955256998539, 0.02296695113182068, -0.002240218920633197, 0.014056275598704815, -0.012267866171896458, 0.038955964148044586, -0.033308353275060654, 0.027409737929701805, 0.030798304826021194, -0.04899616166949272, -0.003140699118375778, -0.0006686928099952638, -0.007379544898867607, 0.04269593954086304, 0.03687262535095215, -0.012682023458182812, -0.031174812465906143, 0.006337874568998814, 0.022464940324425697, 0.020632604137063026, 0.016365520656108856, -0.009306007996201515, 0.028815366327762604, -0.028087452054023743, 0.01118854433298111, -0.016428273171186447, 0.009851943701505661, -0.007122264709323645, 0.00691518560051918, -0.00923698116093874, -0.0351908914744854, -0.03215372934937477, 0.019741537049412727, -0.008766346611082554, 0.012355717830359936, -0.0030763791874051094, 0.020268647000193596, -0.0228790994733572, 0.011414448730647564, 0.007191291078925133, 0.01424452941864729, 0.07324323803186417, 0.0007992938044480979, -0.011245020665228367, 0.010121773928403854, 0.03742483630776405, 0.004872633144259453, -0.004957347176969051, -0.03702322766184807, 0.011728204786777496, -0.006221784744411707, -0.01883791945874691, 0.005829589441418648, -0.003212863113731146, 0.0076305498369038105, 0.04555739462375641, 0.006670455913990736, 0.006102557294070721, 0.03637061268091202, -0.008515342138707638, -0.017607996240258217, 0.021059313789010048, -0.02340620942413807, 0.022038232535123825, 0.006519853137433529, 0.04259553551673889, 0.0013938617194071412, 0.01735698990523815, 0.009676240384578705, 0.00834591407328844, 0.02628021501004696, -0.0032630639616400003, 0.00886674877256155, 0.003808999666944146, -0.021373068913817406, -0.05722912400960922, 0.006852434482425451, -0.0034419051371514797, 0.043373651802539825, -0.017231488600373268, -0.004401999060064554, 0.0063127740286290646, -0.027560340240597725, 0.018950872123241425, 0.0032944397535175085, -0.04221902787685394, -0.03242983669042587, 0.015298750251531601, 0.03614471107721329, 0.028714964166283607, -0.05366485193371773, 0.02457338199019432, 0.006733207032084465, -0.01331581175327301, -0.03074810281395912, 0.002590056974440813, -0.03664672002196312, 0.036973025649785995, -0.024008620530366898, -0.04038669168949127, 0.02959348075091839, 0.017921751365065575, 0.00919933058321476, 0.03242983669042587, -0.004907146096229553, -0.007762327324599028, 0.01184115745127201, 0.01588861271739006, 0.004994998220354319, 0.015487004071474075, 0.006827333942055702, 0.017645645886659622, 0.012004310265183449, 0.023745065554976463, 0.006190408952534199, 0.009927244856953621, 0.023217955604195595, 0.06772112846374512, 0.0068775350227952, -0.014658687636256218, 0.0036301587242633104, 0.03378526493906975, -0.002379840472713113, -0.029568379744887352, -0.0354669950902462, 0.017984503880143166, -0.02628021501004696, -0.020331399515271187, -0.03714872896671295, 0.049623675644397736, -0.02178722806274891, -0.015499554574489594, -0.01180978212505579, 0.034312374889850616, 0.011941559612751007, -0.01721893809735775, -0.028388656675815582, 0.020507102832198143, 0.031225012615323067, -0.0068775350227952, -0.0057197748683393, 0.010680259205400944, -0.005117362830787897, -0.02494988963007927, -0.002905382076278329, 0.016804778948426247, -0.03915676847100258, -0.016591425985097885, -0.01331581175327301, 0.0022057057358324528, -0.012104712426662445, -0.0031971752177923918, -0.03290674462914467, 0.007260317448526621, 0.01037905365228653, -0.0034638680517673492, 0.005929991602897644, 0.019515633583068848, 0.018386110663414, 0.004521226044744253, 0.00798195693641901, 0.014319831505417824, -0.018812818452715874, -0.019226977601647377, 0.004941659513860941, -0.02766074240207672, -0.00963858887553215, 0.011100692674517632, 0.021222466602921486, -0.01367976889014244, 0.020946361124515533, -0.005377780646085739, 0.009180504828691483, -0.002351602306589484, 0.0002013922348851338, 0.006695556454360485, -0.00683988444507122, 0.004449062515050173, 0.017633095383644104, -0.004706342238932848, 0.0025225994177162647, -0.012456119060516357, 0.027610542252659798, -0.02508794330060482, 0.008414939977228642, 0.027284234762191772, 0.02008039504289627, 0.039332471787929535, -0.05461867153644562, 0.02479928731918335, 0.009042452089488506, 0.010730460286140442, 0.0009797036182135344, -0.009130303747951984, -0.016654176637530327, 0.020343950018286705, 0.029618581756949425, -0.009425234980881214, 0.010987740941345692, 0.04523108899593353, -0.021749576553702354, 0.002737522590905428, 0.017030684277415276, 0.025213444605469704, 0.02628021501004696, 0.008446316234767437, 0.007643099874258041, 0.007436020765453577, -0.048393748700618744, -0.026230014860630035, 0.015913711860775948, -0.018938321620225906, 0.007574073504656553, -0.009958620183169842, -0.030873605981469154, 0.006228059530258179, 0.017859000712633133, 0.015336400829255581, -0.007084614131599665, 0.05527128651738167, 0.014583386480808258, 0.022113533690571785, 0.005688399076461792, -0.015725458040833473, -0.013629567809402943, 0.007580348756164312, 0.016240019351243973, -0.02605431154370308, 0.02663162350654602, -0.002739091170951724, -0.002720265882089734, 0.005302479024976492, -0.023745065554976463, -0.00022845370403956622, -0.016101965680718422, -0.04216882586479187, 0.001967251067981124, -0.008747521787881851, -0.021398169919848442, 0.0334087572991848, 0.004700067453086376, 0.01774604804813862, 0.008590643294155598, -0.016352970153093338, -0.008038432337343693, -0.030446898192167282, 0.009594663046300411, -0.018285708501935005, 0.008552992716431618, 0.02561505325138569, 0.009061277844011784, -0.033960968255996704, -0.00012354148202575743, -0.016942832618951797, 0.004201194737106562, -0.028288254514336586, 0.01449553482234478, 0.0223645381629467, 0.028313355520367622, -0.002080203266814351, -0.01728168874979019, 0.017545243725180626, -0.023092452436685562, 0.02655632048845291, -0.003241101047024131, -0.04289674013853073, -0.020720455795526505, -0.013491515070199966, 0.01656632497906685, 0.03692282363772392, -0.012336892075836658, 0.0197917390614748, -0.036772221326828, 0.038755159825086594, -0.015788210555911064, -0.0316266193985939, 0.003711735364049673, -0.008684770204126835, 0.06300223618745804, -0.01823550835251808, -0.0344378761947155, -0.0034858309663832188, -0.03599410504102707, 0.03870496153831482, 0.006626530084758997, -0.027786245569586754, -0.017319340258836746, -0.022464940324425697, 0.0070093125104904175, 0.03242983669042587, -0.017156187444925308, -0.0004965191474184394, 0.02422197535634041, -0.010950090363621712, -0.004458474926650524, 0.008490242063999176, 0.028890667483210564, 0.012399643659591675, 0.04317284747958183, -0.02449808083474636, 0.011772130616009235, -0.020431801676750183, -0.00876007229089737, -0.0031281488481909037, -0.006438276264816523, 0.01823550835251808, 5.034805872128345e-05, 0.03606940805912018, 0.013265610672533512, -0.027208933606743813, -0.016955383121967316, 0.009695065207779408, 0.010391604155302048, 0.008170210756361485, -0.009080103598535061, 0.03150111809372902, -0.019076375290751457, -0.020632604137063026, 0.038955964148044586, 0.016905181109905243, -0.007021863013505936, -0.015599955804646015, 0.016817329451441765, -0.019164226949214935, -0.012556521221995354, 0.01691773161292076, 0.0064320010133087635, 0.03978428244590759, -0.0020488277077674866, -0.02944287844002247, -0.0008565543103031814, -0.02648101933300495, -0.010228450410068035, 0.0001541327073937282, -0.009839393198490143, 0.038077447563409805, -0.0024723985698074102, 0.025125592947006226, -0.010171975009143353, 0.006293948739767075, -0.03534149378538132, 0.018938321620225906, -0.0076305498369038105, -0.03524109348654747, -0.01853671297430992, -0.008452590554952621, -0.009130303747951984, 0.03847905620932579, -0.01159642729908228, 0.026154713705182076, -0.003642708994448185, 0.01590116135776043, -0.0002553190861362964, 0.0056036850437521935, -0.0008102752617560327, 0.024623584002256393, 0.016465922817587852, 0.019829388707876205, -0.015348951332271099, -0.004263946320861578, 0.008841648697853088, 0.04236963018774986, 0.01662907563149929, -0.001885674544610083, 0.025589952245354652, -0.0052240402437746525, 0.01928972825407982, 0.01809745468199253, 0.013453864492475986, -0.0001724678440950811, 0.024033721536397934, 0.018863020464777946, -0.011652903631329536, -0.014671238139271736, -0.0069465613923966885, -0.04244493320584297, 0.003275614231824875, -0.0063315993174910545, -0.01367976889014244, -0.003394841682165861, -0.010165699757635593, 0.001447984715923667, -0.005616235081106424, 0.008483966812491417, -0.041466012597084045, 0.026606522500514984, -0.008954600431025028, 0.010680259205400944, -0.018348461017012596, -0.008195310831069946, 0.042344532907009125, 0.023506611585617065, 0.01905127428472042, 0.008891849778592587, -0.012744775041937828, 0.02951817959547043, -0.029769184067845345, -0.034688882529735565, 0.02605431154370308, -0.023933319374918938, 0.030522199347615242, 0.030723003670573235, 0.006576329004019499, -0.01626511849462986, -0.012236489914357662, 0.015072845853865147, -0.015123046934604645, -0.009262082166969776, -0.012205114588141441, 0.02339365892112255, -0.012725950218737125, -0.007241492159664631, 0.012355717830359936, 0.032705940306186676, 0.016001563519239426, -0.020933810621500015, 0.005766838323324919, -0.007272867951542139, 0.023305807262659073, 0.03406136855483055, -0.02936757728457451, 0.006444551516324282, -0.0069653866812586784, -0.003510931506752968, -0.0026622209697961807, -0.029417777433991432, 0.03378526493906975, -0.015060295350849628, -0.01582586020231247, 0.007605449296534061, 0.0251757949590683, 0.01367976889014244, 0.013617017306387424, -0.012744775041937828, -0.006259435322135687, -0.008979701437056065, 0.010021371766924858, -0.026430819183588028, 0.0018715554615482688, 0.015650156885385513, 0.008301988244056702, 0.0282631553709507, 0.054568469524383545, -0.008239236660301685, -0.024924788624048233, -0.00651357788592577, -0.008226686157286167, -0.01928972825407982, 0.02127266675233841, 0.009663689881563187, 0.02009294368326664, -0.007021863013505936, -0.0023735654540359974, -0.03140071779489517, -0.021297767758369446, 0.016302770003676414, -0.021686825901269913, 0.0039439150132238865, -0.01118226908147335, 0.008007057011127472, 0.019603485241532326, -0.004414549097418785, -0.001193842152133584, -0.027861546725034714, 0.004345522727817297, 0.005139325745403767, 0.020369049161672592, -0.01346641406416893, 0.006940286140888929, -0.012594171799719334, 0.0017272277036681771, -0.006482202094048262, 0.012606722302734852, 0.04287164285778999, -0.010102948173880577, 0.026305316016077995, 0.04849415272474289, -0.013002054765820503, -0.008552992716431618, -0.051606614142656326, -0.02745993807911873, 0.0070720636285841465, 0.028288254514336586, 0.012060786597430706, 0.018273157998919487, -0.005227177403867245, 0.0050075482577085495, -0.011282671242952347, 0.012807526625692844, -0.013416212983429432, -0.015599955804646015, 0.011646628379821777, -0.00046004497562535107, -0.029417777433991432, 0.003008921630680561, -0.009751541540026665, -0.04944797232747078, -0.05336364731192589, 0.011747030541300774, 0.00838356465101242, 0.027033230289816856, 0.010159424506127834, -0.00647592730820179, 0.007956855930387974, 0.0011836451012641191, -0.004568289499729872, 0.010153149254620075, 0.026004109531641006, 0.018423762172460556, -0.03473908081650734, 0.016666727140545845, -0.004144718870520592, -0.0019625448621809483, 0.027284234762191772, 0.030999109148979187, -0.008245511911809444, 0.032329436391592026, 0.005258553195744753, -0.03549209609627724, 0.001887243241071701, 0.03629531338810921, 0.0011969797778874636, -0.010699084959924221, 0.05421706289052963, 0.032630641013383865, 0.03867986053228378, -0.027485039085149765, 0.002750072628259659, -0.004471025429666042, 0.01634042151272297, 0.0007938030757941306, 0.0012707124697044492, 0.004590252414345741, -0.028664762154221535, -0.0014762227656319737, -0.004960484802722931, 0.0006957543082535267, 0.0167043786495924, -0.009632313624024391, -0.02951817959547043, 0.002735953778028488, 0.019302278757095337, -0.0036489840131253004, 0.03850415721535683, -0.018586914986371994, 0.02369486540555954, -0.0408887043595314, 0.011621528305113316, 0.008214136585593224, -0.020984012633562088, -0.011634078808128834, -0.01029747724533081, -0.021900180727243423, 0.01596391387283802, 0.005032648798078299, 0.013905673287808895, 0.01581330969929695, -0.030672801658511162, 0.0010926558170467615, -0.0043423851020634174, -0.027761144563555717, -0.013516615144908428, 0.0052428655326366425, 0.017306789755821228, -0.013993524946272373, 0.010397879406809807, 0.02200058102607727, -0.001132659730501473, 0.0034356298856437206, -0.007705851458013058, -0.00229826383292675, -0.022126084193587303, -0.00655122846364975, 0.027208933606743813, -0.015687808394432068, 0.012192564085125923, -0.012663198634982109, 0.028012149035930634, -0.0223645381629467, 0.004960484802722931, 0.011420723982155323, 0.0016629076562821865, 0.04113970696926117, 0.03217883035540581, 0.01191645860671997, 0.036973025649785995, 0.019553283229470253, 0.03627021238207817, -0.02015569619834423, -0.005230315029621124, 0.0011828606948256493, 0.014457883313298225, 0.0018464550375938416, -0.008182760328054428, -0.008270611986517906, -0.0017507593147456646, 0.0005988820921629667, 0.06209861859679222, -0.0054311188869178295, -0.006664180662482977, -0.027836445719003677, -0.003997253254055977, 0.02494988963007927, -0.007134815212339163, -0.007348169106990099, 0.008609469048678875, 0.019528184086084366, 0.0010910870041698217, 0.04693792015314102, -0.01386802177876234, -5.667220466420986e-05, 0.004245121031999588, -0.02163662388920784, 0.021209916099905968, 0.010548481717705727, 0.028790265321731567, 0.036320414394140244, -0.01832336001098156, -0.04126520827412605, 0.01936502940952778, -0.01180350687354803, -0.028313355520367622, -0.0043863109312951565, -0.010636333376169205, -0.01743229292333126, -0.0007334050023928285, -0.05983957275748253, -4.532305683824234e-05, 0.04811764508485794, 0.0578315332531929, 0.01736954040825367, 0.010347678326070309, 0.02648101933300495, 0.02016824670135975, 0.013516615144908428, -0.0007298752898350358, -0.012073337100446224, -0.016867531463503838, -0.03280634433031082, 0.01383037120103836, 0.03318285197019577, 0.019590934738516808, 0.016654176637530327, -0.019741537049412727, 0.00423257052898407, -0.01839866116642952, 0.006265710573643446, -0.023883119225502014, -0.003098342102020979, 0.00846514105796814, 0.011219920590519905, 0.02016824670135975, -0.003554857335984707, 0.021297767758369446, 0.0010730460053309798, -0.022176284343004227, 0.0003723893314599991, 0.021360518410801888, -0.02059495449066162, -0.01891322061419487, 0.014006074517965317, -0.010021371766924858, -0.02310500293970108, 0.001343660755082965, -0.023130103945732117, 0.021887630224227905, 0.006689281202852726]",ExCP: Extreme LLM Checkpoint Compression via Weight-Momentum Joint Shrinking.pdf
"3) and LLaMA (Tou-
vron et al., 2023) consume comparable or even more hard-
ware resources. Due to the huge resource consumption and
common training failures, the checkpoints of LLMs should
2
ExCP: Extreme LLM Checkpoint Compression via Weight-Momentum Joint Shrinking
Table 1. The parameter and checkpoint size of part LLMs. High-
capacity storage devices are essential for checkpoints for LLM
training process.
Model Param. Storage
GPT3 (Brown et al., 2020) 175B 2.3TB
PaLM (Chowdhery et al., 2023) 540B ∼7TB
LLaMA-70B (Touvron et al., 2023) 75B 1.0TB
PanGu- π(Wang et al.) 7B 99GB
be updated and stored frequently, which could occupy much
more resources of the communication bandwidth and stor-
age devices. Thus, the exploration of redundancy in LLM
checkpoint is meaningful and necessary, which can save the
memory consumption in great extent and make the training
procedure more efficient and more affordable.
2.2. Compression Method
Data Compression Methods. Compression methods for
efficient storage of data have been investigated for long
decades. These previous methods can be categorized into
two types, the lossy and the lossless. Lossy compression
methods like JPEG (Rao & Hwang, 1996) and MP3 (Sterne,
2012) are widely used in the compression of image and
video data which does not require precise restoration. Huff-
man coding (Huffman, 1952) is a classic lossless compres-
sion method, which statisticizes the frequency of the charac-
ters to get an optimized coding length according to different
frequency of occurrence. The lossless compression method
can be easily applied to the checkpoints of LLMs. However,
the generalizability of the data compression method deter-
mines that the compression rate would be relatively low
when applied to LLM checkpoints. Specialized compres-
sion method should be investigated and designed to achieve
a higher compression rate for heavy intrinsic redundancy of
LLM checkpoint.
Neural Network Compression Methods. The neural net-
work compression methods have been explored by many
work due to the increasing model size and computation
resources. DeepCompression (Han et al., 2015) utilizes net-
work pruning, quantization and huffman coding to obtain a
compact neural network. Llm (Dettmers et al., 2022) and
Smoothquant (Xiao et al., 2023) adopt the quantization to
compress the large language models. These network com-
pression methods could reduce the quantity or bit-width
of parameters in neural networks but are often highly re-
lated to the training targets. Thus, these methods cannot
be generally applied to compress the checkpoints with vari-
ous task background. Moreover, re-training or finetuning is
often necessary for compression methods like network prun-
ing (Liu et al., 2017) and quantization-aware training (Esser
et al., 2019), which could be extremely computationally
expensive especially for large language models with huge
training data and huge amount of network parameters.Compression methods for checkpoints. As the deep neu-
ral network model getting larger and the training cost get-
ting more expensive, some research work begin to focus
on the compression of checkpoints. LC-Checkpoint (Chen
et al., 2020) proposes a lossy compression scheme for check-
point constructions on the assumption of SGD optimizer.
Check-N-Run (Eisenman et al., 2022) applies differential
and quantization for recommendation models. Delta-DNN
(Hu et al., 2020) focuses on the storage of floating point
numbers and records the differential of two neighboring
versions. QD-Compressor (Jin et al., 2023) further develops
a layer-based quantization and achieves higher compression
ratio. When these methods applied on large-scale models
of LLM, undesirable accuracy degradation would occur
due to the uniform and constant quantization strategy dur-
ing training procedure. Recent DynaQuant (Agrawal et al.,
2023) tackles this issue by precisely compressing model pa-
rameters based on different contributions to the final result
quality with an efficient dynamic quantization configuration
and a quantization-aware delta encoding scheme. However,
most of previous work focus on the compression of model
parameters while ignoring the momentum states of opti-
mizer, which occupy more memory storage and exist more
redundancy in LLM checkpoints.
3. Our Method
