text,embedding,file
"arXiv:2406.00548v1  [cs.LG]  1 Jun 2024LIDAO: Towards Limited Interventions for Debiasing (Large ) Language
Models
Tianci Liu1Haoyu Wang1Shiyang Wang1Yu Cheng2Jing Gao1
Abstract
Warning : this paper contains model outputs ex-
hibiting offensiveness and biases.
Large language models (LLMs) have achieved
impressive performance on various natural lan-
guage generation tasks. Nonetheless, they suf-
fer from generating negative and harmful con-
tents that are biased against certain demographic
groups (e.g., female), raising severe fairness con-
cerns. As remedies, prior works intervened the
generation by removing attitude or demographic
information, inevitably degrading the generation
quality and resulting in notable fairness-ﬂuency
trade-offs. However, it is still under-explored to
what extent the ﬂuency has to be affected in or-
der to achieve a desired level of fairness. In this
work, we conduct the ﬁrst formal study from an
information-theoretic perspective. We show that
previous approaches are excessive for debiasing
and propose LIDAO, a general framework to de-
bias a (L)LM at a better ﬂuency provably. We
further robustify LIDAO in adversarial scenarios,
where a carefully-crafted prompt may stimulate
LLMs exhibiting instruction-following abilities
to generate texts with fairness issue appears only
when the prompt is also taken into account. Ex-
periments on three LMs ranging from 0.7B to
7B parameters demonstrate the superiority of our
method.
1. Introduction
Language models (LMs) parameterized by deep neu-
ral networks ( Vaswani et al. ,2017 ;Lewis et al. ,2019 ;
Radford et al. ,2019 ;Brown et al. ,2020 ) have thrived in
producing ﬂuent and meaningful texts on a variety of nat-
1Purdue University2The Chinese University of Hong Kong.
Correspondence to: Yu Cheng <chengyu@cse.cuhk.edu.hku >,
Jing Gao <jinggao@purdue.edu >.
Proceedings of the 41stInternational Conference on Machine
Learning , Vienna, Austria. PMLR 235, 2024. Copyright 2024
by the author(s).ural language generation tasks ( See et al. ,2019 ;Ji et al. ,
2023 ). Recently, researchers further applied LMs to more
diverse classiﬁcation tasks by transforming them to gen-
erative frames ( Raffel et al. ,2020 ). These successes un-
derscore the versatility of LMs, establishing them as the
foundations for different natural language processing ap-
plications ( Bommasani et al. ,2021 ;Zhou et al. ,2023 ). In
addition, with model sizes continually increasing, large
language models (LLMs) have demonstrated unprece-
dented abilities to follow natural language instructions
(Dong et al. ,2022 ;Ouyang et al. ,2022 ). These abilities
empower the zero-shot adaptation of LLMs to unseen tasks
(Kojima et al. ,2022 ), paving the way towards artiﬁcial gen-
eral intelligence ( Bubeck et al. ,2023 ).
Notwithstanding, despite their remarkable performance,
LMs suffer from the fairness issue, i.e., they may
generate negative texts that are biased against under-
represented demographic groups (e.g., female) in our
society ( Sheng et al. ,2019 ). For instance, GPT-2
(Radford et al. ,2019 ) tends to generate more negative texts
towards females ( Huang et al. ,2019 ). Such social biases,
termed as global biases (Sheng et al. ,2020 ), stem from the
real world corpora due to historical reasons ( Basta et al. ,
2019 ). Unsurprisingly, LMs reproduce or amplify the bi-
ases from the data whereon they are trained ( Gehman et al. ,
2020 ;Schick et al. ,2021 ).
As remedies, a vast amount of bias mitigation approaches
have been proposed. Early attempts of ﬁne-tuning with
clean data proved effective on small LMs ( Lu et al. ,2020 ;
Saunders & Byrne ,2020 ;Bender et al. ,2021 ). However,
they fall short on LLMs due to the prohibitive resource
requirement for clean data curation and documentation
(Schick et al. ,202","[0.01804976351559162, 0.014117133803665638, 0.04693946987390518, 0.022486576810479164, -0.0034631092566996813, 0.010449199937283993, -0.0211630966514349, 0.013991087675094604, -0.03211648017168045, 0.06937562674283981, 0.020053893327713013, -0.043183304369449615, -0.04003215581178665, 0.00691991625353694, 0.0175077673047781, -0.014318807050585747, 0.03400716558098793, -0.03549450635910034, -0.004780288320034742, 0.028385521844029427, 0.03133499622344971, 0.017923718318343163, -0.009963923133909702, 0.019196780398488045, 0.014280993491411209, -0.00207818066701293, 0.028209058567881584, 0.001580299693159759, -0.0010359392035752535, -0.026141906157135963, 0.05414929240942001, -0.025158748030662537, -0.04681342467665672, -0.013436486013233662, -0.028612405061721802, 0.035973481833934784, 0.03201564401388168, -0.015629684552550316, 0.024440286681056023, -0.007707702927291393, -0.01970096491277218, -0.05525849387049675, -0.025246981531381607, 0.004981961566954851, -0.03650287538766861, 0.08112309873104095, 0.019398454576730728, 0.011917633935809135, -0.015276755206286907, 0.006636313162744045, -0.04635965824127197, 0.013751600868999958, -0.00408703600987792, -0.030956856906414032, -0.009510158561170101, 0.01450787577778101, 0.00843246653676033, -0.007858958095312119, 0.02959556132555008, -0.028209058567881584, 0.004484080709517002, 0.019953055307269096, -0.0016007821541279554, 0.019801801070570946, -0.04988894239068031, -0.03456176817417145, -0.03665412962436676, 0.005328587722033262, -0.006812777370214462, 0.01860436610877514, 0.018932083621621132, -0.007562750019133091, 0.016940560191869736, 0.02989807166159153, -0.01503726840019226, -0.011344125494360924, 0.04209930822253227, 0.05334259942173958, 0.0005585406324826181, -0.01391546055674553, 0.02243615873157978, 0.03370465710759163, -0.01235879398882389, 0.00092486129142344, -0.047796580940485, -0.025095725432038307, 0.0010540583170950413, 0.04177159070968628, -0.058989450335502625, -0.008300118148326874, -0.038040634244680405, -0.032318152487277985, -0.05969530716538429, 0.04030945897102356, 0.06357751786708832, 0.005861131474375725, 0.023545362055301666, -0.02365880273282528, 0.07527457177639008, 0.02243615873157978, -0.008300118148326874, 0.016965769231319427, 0.03299880027770996, -0.025839395821094513, 0.0214656051248312, -0.04277995601296425, 0.00873497687280178, -0.03367944806814194, -0.029545143246650696, 0.007361076772212982, -0.020532866939902306, 0.0029526236467063427, -0.027074646204710007, -0.03446093201637268, -0.019234593957662582, -0.03799021616578102, -0.05218297615647316, 0.03899858146905899, 0.006264477968215942, -0.013499508611857891, -0.050771262496709824, -0.012957511469721794, 0.01994045078754425, -0.01194914523512125, 0.012428119778633118, -0.05677104368805885, 0.03148625046014786, -0.05339301750063896, -0.02374703623354435, -0.04673779755830765, 0.0359230637550354, 0.03093164786696434, 0.023709220811724663, -0.009554274380207062, -0.06317417323589325, 0.029545143246650696, -0.009837877936661243, 0.03983048349618912, -0.044771481305360794, -0.03269628807902336, 0.01954970881342888, -0.001198223209939897, -0.012812559492886066, 0.0234445258975029, -0.044519390910863876, -0.037738122045993805, 0.007758121006190777, 0.006478755734860897, -0.03844397887587547, 0.09513939917087555, -0.029570352286100388, -0.026444416493177414, -0.029091378673911095, 0.028486358001828194, -0.02858719602227211, -0.024578938260674477, 0.008098444901406765, 0.04855285584926605, 0.04194805398583412, -0.05903986841440201, 0.02529739961028099, 0.0341080017387867, -0.0046384865418076515, -0.025864604860544205, 0.039074208587408066, 0.019587522372603416, -0.01144496165215969, 0.003630120074376464, -0.050191450864076614, -0.07149320095777512, -0.022965550422668457, 0.020469844341278076, -0.016852328553795815, -0.03975485637784004, -0.004175268113613129, -0.003850700333714485, -0.037889380007982254, -0.04162033647298813, -0.0005100917187519372, -0.02639399841427803, -0.018314460292458534, 0.038796909153461456, -0.029519934207201004, 0.01298272144049406, -0.0651404857635498, -0.013070953078567982, 0.019259802997112274, -0.011274799704551697, -0.013209603726863861, 0.004632184281945229, -0.000744852120988071, 0.0423261933028698, 0.0916605293750763, 0.03486427664756775, 0.029721608385443687, -0.007953491993248463, 0.059745725244283676, 0.009579483419656754, -0.010959685780107975, -0.01948668621480465, 0.03723394125699997, 0.04411604255437851, -0.05069563537836075, -0.07966096699237823, 0.01695316471159458, -0.01783548668026924, 0.01896989904344082, 0.02249918133020401, -0.005921002943068743, -0.00733586773276329, 0.023583175614476204, 0.006957730278372765, 0.054905567318201065, 0.01731869764626026, 0.0036647827364504337, 0.027654455974698067, 0.002015157835558057, 0.0030503091402351856, 0.0059777237474918365, 0.03108290396630764, 0.007247635629028082, 0.02989807166159153, 0.03138541430234909, 0.005167879164218903, -0.05044354498386383, 0.0056626093573868275, 0.028209058567881584, 0.005924154072999954, -0.0016575027257204056, -0.006283384747803211, 0.06307333707809448, -0.034057583659887314, -0.0055334120988845825, -0.02204541675746441, 0.031007274985313416, -0.04709072411060333, 0.007751818746328354, 0.012686513364315033, 0.010884057730436325, -0.0280073843896389, 0.03330130875110626, -0.008974463678896427, 0.017406929284334183, -0.027503201737999916, -0.00022747334151063114, 0.024528520181775093, -0.027301527559757233, -0.03251982480287552, 0.004326523281633854, -0.004326523281633854, -0.0016338691348209977, -0.018100181594491005, -0.04356143996119499, -0.024276427924633026, -0.05223339423537254, 0.01981440559029579, -0.01716744340956211, -0.010071062482893467, 0.005104856565594673, -0.00022629166778642684, -0.041141360998153687, -0.004282407462596893, -0.015264150686562061, 0.004398999735713005, 0.01619688980281353, -0.030124954879283905, -0.02460414730012417, 0.005470389500260353, 0.008514395914971828, -0.0014463759725913405, 0.0011966476449742913, -0.009264368563890457, 0.0024011731147766113, 0.019411059096455574, -0.008533302694559097, -0.036855801939964294, 0.04247744753956795, 0.039805274456739426, -0.012390305288136005, 0.02740236558020115, -0.039074208587408066, 0.0050292289815843105, 0.060905348509550095, 0.029091378673911095, 0.0003875909314956516, -0.0018654783489182591, -0.00603444455191493, -0.03640203922986984, -0.012629793025553226, -0.023091597482562065, 0.02493186667561531, -0.024957075715065002, 0.005281320307403803, -0.024831030517816544, 0.037158314138650894, 0.014306202530860901, 0.02873845025897026, -0.008508093655109406, -0.020053893327713013, 0.009642506018280983, 0.06080451235175133, 0.005876887124031782, -0.011860913597047329, -0.02888970635831356, 0.023671407252550125, 0.019259802997112274, -0.016297725960612297, 0.013537323102355003, 0.0347130224108696, -0.005646853242069483, -0.0033118543215095997, 0.019411059096455574, -0.0026800495106726885, 0.018616970628499985, -0.02155383862555027, -0.008111049421131611, 0.024364659562706947, -0.030150163918733597, 0.012768442742526531, -0.02901575155556202, -0.06468672305345535, 0.026923390105366707, -0.010594152845442295, -0.03771291300654411, 0.017797671258449554, -0.009018579497933388, 0.03047788329422474, 0.009945016354322433, 0.007127892225980759, -0.03375507518649101, 0.0113378232344985, 0.04482189938426018, 0.016701072454452515, 0.0002442138211335987, 0.004162663593888283, -0.06403128802776337, -0.042578283697366714, 0.033629029989242554, 0.03236857056617737, 0.017306093126535416, -0.05868694186210632, 0.02219667099416256, 0.010272735729813576, 0.03251982480287552, 0.0035166789311915636, -0.03857002407312393, 0.02962077222764492, -0.004008257761597633, 0.08954296261072159, 0.052535902708768845, -0.004263500217348337, -0.03650287538766861, 0.013159185647964478, 0.019373245537281036, -0.023368898779153824, 0.034990325570106506, -0.0001806985237635672, -0.01310876663774252, 0.04013299569487572, -0.017671626061201096, -0.013133975677192211, -0.006368465721607208, 0.01677670143544674, 0.020142124965786934, 0.015226337127387524, -0.01888166554272175, 0.01310876663774252, 0.03620036318898201, 0.022902527824044228, -0.015503637492656708, 0.0269485991448164, 0.02581418678164482, -0.009655111469328403, 0.0269485991448164, -0.019398454576730728, 0.024831030517816544, 0.0155288465321064, 0.002768281614407897, 0.003286645282059908, -0.000793300976511091, -0.03342735394835472, 0.014306202530860901, 0.02234792709350586, 0.005230902228504419, -0.03504074364900589, 0.03446093201637268, -0.008848417550325394, -0.038620445877313614, -0.02652004361152649, 0.006875800434499979, -0.0023696618154644966, 0.010663477703928947, -0.013234812766313553, 0.0280073843896389, 0.018793433904647827, -0.008949254639446735, -0.03274670988321304, 0.07240072637796402, 0.057678572833538055, 0.028511568903923035, -0.010297944769263268, -0.023394107818603516, -0.024011731147766113, 0.01591958850622177, 0.012037376873195171, 0.02140258252620697, 0.04651091247797012, 0.05742648243904114, 0.03536846116185188, 0.00849548913538456, 0.02518395707011223, -0.008766488172113895, 0.015049872919917107, -0.005627946462482214, 0.015793543308973312, -0.02036900632083416, 0.025398235768079758, 0.04164554551243782, 0.015617079101502895, 0.047594908624887466, 0.022536994889378548, -0.015856565907597542, 0.00831272266805172, -0.04676300659775734, 0.01839008741080761, 0.01591958850622177, -0.04981331527233124, -0.04073801264166832, 0.00843246653676033, -0.08379527181386948, -0.0791567862033844, 0.04192284494638443, 0.042880792170763016, -0.07265281677246094, -0.0794592946767807, -0.016638049855828285, -0.018011949956417084, 0.025915022939443588, 0.0024610450491309166, -0.04237661138176918, 0.0140793202444911, 0.012056284584105015, -0.03983048349618912, 0.008180374279618263, 0.029368679970502853, 0.005665760487318039, -0.011236986145377159, 0.03650287538766861, 0.022763878107070923, -0.04469585418701172, 0.0008145712199620903, 0.005798108410090208, 0.09019839763641357, 0.02036900632083416, 0.01671367697417736, -0.03065434657037258, 0.07114026695489883, -0.031309787184000015, 0.03617515414953232, -0.01199326105415821, 0.06282124668359756, 0.01436922512948513, -0.03609952703118324, -0.010234922170639038, -0.0029872863087803125, 0.026419207453727722, 0.018869061022996902, 0.005026077851653099, -0.023419316858053207, 0.014860804192721844, -0.01649940013885498, -0.009466041810810566, 0.021566443145275116, -0.027024226263165474, -0.015818752348423004, 0.011867215856909752, 0.03065434657037258, -0.04348581284284592, -0.016726281493902206, -0.014785176143050194, 0.025221772491931915, -0.0011879820376634598, 0.05742648243904114, -0.0179615318775177, 0.039048999547958374, 0.03607431799173355, 0.027175482362508774, 0.006283384747803211, -0.01637335494160652, 0.019625335931777954, -0.019234593957662582, -0.028360312804579735, 0.04280516505241394, -0.01213191170245409, -0.016159076243638992, -0.01014038734138012, -0.012005865573883057, -0.00952906534075737, 0.013335649855434895, -0.03395674750208855, -0.010531129315495491, -0.02340671233832836, -0.018679993227124214, -0.005051286891102791, -0.006655219942331314, 0.007159403525292873, 0.0401834137737751, -0.02684776298701763, -0.009743343107402325, 0.019650544971227646, -0.015251546166837215, -0.0067371497862041, -0.005375854671001434, 0.025915022939443588, 0.014091924764215946, 0.055056821554899216, -0.028763659298419952, 0.029494725167751312, -0.00018089546938426793, 0.048880573362112045, 0.04590589180588722, 0.006295989267528057, -0.015818752348423004, -0.0055649238638579845, 0.010758012533187866, -0.038343142718076706, -0.022763878107070923, -0.05485514923930168, -0.015301964245736599, -0.005615341942757368, 0.050796471536159515, 0.02155383862555027, -0.00963620375841856, 0.006812777370214462, -0.056065186858177185, -0.0359230637550354, 0.0010485438397154212, -0.023923499509692192, -0.05036791414022446, -0.007310658693313599, -0.005643702112138271, 0.023583175614476204, 0.01641116850078106, 0.018352273851633072, 0.00527501804754138, -0.02258741296827793, 0.021881558001041412, 0.0007653345819562674, 0.013083557598292828, 0.018869061022996902, 0.036275990307331085, -0.035393670201301575, 0.0024972830433398485, -0.013033139519393444, 0.004877973813563585, -0.0013573560863733292, 0.0060691069811582565, -0.01948668621480465, -0.004748777020722628, 0.0031133322045207024, 0.03264587000012398, -0.027604037895798683, 0.02067151665687561, 0.007071171421557665, -0.02140258252620697, -0.03327609971165657, -0.019587522372603416, -0.02258741296827793, 0.029797235503792763, 0.018894270062446594, -0.04923350363969803, -0.015264150686562061, 0.044494181871414185, -0.0012289468431845307, -0.00015706493286415935, -0.001083994167856872, 0.03297359123826027, -0.01140084583312273, 0.005779201630502939, 0.002357057062909007, -0.02486884407699108, -0.03224252536892891, -0.004742474760860205, -0.02058328501880169, -0.028536777943372726, 0.007985003292560577, 0.004143756814301014, 0.004616428632289171, -0.039326298981904984, 0.007033357862383127, 0.039931319653987885, -0.022322718054056168, -0.013386067934334278, -0.016184285283088684, -0.007751818746328354, -0.0028785718604922295, 0.026595670729875565, -0.004692056216299534, -0.021894162520766258, -0.024339450523257256, 0.020633703097701073, -0.005416819825768471, -0.029242634773254395, 0.015213732607662678, 0.02256220392882824, 0.01789850927889347, -0.02213364839553833, 0.017520371824502945, 0.010619361884891987, -0.024490706622600555, -0.02624274231493473, 0.019864823669195175, 0.012535258196294308, -0.021200910210609436, -0.02110007219016552, -0.005955665837973356, 0.02523437701165676, -0.03178875893354416, 0.04167075455188751, -0.0269485991448164, -0.004080733750015497, -0.04459501802921295, -0.029419098049402237, -0.010014341212809086, 0.01860436610877514, -0.022511785849928856, -0.03383070230484009, -0.022121043875813484, 0.004121698904782534, -0.01420536544173956, -0.05833401158452034, -0.021263932809233665, 0.029822444543242455, -0.018011949956417084, 0.0031810817308723927, -0.004150059074163437, -0.013902856037020683, -0.00618885038420558, -0.01318439468741417, -0.05147711932659149, 0.0052970764227211475, 0.010430293157696724, 0.019171571359038353, -0.03723394125699997, -0.002963652601465583, -0.01683972403407097, -0.014280993491411209, -0.021415187045931816, -0.007720307447016239, -0.010928173549473286, -0.020419426262378693, -0.027654455974698067, 0.02174290642142296, 0.0161338672041893, 0.04608235880732536, 0.008596326224505901, 0.009970225393772125, 0.00940932147204876, 0.018213624134659767, 0.008671953342854977, -0.05112419277429581, 0.011728565208613873, -0.017646417021751404, 0.012005865573883057, 0.01862957514822483, 0.04729239642620087, 0.007184612564742565, 0.003560794750228524, -0.005861131474375725, 0.008684557862579823, -0.0074682156555354595, -0.000633380317594856, 0.03720873221755028, 0.004027164541184902, -0.022423554211854935, -0.0021553838159888983, 0.007361076772212982, -0.03090643882751465, 0.0037498637102544308, -0.00240905093960464, -0.03473823145031929, 0.006548081059008837, -0.031889595091342926, -0.031738340854644775, -0.010783221572637558, -0.013222208246588707, 0.03955318406224251, 0.017180047929286957, -0.01783548668026924, -0.019411059096455574, 0.005114309955388308, -0.015982611104846, -0.02520916797220707, -0.03342735394835472, 0.003976745996624231, 0.023116806522011757, -0.026469625532627106, 0.05039312690496445, -0.004206779878586531, -0.05949363484978676, -0.031032484024763107, 0.04825034737586975, -0.002555579412728548, 0.02934347093105316, 0.0029006297700107098, -0.01695316471159458, -0.014633921906352043, 0.0041343034245073795, 0.0243520550429821, -0.01304574403911829, -0.017406929284334183, 0.01815059967339039, -0.008192979730665684, 0.021326955407857895, -0.0004892154247500002, -0.047872208058834076, 0.033502984791994095, 0.001420379034243524, 0.008136258460581303, -0.02103704959154129, -0.06357751786708832, -0.002938443562015891, -0.01723046600818634, -0.017041396349668503, -0.026999017223715782, -0.0013731118524447083, -0.011564705520868301, 0.02594023384153843, 0.009642506018280983, -0.014759967103600502, -0.001558241667225957, 0.024011731147766113, 0.03229294344782829, -0.01286297757178545, -0.02514614351093769, 0.030124954879283905, -0.028940124437212944, -0.012900791130959988, -0.0007342169992625713, 0.019436268135905266, -0.0029463213868439198, 0.0016275668749585748, 0.004755079280585051, 0.0232932697981596, -0.00455025490373373, -0.004380092956125736, 0.03176354989409447, 0.04608235880732536, -0.0027541015297174454, -0.023179829120635986, -0.042452238500118256, 0.0107328025624156, 0.00691991625353694, -0.0003029039071407169, 0.01862957514822483, -0.02170509286224842, 0.015049872919917107, -0.007524936459958553, -0.024188196286559105, -0.02137737348675728, 0.01710442081093788, 0.003560794750228524, -0.02314201556146145, 0.003765619359910488, -0.0013675973750650883, -0.004052373580634594, -0.04746886342763901, 0.00044943217653781176, 0.01554145198315382, -0.010745407082140446, -0.03574660047888756, -0.03264587000012398, 0.042275771498680115, -0.0027651304844766855, 0.024074753746390343, -0.027150273323059082, 0.04635965824127197, 0.00014564202865585685, 0.015012059360742569, 0.006043897941708565, 0.013688577339053154, 0.0029478969518095255, 0.013587741181254387, -0.04603194072842598, 0.007172008045017719, -0.011426054872572422, -0.04620840400457382, -5.558818156714551e-05, 0.006579592823982239, -0.020406821742653847, -0.025700746104121208, 0.02304117940366268, 0.009699227288365364, 0.0018985654460266232, -0.015717916190624237, 0.021087467670440674, -0.0045849173329770565, -0.08293815702199936, -0.018856456503272057, 0.05903986841440201, 0.00857111718505621, 0.011533194221556187, -0.0018623272189870477, 0.020331192761659622, 0.017923718318343163, -0.016058240085840225, -0.026646088808774948, 0.024894053116440773, -0.052535902708768845, -0.019285012036561966, 0.016549818217754364, 0.015150709077715874, -0.07376202195882797, -0.03133499622344971, -0.03299880027770996, 0.06710680574178696, 0.003418993204832077, -0.025562096387147903, 0.007178310304880142, -0.04310767725110054, 0.03370465710759163, 0.006141583435237408, -0.0058233174495399, 0.0073295654729008675, 0.03279712796211243, -0.01085254643112421, -0.0014692217810079455, -0.008640442043542862, -0.010102573782205582, -0.015995217487215996, 0.001706345472484827, -0.018011949956417084, -0.009680320508778095, -0.00957318115979433, -0.028688032180070877, -0.0490066222846508, 0.013814623467624187, -0.03315005451440811, 0.0028580892831087112, 0.02191937156021595, -0.022902527824044228, -0.003212593263015151, -0.01866738870739937, 0.030553510412573814, 0.000935890304390341, 0.007669888902455568, -0.029066169634461403, -0.004770834930241108, 0.025259586051106453, 0.009762249886989594, 0.005419970955699682, -0.015730520710349083, -0.031158531084656715, 0.022902527824044228, 0.002932141302153468, 0.01479778066277504, 0.043032050132751465, -0.010739104822278023, 0.026419207453727722, -0.017180047929286957, 0.0020498204976320267, -0.028335103765130043, -0.0017788218101486564, -0.027175482362508774, 0.06266999244689941, -0.04517482593655586, -0.03390632942318916, -0.01263609528541565, 0.016159076243638992, 0.002698956523090601, 0.038191888481378555, 0.021843742579221725, -0.0033654237631708384, 0.031713131815195084, 0.057678572833538055, -0.0067812660709023476, 0.04204889014363289, 0.026494834572076797, -0.031738340854644775, -0.03201564401388168, 0.014495271258056164, 0.024957075715065002, 0.04061196744441986, 0.02447810210287571, 0.013323044404387474, -0.022751273587346077, 0.061207856982946396, 0.047569699585437775, -0.00910050980746746, 0.00355134136043489, -0.004496685229241848, 0.012138213962316513, -0.01723046600818634, -0.0007255513337440789, 0.030251000076532364, 0.002071878407150507, -0.00957318115979433, 0.0017614905955269933, -0.0006558322347700596, -0.07537540793418884, -0.041116151958703995, 0.019171571359038353, 0.017848091199994087, 0.01377680990844965, -0.02946951612830162, 0.00777072599157691, -0.009113114327192307, 0.004915787372738123, 0.04162033647298813, -0.025284795090556145, 0.025738559663295746, 0.002267249394208193, 0.030301418155431747, 0.012119307182729244, 0.027906548231840134, 0.026444416493177414, 0.029696399345993996, -0.0002902993292082101, 0.02684776298701763, -0.0365280844271183, -0.026570461690425873, -0.01589437946677208, -0.013335649855434895, 0.014280993491411209, 0.024793215095996857, -0.006617406383156776, -0.0028281535487622023, 0.03667933866381645, -0.0010887208627536893, 0.03078039363026619, -0.013423881493508816, -0.025524280965328217, 0.03153666853904724, -0.0018008798360824585, 0.02770487405359745, -0.01954970881342888, 0.04159512743353844, 0.00812995620071888, -0.013675972819328308, 0.012440724298357964, -0.019158966839313507, 0.011860913597047329, -0.0038317933212965727, 0.016814514994621277, -0.08293815702199936, -0.01467173546552658, 0.01076431479305029, 0.017797671258449554, -0.00276355491951108, 0.006529174279421568, 0.028990542516112328, 0.013096162118017673, -0.01890687458217144, 0.0008594750543124974, -0.01899510808289051, 0.010745407082140446, 0.02654525265097618, 0.013146581128239632, 0.01884385198354721, -0.030956856906414032, 0.010568942874670029, 0.03206606209278107, -0.014054110273718834, -0.0026737472508102655, -0.027225900441408157, -0.019398454576730728, -0.008010213263332844, -0.03826751559972763, -0.043914370238780975, 0.03007453680038452, 0.02438986860215664, 0.000953221635427326, 0.019801801070570946, -0.015377592295408249, 0.006204606033861637, 0.010008038952946663, -0.001267548417672515, 0.0023428769782185555, 0.014898617751896381, -0.03985569253563881, -0.01637335494160652, 0.005634248722344637, -0.002007280010730028, 0.014659130945801735, -0.023129411041736603, -0.026746926829218864, 0.007858958095312119, 0.009869389235973358, 0.020923608914017677, 0.010089969262480736, 0.03521720692515373, 0.004515592008829117, -0.03983048349618912, 0.028234267607331276, 0.04502357169985771, -0.020016077905893326, -0.03617515414953232, -0.11001280695199966, 0.05677104368805885, -0.014696944504976273, -0.00022254967188928276, -0.023028574883937836, 0.00820558425039053, 0.010631966404616833, 0.015491032972931862, -0.008382048457860947, 0.023784849792718887, -0.03829272463917732, 0.017066605389118195, -0.05409887433052063, 0.021667279303073883, 0.023217642679810524, 0.005650004372000694, 0.017217861488461494, -0.009900900535285473, -0.04459501802921295, -0.037586867809295654, -0.018503528088331223, -0.0011517438106238842, 0.008426164276897907, 0.06549341976642609, -0.03869607299566269, 0.005454633384943008, 0.003932630177587271, -0.013297835364937782, -0.0007472154684364796, -0.0019994021859019995, 0.008363140746951103, -3.126527735730633e-05, 0.012024772353470325, 0.002391719724982977, -0.006223513279110193, -0.013991087675094604, -0.01783548668026924, -0.01912115328013897, -0.01170335616916418, 0.002100238809362054, 0.05243506655097008, -0.0083694439381361, -0.016751492395997047, -0.026066279038786888, -0.016234703361988068, 0.006894707214087248, 0.030251000076532364, 0.0031243611592799425, -0.007096380461007357, -0.011268497444689274, 0.012623490765690804, 0.0057098763063549995, 0.0015220034401863813, -0.02654525265097618, 0.04368748515844345, -0.0008823208627291024, 0.015654893592000008, 0.012598281726241112, 0.037738122045993805, 0.02551167644560337, -0.034965116530656815, 0.04280516505241394, 0.0004884276422671974, -0.0062455711886286736, -0.016423773020505905, -0.004575463943183422, -0.00891774334013462, 0.013802018947899342, 0.033780284225940704, -0.024515915662050247, -0.02496968023478985, 0.013449090532958508, 0.005338041111826897, 0.02365880273282528, -0.005605888552963734, 0.01560447458177805, 0.007537540979683399, -0.007909376174211502, 0.0037372589576989412, 0.0006735574570484459, -0.02712506428360939, -0.00838835071772337, -0.025473862886428833, 0.005924154072999954, -0.008823208510875702, -0.020255565643310547, -0.017003582790493965, -0.0105059202760458, 0.04030945897102356, 0.006201454903930426, 0.0008445070707239211, 0.0554097481071949, -0.008545907214283943, 0.023305874317884445, -0.01576833426952362, -0.007178310304880142, 0.015843961387872696, -0.008199281990528107, 0.0007468215771950781, 0.006573290564119816, -0.00038207645411603153, 0.02249918133020401, 0.022473972290754318, -0.0013762629823759198, -0.012100400403141975, 0.011974354274570942, -0.0034883185289800167, -0.022751273587346077, -0.009384112432599068, 0.003108605509623885, -0.02396131306886673, -0.0036080621648579836, 0.03050309233367443, -0.024730192497372627, -0.0028580892831087112, -0.027049437165260315, -0.0410909429192543, -0.035998690873384476, 0.018037158995866776, -0.02036900632083416, 0.02398652210831642, 0.005010322201997042, 0.012491142377257347, -0.015478428453207016, -0.011589914560317993, -0.007802237290889025, 0.00557752838358283, 0.011640332639217377, 0.011476472951471806, 0.005293925292789936, 0.03998173773288727, 0.013890251517295837, -0.005013473331928253, -0.005949363578110933, -0.011665541678667068, -0.012440724298357964, -0.018579157069325447, -0.014331411570310593, 0.0019017165759578347, -0.006592197343707085, 0.0325702428817749, 0.002156959380954504, 0.006415733136236668, -0.004175268113613129, -0.002613875549286604, -0.0020576983224600554, -0.006585895083844662, -0.008690860122442245, 0.007953491993248463, -0.005873735994100571, 0.06680428981781006, -0.0508468896150589, -0.028536777943372726, 0.011363032273948193, -0.027654455974698067, 0.02785613015294075, -0.01607084460556507, -0.007783330511301756, -0.03940192982554436, 0.004981961566954851, -0.014583502896130085, 0.016423773020505905, -0.023066388443112373, -0.006179396994411945, 0.00784005131572485, -0.007833749055862427, -0.000821661320514977, 0.006686731707304716, 0.017558185383677483, 0.008697162382304668, 0.014180156402289867, 0.014709549024701118, -0.008501791395246983, -0.017671626061201096, -0.004619579762220383, 0.017369115725159645, 0.0025083122309297323, 0.0026107244193553925, 0.02441507764160633, 0.022902527824044228, 0.004083884879946709, 0.011734867468476295, -0.04704030603170395, -0.009516460821032524, -0.034511350095272064, 0.031965222209692, -0.004994566086679697, 0.026293162256479263, -0.008810603991150856, -0.0178102757781744, 0.015755729749798775, -0.00012732598406728357, -0.007455611135810614, -0.014255784451961517, -0.004146907944232225, 0.0280073843896389, -0.024011731147766113, -0.0021774417255073786, -0.004115396644920111, -0.009913505055010319, -0.004780288320034742, -0.01600782200694084, 0.026066279038786888, -0.012289469130337238, -0.01109833549708128, -0.03020058199763298, 0.0202429611235857, 0.03582222759723663, -0.01085254643112421, 0.03395674750208855, 0.0018402691930532455, 0.036124736070632935, -0.037914589047431946, 0.0010406658984720707, 0.02841073088347912, -0.04189763590693474, -0.013083557598292828, 0.028612405061721802, 0.0036773872561752796, 0.03660371154546738, -0.030301418155431747, -0.006579592823982239, 0.021579047664999962, 0.004789741709828377, 0.0016417469596490264, 0.00497881043702364, -0.007033357862383127, -0.02548646740615368, 0.04734281450510025, 0.0280073843896389, -0.019158966839313507, 0.016335539519786835, 0.006365314591675997, -0.014886013232171535, -0.012881884351372719, 0.0012699117651209235, 0.0026816250756382942, -0.02353275753557682, -0.027956966310739517, 0.01436922512948513, -0.008237095549702644, 0.026872972026467323, 0.02594023384153843, 0.03483906760811806, -0.019827010110020638, -0.008111049421131611, -0.023129411041736603, 0.015062477439641953, 0.015440614894032478, -0.0028391825035214424, -0.0014085621805861592, -0.016877537593245506, -0.015818752348423004, -0.019864823669195175, -0.02636878937482834, -0.010827337391674519, -0.05727522820234299, 0.006875800434499979, -0.00564055098220706, 0.015591870062053204, 0.006119525525718927, -0.017545580863952637, 0.009535367600619793, -0.008924045599997044, -0.015869170427322388, 0.01826404221355915, 0.012144516222178936, 0.00922655500471592, 0.023305874317884445, -0.028536777943372726, 0.011709658429026604, 0.02183113805949688, 0.03874649107456207, 0.01245332881808281, -0.019751382991671562, -0.01695316471159458, -0.006976637057960033, 0.004024013411253691, -0.008413559757173061, -0.012043680064380169, -0.019650544971227646, -0.007449308875948191, 0.008804301731288433, 0.012283166870474815, -0.010758012533187866, 0.012276864610612392, 0.004496685229241848, -0.03756165876984596, -0.013978483155369759, -0.03254503384232521, 0.019158966839313507, 0.023205038160085678, 0.010241224430501461, 0.03390632942318916, -0.003863304853439331, -0.019990868866443634, 0.021478209644556046, -0.0038948163855820894, -0.002237313659861684, 0.00655438331887126, 0.0001124565169448033, 0.018289251253008842, -0.017520371824502945, 0.01190502941608429, -0.00026292374241165817, 0.04835118353366852, -0.026343580335378647, -0.006945125758647919, 0.009352601133286953, -0.0012139789760112762, -0.01778506673872471, 0.0048527647741138935, -0.022234484553337097, 0.0214656051248312, 0.04923350363969803, -0.02636878937482834, -0.008987068198621273, 0.017091814428567886, -0.007871562615036964, 0.04028424993157387, -0.03519199788570404, -0.012409212067723274, 0.0058926427736878395, 0.006195152644068003, -0.0025303701404482126, -0.02155383862555027, 0.005999781657010317, 0.0016228401800617576, 0.023633593693375587, 0.01628512144088745, -0.02314201556146145, -0.01610865816473961, 0.022814296185970306, -0.027351945638656616, -0.05011582374572754, 0.004802346229553223, 0.002985710743814707, 0.024768006056547165, 0.00784005131572485, -0.020810168236494064, 0.01649940013885498, -0.008274909108877182, -0.007203519344329834, -0.009661413729190826, 0.007846353575587273, 0.02222188003361225, 0.020709330216050148, -0.008671953342854977, 0.03254503384232521, 0.010310549288988113, -0.002413777867332101, -0.017860695719718933, 0.013612950220704079, 0.021541234105825424, -0.013764205388724804, 0.004975659307092428, -0.005523958709090948, 0.00044825050281360745, 0.002138052601367235, -0.0086782556027174, 0.001952134887687862, -0.017911113798618317, 0.02310420200228691, 0.02578897774219513, 0.005227751098573208, -0.010638268664479256, -0.0025634572375565767, 0.0035860040225088596, -0.04620840400457382, -0.01823883317410946, 0.016234703361988068, 0.006444093305617571, -0.0033906330354511738, 0.019007712602615356, -0.023129411041736603, 0.02432684600353241, -0.0095920879393816, 0.007846353575587273, 0.00069364596856758, 0.03491469472646713, 0.010959685780107975, 0.014633921906352043, 0.004616428632289171, 0.01194914523512125, -0.011577310040593147, 0.009547972120344639, 0.018440505489706993, -0.020936213433742523, 0.0018796585500240326, 0.019083339720964432, 0.002927414607256651, 0.0334777757525444, 0.007430402096360922, -0.0043391278013587, -0.02727631852030754, 0.06186329573392868, 0.019751382991671562, 0.04106573387980461, -0.006355861201882362, 0.028536777943372726, 0.027351945638656616, -0.015944797545671463, 0.016423773020505905, -0.019221989437937737, 0.02073453925549984, -0.02231011353433132, -0.031183740124106407, -0.00861523300409317, -0.010638268664479256, 0.012844070792198181, -0.026192324236035347, -0.007127892225980759, -0.0034505047369748354, 0.015667498111724854, -0.02977202646434307, 0.022789087146520615, 0.011293706484138966, -0.0018906875047832727, 0.0005219085142016411, 0.0010146689601242542, 0.005785503890365362, 0.0003141298657283187, 0.0018245134269818664, -0.02456633374094963, 0.014243179000914097, 0.02611669711768627, 0.019348036497831345, -0.02624274231493473, 0.011589914560317993, -0.012970116920769215, 0.006774963811039925, 0.02423861436545849, -0.02368401177227497, -0.004786590579897165, 0.012554164975881577, 0.00630859425291419, -0.030276209115982056, -0.016020426526665688, 0.005048135761171579, 0.015138104557991028, -0.0058390735648572445, 0.006368465721607208, 0.029141796752810478, -0.011589914560317993, 0.015692707151174545, 0.024339450523257256, -0.004805497359484434, 0.01103531289845705, -0.024036940187215805, 0.01881864294409752, -0.029948489740490913, -0.028814077377319336, 0.025776373222470284, 0.03529283404350281, 0.002253069309517741, 0.028108220547437668, -0.0015306691639125347, 0.034360095858573914, -0.004124850034713745, 0.03315005451440811, -0.02904096059501171, 0.012604583986103535, -0.018503528088331223, 0.024553729221224785, 0.010152991861104965, 0.01188612263649702, -0.012062586843967438, -0.005073344800621271, -0.008514395914971828, 0.0009697651257738471, -0.0202429611235857, 0.01091556902974844, -0.0184152964502573, 0.0006318047526292503, 0.051527537405490875, -0.01808757707476616, -0.026923390105366707, -0.00024185044458135962, 0.039931319653987885, -0.002624904504045844, 0.02931826189160347, -0.011791587807238102, 0.03294838219881058, 0.026872972026467323, -0.02210843935608864, -0.0004072856099810451, -0.0003903481992892921, 0.0044935340993106365, 0.018856456503272057, -0.0008665650966577232, -0.03604910895228386, 0.01310876663774252, -0.018074972555041313, 0.011564705520868301, 0.0008295391453430057, 0.006529174279421568, -0.006882102694362402, 0.03549450635910034, -0.015112895518541336, 0.007619470823556185, 0.03546929731965065, 0.03151145949959755, 0.010064760223031044, 0.006431488785892725, 0.006522872019559145, 0.016549818217754364, 0.023003365844488144, -0.032923173159360886, -0.03574660047888756, -0.028763659298419952, -0.02581418678164482, -0.012119307182729244, 0.03902379050850868, 0.038670863956213, 0.04015820473432541, 0.04673779755830765, -0.00934629887342453, -0.003047158010303974, -0.02060849405825138, -0.009138323366641998, -0.007903073914349079, 0.026293162256479263, 0.016020426526665688, 0.005397913046181202, -0.01254156045615673, 0.008961859159171581, -0.0008571117068640888, -0.016600236296653748, 0.013953274115920067, -0.03925067186355591, 0.026898181065917015, -0.02478061057627201, 0.01851613260805607, -0.020293379202485085, 0.01517591904848814, 0.02783092111349106, 0.01517591904848814, 0.0017677928553894162, 4.017711034975946e-05]",LIDAO: Towards Limited Interventions for Debiasing (Large) Language Models.pdf
"1 ). Recently, the lightweight decoding-
time intervention paradigm, which directly modiﬁes the
text generation process in a LM, showed promising results
and attracted great attention ( Liu et al. ,2021 ;Yang et al. ,
2023 ). Conceptually, these interventions imposed certain
constraints to the generation process. For instance, in or-
der to debias sentiment on different demographic groups,
Sheng et al. (2020 ) steered the LM to generate positive
texts in all cases. Similarly, Liang et al. (2021 ) sought
to remove gender information during the text generation
to avoid gender bias. Constraints as such, which we
1
LIDAO: Towards Limited Interventions for Debiasing (Large ) Language Models
dub constant constraints , hinder the LMs from generat-
ing sentiment- or gender-speciﬁc texts, inevitably result ing
in degradation on the generation quality ( Liu et al. ,2021 ;
Fatemi et al. ,2023 ).
Fairness-ﬂuency trade-off refers to this phenomenon of
increasing fairness at the cost of ﬂuency, and has been
widely observed in the literature ( Liang et al. ,2021 ). Not-
ing this potential drawback, ﬂuency plays a pivotal role in
evaluating the practicability of different debiasing meth ods
(Yang et al. ,2023 ;Wang et al. ,2023b ). However, no for-
mal studies has been conducted on to what extent the ﬂu-
ency has to be affected in order to achieve a desired level
of fairness, and it is still an open question whether exist-
ing methods can achieve the Pareto optimality, in the sense
that no ﬂuency improvement can be made without sacriﬁc-
ing the fairness.
In this paper, we take the ﬁrst step and provide a negative
answer through an information-theoretic analysis on miti-
gating the (global) bias in LMs. In particular, we quantify
the bias in text generation with mutual information (MI) be-
tween some global property anddemographic group . Here
a global property can be any characteristic that may raise
fairness concern such as sentiment (Huang et al. ,2019 ) or
regard (Sheng et al. ,2019 ). Built upon this formulation,
we theoretically show that the constant constraints in ex-
isting approaches are in fact excessive and can be weak-
ened. Particularly, we formalize this intuition: Instead of
intervening the generation of every word in a text, only
words that may raise fairness issues need care. Steered
by the theoretical analysis, we propose a principled frame-
work named LIDAO for bias mitigation with limited inter-
ventions. To be speciﬁc, in LIDAO, a word is allowed to
be relevant with the (global) property or the demographic
group, so long as it is independent with the other. Through
this relaxation, LMs are allowed to generate property- or
demographic group-speciﬁc content, thereby being able to
produce more coherent and ﬂuent texts. To our best knowl-
edge, we provide the ﬁrst formal study on debiasing LMs
targetting at better fairness-ﬂuency trade-offs. Sec2de-
tails these results.
The proposed LIDAO provably removes any bias in the
generated text. However, for LLMs that exhibit strong
instruction-following (IF) abilities ( Ouyang et al. ,2022 ), a
carefully-crafted adversarial prompt may instruct or stim u-
late them to generate a short text where the fairness issue
appears only if the context from the prompt is taken into ac-
count. As such, LIDAO may fall short to apply due to the
absence of, for instance, the mention of any demographic
group in the generation. To enhance the applicability of LI-
DAO in this adversarial scenario, we extend the bias formu-
lation and bound it by two parts: a generation bias solvable
with LIDAO, and the extent to which one can infer the de-mographic group from the generation alone without seeing
the prompts. We propose a heuristic to minimize the sec-
ond component by utilizing a LM’s IF ability as well. This
design makes our solution highly lightweight and effective .
Sec3discusses this extension in details.
Experimental results in Sec 4demonstrate the efﬁcacy of
our method in achieving better fairness-ﬂuency trade-offs
when debiasing small and large LMs on three representa-
tive tasks.","[0.042425282299518585, 0.01939936727285385, 0.012119605205953121, 0.03855874389410019, 0.006146466359496117, 0.004623182583600283, -0.03250560536980629, 0.012939577922224998, -0.025505835190415382, 0.052744947373867035, 0.03775876760482788, -0.01758609339594841, -0.03538551181554794, 0.0032248948700726032, 0.0038565408904105425, -0.008939708583056927, 0.03095899149775505, -0.018319401890039444, -0.010326329618692398, 0.021279307082295418, 0.04309192672371864, 0.02733244188129902, 0.003969870507717133, 0.044105228036642075, -0.006859776563942432, -0.024119213223457336, 0.040878668427467346, 0.0007378925802186131, -0.002614914672449231, -0.050265029072761536, 0.061437997967004776, -0.024372538551688194, -0.050265029072761536, -0.028825726360082626, 0.00840639229863882, 0.03970537334680557, 0.013879547826945782, -0.012672919780015945, 0.04114532470703125, -0.02749243751168251, -0.019226040691137314, -0.06367792189121246, -0.013879547826945782, -0.005843142978847027, -0.035678837448358536, 0.07989072799682617, 0.049278393387794495, 0.02757243439555168, -0.003181562991812825, -0.002858240157365799, -0.039865367114543915, 0.01983935385942459, 0.009046372026205063, -0.008019738830626011, -0.001104963943362236, 0.02306591533124447, 0.005119833163917065, 0.0019432699773460627, 0.034798864275217056, -0.022439267486333847, 0.004019869025796652, 0.032078955322504044, 0.017652757465839386, 0.010659652762115002, -0.03277226537466049, -0.010199667885899544, -0.03925205394625664, 0.024612531065940857, -0.0059698051773011684, 0.025879155844449997, 0.023825889453291893, 0.02746577188372612, 0.02757243439555168, 0.008886377327144146, -0.04034535214304924, -0.012212934903800488, 0.02749243751168251, 0.014852848835289478, -0.010599654167890549, -0.01841273345053196, 0.033892229199409485, 0.038985393941402435, -0.0047131795436143875, 0.005249829031527042, -0.054371561855077744, -0.04437188804149628, -0.024625863879919052, 0.03957204148173332, -0.06474455446004868, -0.007193098776042461, -0.04890507087111473, -0.03255893662571907, -0.059731386601924896, 0.044211890548467636, 0.05045168846845627, -0.01813274249434471, 0.02146596647799015, -0.018559394404292107, 0.05087834224104881, 0.004573184065520763, 0.02025267295539379, 0.002858240157365799, 0.0349588617682457, -0.009553021751344204, 0.0431985929608345, -0.025172512978315353, -0.0015799484681338072, -0.014892848208546638, -0.044238556176424026, 0.022905919700860977, -0.022572597488760948, -0.032905593514442444, -0.024425869807600975, -0.007753080688416958, 0.013919546268880367, -0.031972289085388184, -0.045038532465696335, 0.043758574873209, 0.0012824581936001778, -0.027599100023508072, -0.05157165229320526, -0.022065946832299232, 0.009306362830102444, 0.012159603647887707, -0.004186530131846666, -0.05239829048514366, 0.02715911529958248, -0.07114434987306595, -0.025385839864611626, -0.04098533093929291, 0.03287892788648605, 0.030692333355545998, 0.02749243751168251, -0.0014941178960725665, -0.06341126561164856, 0.012846248224377632, -0.005203163716942072, 0.03693212941288948, -0.034798864275217056, -0.044211890548467636, 0.001539949793368578, -0.010946310125291348, 0.02097264863550663, 0.015119506977498531, -0.034772198647260666, -0.042585279792547226, 0.022905919700860977, 0.0058131436817348, -0.022199276834726334, 0.08730381727218628, -0.019906017929315567, -0.044958535581827164, -0.050931673496961594, 0.01885271817445755, -0.014106206595897675, -0.01898604817688465, 0.009433025494217873, 0.016972780227661133, 0.03253227099776268, -0.033998891711235046, 0.021239306777715683, 0.007006438449025154, 0.0029515703208744526, -0.04546518251299858, 0.03655880689620972, 0.000530816032551229, -0.011079639196395874, 0.0026899122167378664, -0.05605150759220123, -0.04869174584746361, -0.019439365714788437, -0.007506421767175198, -0.04282527044415474, -0.04450521618127823, -0.005366491619497538, 0.006336459890007973, -0.02050599828362465, -0.035625506192445755, 0.040718670934438705, -0.007326427847146988, -0.009153034538030624, 0.034692201763391495, 0.000595813908148557, 0.02402588352560997, -0.05487821251153946, -0.02402588352560997, 0.03085232712328434, -0.014679521322250366, -0.0012649587588384748, 0.010686318390071392, -0.011492958292365074, 0.03957204148173332, 0.06362459063529968, 0.007946407422423363, 0.02743910625576973, -0.011906278319656849, 0.07711748778820038, 0.011206300929188728, -0.0010724649764597416, -0.03170563280582428, 0.04229195415973663, 0.03189229220151901, -0.01506617572158575, -0.05557152256369591, 0.021185975521802902, 0.005963138770312071, 0.012839581817388535, -0.010206334292888641, 0.006959773134440184, -0.002684912411496043, 0.01838606782257557, -0.017079442739486694, 0.049278393387794495, 0.011079639196395874, -0.001783275161869824, 0.015212837606668472, -0.0017516096122562885, 0.012219601310789585, 0.0013232901692390442, 0.06431790441274643, 0.011379629373550415, 0.004709846340119839, 0.024119213223457336, -0.006359792780131102, -0.03685213252902031, 0.009333029389381409, 0.003566550323739648, -0.013219568878412247, -0.01973268948495388, -0.023292573168873787, 0.08122401684522629, -0.028532402589917183, -0.016026144847273827, 0.001530783367343247, 0.039038728922605515, -0.03882540017366409, -0.0010208000894635916, -0.01590614765882492, 0.023052582517266273, -0.03266560286283493, 0.012819581665098667, 0.012066273018717766, 0.02011934481561184, -0.04471854120492935, -0.00902637280523777, 0.008153067901730537, -0.03202562406659126, -0.03922538831830025, 0.007173099555075169, -0.017439430579543114, 0.009626353159546852, -0.031065654009580612, -0.04637182131409645, -0.046771809458732605, -0.06341126561164856, 0.002819908084347844, -0.005103167146444321, 0.01675945334136486, 0.04391856864094734, 0.020839320495724678, -0.056158170104026794, -0.01983935385942459, -0.008226398378610611, -0.00016645291179884225, 0.025639163330197334, -0.01975935511291027, -0.0017982746940106153, 0.009719682857394218, 0.007099768612533808, 0.0016474463045597076, -0.04002536088228226, 0.0022699260152876377, -0.002101598074659705, 0.018186073750257492, -0.009066371247172356, -0.023879220709204674, 0.032958924770355225, 0.03925205394625664, -0.027599100023508072, 0.0357854999601841, -0.029332377016544342, -0.00039707039832137525, 0.0756775289773941, 0.016332801431417465, -0.008746381849050522, 0.007453090511262417, -0.004316525999456644, -0.01629280298948288, 0.01799941249191761, -0.014132872223854065, -0.012352930381894112, -0.017786087468266487, 0.029759028926491737, -0.00435652444139123, 0.04813176393508911, 0.00704643689095974, 0.007106435019522905, -0.015306167304515839, 0.001491617993451655, 0.05429156497120857, 0.07727748155593872, 0.017812753096222878, -0.0025965820532292128, -0.032265614718198776, 0.03669213876128197, 0.008453058078885078, -0.006049802526831627, 0.029732363298535347, 0.041625309735536575, -0.014479528181254864, -0.03458553925156593, 0.04901173710823059, -0.01539949793368578, 0.01887938380241394, -0.030585668981075287, -0.0021215975284576416, 0.04205196350812912, -0.018599392846226692, 0.0020482665859162807, -0.0265591349452734, -0.045145194977521896, 0.04093199968338013, 0.020492665469646454, -0.03941204771399498, 0.004553184844553471, -0.04735845699906349, 0.028905725106596947, -0.007239764090627432, 0.006759779527783394, -0.04173197224736214, 0.021892620250582695, 0.019879352301359177, 0.025932487100362778, 0.013719553127884865, -0.000765808392316103, -0.06271795183420181, -0.01629280298948288, 0.021452633664011955, 0.05749145895242691, 0.03669213876128197, -0.044078562408685684, 0.023465901613235474, 0.005473155062645674, 0.009359695017337799, 0.019466031342744827, -0.04911839962005615, 0.025119181722402573, 0.007793079130351543, 0.09711683541536331, 0.03834541514515877, -0.009526356123387814, -0.014039542526006699, 0.018199406564235687, -0.0032265614718198776, -0.017719421535730362, 0.026425804942846298, -0.0039865365251898766, -0.027039118111133575, 0.03087899275124073, -0.014772851951420307, -0.012066273018717766, -0.025665828958153725, 0.03487886115908623, 0.04351858049631119, -0.01366622094064951, -0.0275191031396389, -0.00425319466739893, 0.04138531908392906, 0.031412310898303986, 0.0022899252362549305, 0.032985590398311615, 0.02226594090461731, -0.019852686673402786, 0.018786054104566574, -0.023759225383400917, 0.03874540328979492, 0.007359759882092476, 0.01885271817445755, 0.007406425196677446, 0.014719519764184952, -0.005063168238848448, 0.010779648087918758, -0.016172805801033974, 0.004809843376278877, 0.002639913931488991, 0.04053201153874397, -0.002623247914016247, -0.03431887924671173, -0.031278979033231735, 0.005466488655656576, 0.0038365416694432497, 0.0027949088253080845, -0.016772786155343056, 0.021505964919924736, 0.015892814844846725, -0.0034665537532418966, -0.031038988381624222, 0.07253096997737885, 0.0699177235364914, -0.0023215909022837877, 0.01805274561047554, -0.016719454899430275, -0.028665732592344284, -0.002239926951006055, 0.0026432471349835396, 0.024785857647657394, 0.01351289264857769, 0.027652431279420853, 0.03194562345743179, 0.01579948514699936, 0.04429188743233681, -0.025479169562458992, 0.011532957665622234, -0.00913970172405243, 0.0218792874366045, -0.019879352301359177, 0.014412863180041313, 0.047518450766801834, 0.031145650893449783, 0.031358975917100906, 0.03154563903808594, -0.022465934976935387, -0.0038598740939050913, -0.06287795305252075, 0.04189196601510048, 0.022425934672355652, -0.01986601948738098, -0.01537283230572939, 0.019959349185228348, -0.11135637015104294, -0.07989072799682617, 0.02989235892891884, 0.033732231706380844, -0.0352255180478096, -0.07365093380212784, 0.005036502610892057, -0.017026111483573914, 0.019226040691137314, -0.004399856552481651, -0.037305451929569244, 0.023959219455718994, 0.01373288594186306, -0.04442521929740906, -0.015306167304515839, 0.02925238013267517, 0.012939577922224998, -0.019466031342744827, 0.02529250830411911, 0.03005235269665718, -0.03077233023941517, -0.020852653309702873, 0.0034665537532418966, 0.08410392701625824, 0.015626156702637672, 0.00031373975798487663, -0.029359042644500732, 0.052744947373867035, -0.01959936134517193, 0.03685213252902031, -0.03402555733919144, 0.04450521618127823, 0.005649815779179335, -0.030479006469249725, -0.013186236843466759, -0.0027832426130771637, 0.009419692680239677, 0.01026633195579052, 0.019039379432797432, 0.00374987768009305, 0.025719162076711655, -0.01766609027981758, 0.007199765183031559, 0.00533315958455205, 0.0014341198839247227, -0.03613215684890747, 0.01180628128349781, 0.028692398220300674, -0.06058469042181969, -0.004489853512495756, -0.015386165119707584, 0.020292671397328377, -0.0039165387861430645, 0.035705503076314926, -0.024639196693897247, 0.0583447627723217, 0.04813176393508911, 0.05423822999000549, 0.011939610354602337, -0.006499788258224726, -0.001953269587829709, -0.007379759568721056, -0.04965171590447426, 0.033172253519296646, -0.014279534108936787, -0.0301323514431715, -0.027705762535333633, -0.006173131987452507, -0.01326623372733593, 0.028932390734553337, -0.02485252358019352, 0.01177961565554142, 0.005733146332204342, -0.034798864275217056, 0.013619556091725826, 0.014772851951420307, 0.011759616434574127, 0.033038921654224396, -0.03511885553598404, -0.011479625478386879, 0.023412570357322693, -0.034772198647260666, 0.011526291258633137, -0.006656449753791094, 0.013892880640923977, 0.00968635082244873, 0.03965204209089279, -0.017239438369870186, 0.01986601948738098, 0.0024465869646519423, 0.008279729634523392, 0.015759486705064774, 0.024252543225884438, -0.012746251188218594, -0.006499788258224726, 0.02389255352318287, -0.035705503076314926, -0.03629215061664581, -0.09530355781316757, -0.017132773995399475, 0.0103196632117033, 0.05410490185022354, 0.010732983238995075, -0.011499624699354172, 0.022172611206769943, -0.03261227160692215, -0.03501219302415848, -0.008319729007780552, -0.034612204879522324, -0.023745892569422722, -0.01975935511291027, 0.013192903250455856, 0.011706285178661346, 0.020905984565615654, 0.008099735714495182, -0.01673278771340847, -0.028052419424057007, 0.00490650674328208, 0.017412764951586723, 0.008259730413556099, 0.008966374211013317, 0.005643149372190237, -0.03791876509785652, 0.022465934976935387, -0.0035298848524689674, -0.007326427847146988, 0.007186432369053364, 0.0073330942541360855, -0.03237227723002434, 0.01415953878313303, -0.005613150540739298, 0.021372636780142784, -0.021999282762408257, -0.007826411165297031, -0.0016916114836931229, -0.03346557542681694, -0.009879677556455135, -0.0004124865517951548, 0.0062897950410842896, 0.019906017929315567, 0.031225647777318954, -0.03189229220151901, 0.0030965656042099, 0.03199895843863487, 0.01157295610755682, 0.029465705156326294, 0.013972877524793148, 0.03498552739620209, -0.02143930085003376, 0.019452698528766632, 0.004563184455037117, -0.019932683557271957, -0.024199210107326508, -0.01789274998009205, -0.012212934903800488, -0.03415888547897339, 0.015946146100759506, 0.012332931160926819, 0.006483121775090694, -0.029545703902840614, 0.002718244679272175, 0.023159245029091835, -0.01973268948495388, -0.011619620956480503, -0.0008408059366047382, -0.016359467059373856, -0.012166270054876804, 0.026465803384780884, -0.00427986029535532, -0.012306265532970428, -0.01582615077495575, 0.02603915147483349, -0.024785857647657394, -0.04047868028283119, -0.005779811646789312, 0.030212348327040672, 0.029839027673006058, -0.024999184533953667, 0.01623946987092495, 0.020652659237384796, -0.03487886115908623, -0.04778510704636574, 0.024265876039862633, 0.007813078351318836, -0.018692724406719208, -0.018399400636553764, -0.007559753488749266, 0.026292476803064346, -0.01667945645749569, 0.057864781469106674, -0.03621215373277664, 0.0039865365251898766, -0.02617247961461544, -0.022905919700860977, -0.013346231542527676, 0.013119571842253208, -0.014666188508272171, -0.029652366414666176, -0.03277226537466049, 0.016492795199155807, -0.01882605254650116, -0.06463789194822311, -0.014492860995233059, 0.003956537693738937, -0.024039216339588165, -0.006026470102369785, -0.013679553754627705, -0.015919480472803116, 0.02746577188372612, -0.024039216339588165, -0.04602516442537308, -0.009239698760211468, 0.0038432080764323473, 0.010206334292888641, -0.03434554859995842, 0.00727309612557292, -0.026465803384780884, -0.006726447492837906, -0.020465999841690063, -0.002418254502117634, -0.019439365714788437, -0.011346296407282352, -0.019746022298932076, 0.03581216558814049, 0.02919904887676239, 0.0580781064927578, 0.02991902455687523, 0.006986438762396574, 0.007019771263003349, 0.03442554548382759, 0.002863239962607622, -0.040852002799510956, 0.006033136509358883, -0.02317257784307003, 0.01830606907606125, 0.01675945334136486, 0.04039868339896202, 0.006696448195725679, 0.020985983312129974, -0.015612823888659477, 0.005049835424870253, 0.0018732722382992506, -0.0014249535743147135, 0.04602516442537308, 0.002909905044361949, -0.03509218990802765, -0.003689879784360528, -0.0007674749940633774, -0.03951871022582054, -0.02019934169948101, 0.0007703915471211076, -0.030692333355545998, 0.013259567320346832, -0.017746087163686752, -0.03946537896990776, -0.013839548453688622, -0.01714610680937767, 0.04386523738503456, 0.005469821859151125, -0.01623946987092495, -0.027012452483177185, 0.028905725106596947, -0.010013006627559662, -0.0029699031729251146, -0.04186530038714409, 0.01366622094064951, 0.020306004211306572, -0.003154897131025791, 0.04802510142326355, 0.01457285787910223, -0.07722415030002594, -0.026905789971351624, 0.02537250518798828, -0.0127262519672513, 0.032132286578416824, -0.010013006627559662, -0.03101232275366783, -0.010559655725955963, 0.024252543225884438, 0.02741243876516819, -0.0054931542836129665, -0.010026339441537857, 0.01056632213294506, -0.016919448971748352, 0.020732657983899117, 0.0001482243387727067, -0.0368787981569767, 0.02135930396616459, -0.0010041339555755258, 0.018372735008597374, -0.010492991656064987, -0.044105228036642075, -0.01725277118384838, -0.023079248145222664, -0.007306428626179695, -0.024265876039862633, -0.008886377327144146, -0.017306102439761162, 0.033705566078424454, 0.0159594789147377, -0.010352996177971363, 0.008113068528473377, 0.033705566078424454, 0.03829208388924599, -0.01851939596235752, -0.03277226537466049, 0.01827940344810486, -0.030505672097206116, -0.00674311351031065, -0.0028215746860951185, 0.00727309612557292, 0.015172838233411312, 0.0181594081223011, 0.001639946480281651, 0.010252999141812325, -0.017412764951586723, -0.009786347858607769, 0.01882605254650116, 0.048451755195856094, 0.0059531391598284245, 0.0019732690416276455, -0.027759095653891563, 0.012472926639020443, -0.010612986981868744, 0.010799648240208626, 0.02443920262157917, -0.012406262569129467, 0.013219568878412247, -0.015092841349542141, -0.007733081001788378, -0.0019032713025808334, 0.01637279987335205, -0.001684111775830388, -0.034745533019304276, 0.008213065564632416, -0.022505933418869972, 0.0013857882004231215, -0.03314558416604996, -0.009373027831315994, 0.02526584267616272, -0.005019836127758026, -0.006079801823943853, -0.024145878851413727, 0.0498117096722126, 0.0123862624168396, 0.033972226083278656, -0.013272900134325027, 0.031198982149362564, -0.006073135416954756, 0.006166465580463409, -0.01008633803576231, 0.026732461526989937, -0.00810640212148428, 0.001653279410675168, -0.016666123643517494, 0.012859581038355827, -0.017786087468266487, -0.034798864275217056, 0.008513055741786957, 0.012652920559048653, -0.028799060732126236, -0.023439235985279083, 0.013946211896836758, 0.0010407994268462062, 0.0018032744992524385, -0.03421221673488617, 0.044345222413539886, -0.011512957513332367, -0.07381092756986618, -0.007826411165297031, 0.04373190924525261, 0.0049631716683506966, 0.014079540967941284, 0.00525649543851614, 0.040718670934438705, 0.01846606470644474, -0.017132773995399475, -0.03781209886074066, -0.004723179154098034, -0.04122532159090042, -0.014252868480980396, -0.015466162003576756, -0.0018432732904329896, -0.039892032742500305, -0.021159309893846512, -0.022039281204342842, 0.05770478397607803, 0.0024715859908610582, -0.03077233023941517, 0.001444952911697328, -0.04695846885442734, 0.0017566094174981117, 0.0013766217743977904, -0.010252999141812325, 0.019959349185228348, 0.02906571887433529, -0.01667945645749569, -0.0029465705156326294, 0.008313062600791454, -0.01714610680937767, -0.027999086305499077, -0.001170795178040862, -0.01882605254650116, -0.011832947842776775, -0.025439171120524406, -0.016172805801033974, -0.03845208138227463, 0.023399237543344498, -0.035705503076314926, 0.0033082254230976105, 0.024625863879919052, -0.0012691252632066607, -0.011992942541837692, -0.024585865437984467, 0.03258560597896576, -0.00495317205786705, -0.004433188587427139, -0.009953008964657784, -0.010672985576093197, 0.021612629294395447, 0.013812882825732231, -0.009406359866261482, -0.017852751538157463, -0.009193033911287785, 0.005899807438254356, 0.0014124539447948337, -0.002239926951006055, 0.022639261558651924, -0.025385839864611626, 0.038932062685489655, -0.016772786155343056, 0.017266103997826576, -0.040878668427467346, -0.012326264753937721, -0.015599491074681282, 0.0566914863884449, -0.030372343957424164, -0.024319207295775414, -0.011886279098689556, -0.0018232738366350532, 0.013679553754627705, 0.03005235269665718, 0.01497284509241581, -0.0029532371554523706, 0.02149263210594654, 0.03010568581521511, -0.038185421377420425, 0.027892423793673515, 0.04191863164305687, -0.0170661099255085, -0.021012648940086365, 0.028692398220300674, 0.02909238450229168, 0.06319794058799744, 0.03375890105962753, 0.01502617634832859, -0.013166237622499466, 0.04479853808879852, 0.04743845388293266, -0.0003256143827456981, 0.0008345561218447983, -0.007159766741096973, -0.0017299435567110777, -0.031465642154216766, 0.007186432369053364, 0.017519429326057434, 0.011012974195182323, -0.009526356123387814, -0.012419595383107662, -0.00993300974369049, -0.05343825742602348, -0.04722512513399124, 0.004646515008062124, 0.025745827704668045, -0.0008120568818412721, -0.02405254915356636, -0.02019934169948101, 0.0028299076948314905, -0.009153034538030624, 0.027265777811408043, -0.01753276214003563, 0.04221195727586746, 0.004899840336292982, 0.0401853546500206, 0.012846248224377632, 0.02837240882217884, 0.03583883121609688, 0.00490650674328208, 0.01843939907848835, 0.02997235581278801, -0.04093199968338013, -0.024092547595500946, -0.0065364534966647625, -0.015199504792690277, -0.0027782428078353405, -0.0025115846656262875, 0.005299827083945274, -0.027705762535333633, 0.03311891853809357, 0.016092808917164803, 0.01717277429997921, 0.012932911515235901, -0.004389856941998005, 0.04095866531133652, -0.007513088174164295, 0.01621280424296856, -0.01634613424539566, 0.037198785692453384, 0.0006224797107279301, -0.008339728228747845, 0.03181229531764984, -0.015439496375620365, 0.008846377953886986, -0.009379694238305092, 0.026012485846877098, -0.062237970530986786, -0.039945363998413086, 0.006513121072202921, 0.00287990621291101, 0.005416490137577057, 0.004596516955643892, 0.031065654009580612, 0.008013072423636913, 0.010766315273940563, 0.012679586187005043, -0.002574915997684002, 0.0038265418261289597, 0.024199210107326508, -0.0029932358302176, 0.025225844234228134, -0.03098565712571144, 0.02195928432047367, 0.030639000236988068, -0.028772395104169846, -0.010432993061840534, -0.024679195135831833, -0.019106043502688408, -0.019066045060753822, -0.03189229220151901, -0.05231829360127449, 0.03175896406173706, 0.0319189578294754, 0.005736479535698891, 0.021785955876111984, -0.018066078424453735, -0.015626156702637672, 0.012859581038355827, 0.006683115381747484, -0.004219862632453442, 0.017106108367443085, -0.035412177443504333, -0.0033965560141950846, 0.014279534108936787, -0.002858240157365799, 0.0012432928197085857, -0.01843939907848835, -0.027945755049586296, -0.00045873504132032394, 0.03519885241985321, 0.027199113741517067, 0.001017466769553721, 0.015092841349542141, 0.012679586187005043, -0.015466162003576756, 0.038878731429576874, 0.052771613001823425, -0.019412700086832047, -0.031332310289144516, -0.09146368503570557, 0.061437997967004776, -0.02741243876516819, 0.019506029784679413, -0.0027399107348173857, 0.009299696423113346, 0.012886246666312218, 0.00917970109730959, -0.007959740236401558, 0.03415888547897339, -0.04125198721885681, 0.01623946987092495, -0.04906506836414337, 0.02730577625334263, 0.011006307788193226, 0.00338488956913352, 0.0010108003625646234, -0.010412993840873241, -0.03010568581521511, -0.03746544569730759, -0.019546030089259148, -0.010846313089132309, 0.014812850393354893, 0.051731646060943604, -0.037305451929569244, 0.0028782393783330917, 0.009426359087228775, -0.0026565799489617348, -0.0056898146867752075, 0.007239764090627432, -0.0018766054417937994, 0.01026633195579052, 0.010792981833219528, 0.0014441196108236909, -0.006779778748750687, -0.006913107819855213, -0.028932390734553337, -0.017599426209926605, -0.002434920519590378, -0.0023199243005365133, 0.04386523738503456, -0.01590614765882492, -0.02743910625576973, -0.034132219851017, -0.007993072271347046, -0.000591647403780371, 0.027599100023508072, 0.019612694159150124, -0.029465705156326294, 0.0015391164924949408, 0.009339695796370506, 0.015172838233411312, 0.017652757465839386, -0.013399562798440456, 0.021652627736330032, -0.003188229398801923, 0.011406295001506805, 0.018679391592741013, 0.02622581087052822, 0.01769275590777397, -0.03698546066880226, 0.028799060732126236, 0.018239405006170273, -0.016332801431417465, -0.025465836748480797, 0.0035565507132560015, -0.017866084352135658, 0.01898604817688465, 0.019612694159150124, -0.011186301708221436, -0.010572988539934158, 0.014812850393354893, -0.0012324597919359803, 0.01799941249191761, -0.026412472128868103, 0.01929270476102829, -0.0007037270697765052, -0.00482984259724617, -0.005186497699469328, -0.011252966709434986, -0.028639066964387894, 0.004793176893144846, -0.025852490216493607, 0.011086305603384972, -0.007839743979275227, -0.02454586699604988, -0.01414620503783226, -0.007706415373831987, 0.032985590398311615, 0.01750609651207924, 0.019826021045446396, 0.04866508021950722, -0.0014732852578163147, 0.012559590861201286, -0.030639000236988068, -0.01539949793368578, 0.01023966632783413, 0.008513055741786957, 0.0051764980889856815, 0.02829241007566452, -0.013012909330427647, 0.030425675213336945, 0.031465642154216766, -0.01341956201940775, 0.0217459574341774, 0.016306135803461075, 0.007719748187810183, -0.013826215639710426, -0.02487918920814991, 0.004256527870893478, -0.002636580727994442, -0.0004820676113013178, 0.009666351601481438, -0.01585281640291214, -0.005983138456940651, -0.030452340841293335, -0.03346557542681694, -0.017132773995399475, 0.02182595431804657, -0.011899611912667751, 0.010259665548801422, -0.0004295693361200392, 0.012379596009850502, 0.008799713104963303, -0.012172936461865902, -0.013972877524793148, 0.004779844079166651, 0.010432993061840534, 0.013012909330427647, 0.012192935682833195, 0.012772916816174984, 0.0021632628049701452, 0.0015507828211411834, -0.024399204179644585, 0.007293095346540213, -0.01260625571012497, -0.0014682854525744915, -0.003616548841819167, -0.006673115771263838, -0.01175295002758503, 0.032105620950460434, 0.0065031214617192745, 0.006069802213460207, 0.018599392846226692, -0.002761576557531953, -0.0046265157870948315, -0.004716512747108936, -0.0088063795119524, 0.018586060032248497, -0.010839646682143211, 0.07637084275484085, -0.049358390271663666, -0.030612334609031677, 0.012986243702471256, -0.013799550011754036, 0.012119605205953121, -0.02821241319179535, -0.01742609776556492, -0.057758115231990814, -0.002936570905148983, -0.01205294020473957, 0.0077597470954060555, -0.012626254931092262, 0.00018541062308941036, -0.0013691220665350556, 0.008486390113830566, 0.009133035317063332, 0.01220626849681139, -0.003184896195307374, 0.029625700786709785, 0.01769275590777397, 0.008539721369743347, -0.018972715362906456, -0.012059606611728668, 0.000904970511328429, -0.001435786485671997, 0.012212934903800488, -0.0036232152488082647, 0.02474585920572281, 0.020545996725559235, 0.015612823888659477, 0.017306102439761162, -0.021839287132024765, -0.030399009585380554, -0.03418555110692978, 0.027212446555495262, 0.0003924872144125402, 0.032078955322504044, 0.0033165584318339825, -0.014506193809211254, 0.020346002653241158, 0.008886377327144146, -0.007339760661125183, -0.017372766509652138, 0.007753080688416958, 0.027759095653891563, -0.026425804942846298, -0.007293095346540213, 0.00727309612557292, -0.011086305603384972, 0.009286363609135151, -0.010686318390071392, 0.04522519186139107, -0.0018566061044111848, -0.014479528181254864, -0.03613215684890747, 0.03538551181554794, 0.04802510142326355, -0.010479657910764217, 0.014892848208546638, -0.0030748997814953327, 0.031198982149362564, -0.05631816387176514, 0.008466390892863274, 0.023799223825335503, -0.04093199968338013, 0.005163164809346199, 0.031092319637537003, -0.0013107905397191644, 0.02733244188129902, -0.042585279792547226, -0.028719063848257065, 0.01545282918959856, 0.006636450067162514, 0.002058266196399927, 0.010792981833219528, -0.02430587448179722, -0.008826378732919693, 0.044131893664598465, 0.007266429718583822, -0.011579622514545918, 0.02922571450471878, 0.0027299108915030956, -0.013312899507582188, -0.015252836048603058, 0.007266429718583822, 0.0024832524359226227, -0.016132807359099388, -0.0253191739320755, 0.02281259000301361, -0.01681278459727764, 0.029519038274884224, 0.0036732135340571404, 0.04437188804149628, -0.0011391295120120049, -0.019532697275280952, -0.016852783039212227, -0.01755942776799202, 0.0030898991972208023, 0.004853175021708012, -0.013612889684736729, 0.003063233569264412, 0.0052264961414039135, -0.02818574756383896, -0.013599556870758533, -0.02231927216053009, -0.06095801293849945, -0.010812981054186821, -0.00462984899058938, 0.017372766509652138, 0.0028782393783330917, -0.014266201294958591, -0.012872913852334023, 0.0023565897718071938, -0.008786380290985107, 0.017826085910201073, 0.02917238138616085, 0.01463952288031578, 0.028105750679969788, -0.03861207515001297, -0.001423286972567439, 0.029492372646927834, 0.031092319637537003, 0.008879710920155048, -0.015172838233411312, -0.000482900912174955, -0.030185682699084282, 0.013126238249242306, -0.012226267717778683, -0.010799648240208626, -0.021732624620199203, -0.0068031116388738155, 0.018172740936279297, 0.025945819914340973, -0.03482552990317345, 0.0008333061705343425, -0.0013382897013798356, -0.04114532470703125, -0.01722610555589199, -0.024919187650084496, 0.003363223746418953, 0.011592955328524113, -0.007379759568721056, 0.014332866296172142, -0.013472894206643105, -0.0068531096912920475, 0.006729780696332455, -0.00045040197437629104, 0.015052842907607555, 0.0036965461913496256, 0.008299729786813259, 0.021785955876111984, -0.007766413502395153, 0.005279827862977982, -0.027145782485604286, 0.05213163420557976, -0.029679032042622566, -0.005253162235021591, 0.02909238450229168, 0.02333257347345352, -0.017839418724179268, -0.00895970780402422, -0.018226072192192078, 0.019666025415062904, 0.048505086451768875, -0.016599459573626518, -0.004459854681044817, 0.022052614018321037, 0.0016807785723358393, 0.04290526732802391, -0.026012485846877098, -0.018599392846226692, 0.008873043581843376, 0.01986601948738098, -0.026572467759251595, -0.017466098070144653, -0.012672919780015945, 0.005026503000408411, 0.01675945334136486, 0.02265259437263012, -0.005259828642010689, -0.0021332637406885624, 0.02645247057080269, -0.027132447808980942, -0.046771809458732605, -0.005543152801692486, -0.004736512433737516, 0.015146172605454922, 0.023679228499531746, -0.01184628065675497, 0.015199504792690277, -0.02213261090219021, -0.009446358308196068, -0.0039032059721648693, 0.006489788182079792, 0.004993170499801636, 0.013932879082858562, -0.017519429326057434, 0.015572825446724892, 0.0299990214407444, 0.008899710141122341, 0.0035698835272341967, 0.010499658063054085, 0.028132416307926178, 0.005253162235021591, 0.010053006000816822, 0.011212967336177826, -0.008119734935462475, 0.015706155449151993, -0.008853044360876083, -0.0021465967874974012, 0.0006749780150130391, 0.025559166446328163, 0.01962602697312832, 0.02485252358019352, -0.006446456536650658, 0.01727943681180477, -0.01637279987335205, -0.027919089421629906, -0.02193261869251728, 0.008553054183721542, -0.014372864738106728, -0.0059898048639297485, 0.007166433148086071, -0.011192968115210533, 0.02195928432047367, -0.008439725264906883, 0.01005967240780592, -0.00920636672526598, 0.01849273033440113, 0.02245260216295719, 0.016279468312859535, -0.008699716068804264, 0.006073135416954756, -0.007886409759521484, 0.01918604038655758, 0.004709846340119839, -0.01345956139266491, -0.00835306104272604, 0.006723114289343357, 0.0061331335455179214, 0.019586028531193733, -0.01411953940987587, -0.0029215714894235134, -0.023265907540917397, 0.06810444593429565, 0.011346296407282352, 0.030612334609031677, -0.01753276214003563, 0.01623946987092495, 0.02829241007566452, -0.031225647777318954, 0.005036502610892057, -0.03423888236284256, 0.021479299291968346, -0.0048231761902570724, -0.014732852578163147, -0.008253064006567001, -0.005733146332204342, 0.029465705156326294, -0.04189196601510048, -0.010486324317753315, -0.002093265065923333, 0.01885271817445755, -0.03282559663057327, -0.0046265157870948315, 0.007666416931897402, -0.002688245614990592, -0.01722610555589199, 0.0006570619298145175, 0.004476520698517561, -0.008059737272560596, 0.02097264863550663, -0.04631849005818367, 0.018146075308322906, 0.02474585920572281, 0.022332604974508286, -0.03093232400715351, 0.016359467059373856, 0.006123133469372988, 0.02650580182671547, 0.044105228036642075, -0.01789274998009205, 0.0005470655160024762, -0.007586419116705656, -0.020106012001633644, -0.02699911966919899, -0.026159146800637245, 0.008019738830626011, 0.007739747874438763, -0.0009491357486695051, 0.006099801044911146, 0.007413091603666544, -0.015919480472803116, 0.025612497702240944, 0.017319435253739357, 0.003111565252766013, -0.0009966341312974691, -0.016559459269046783, 0.007906408980488777, -0.022052614018321037, -0.017706088721752167, 0.017159439623355865, 0.01895938254892826, 0.0011566289467737079, 0.013099572621285915, -0.017492763698101044, 0.051118332892656326, -0.0030865659937262535, 0.003926538862287998, -0.019532697275280952, -0.011539624072611332, -0.03170563280582428, 0.016146140173077583, 0.02171929180622101, 0.035438843071460724, -0.009919676929712296, -0.014372864738106728, -0.0008858044748194516, 0.02518584579229355, -0.017519429326057434, 0.008066403679549694, -0.016279468312859535, -0.026239143684506416, 0.087517149746418, -0.03426554799079895, -0.014759519137442112, -0.01461285725235939, 0.03194562345743179, 0.00502983620390296, 0.028959056362509727, -0.0170661099255085, 0.043278589844703674, 0.005556485615670681, -0.00871304888278246, -0.0033298914786428213, 0.018266070634126663, 0.007766413502395153, 0.02105264738202095, 0.0005241495673544705, -0.027185780927538872, 0.02027933858335018, -0.0010807981016114354, 0.00993300974369049, 0.0051231663674116135, 0.027732430025935173, -0.03202562406659126, 0.034798864275217056, 0.000230617486522533, -0.0006237296620383859, 0.04746511951088905, 0.03445221111178398, 0.018679391592741013, -0.004763178061693907, -0.009099703282117844, 0.015239503234624863, 0.020799322053790092, -0.04397189989686012, -0.021785955876111984, -0.018706057220697403, -0.02914571575820446, -0.017772754654288292, 0.021625962108373642, 0.04031868651509285, 0.02606581710278988, 0.04455854743719101, -0.006016470491886139, -0.014719519764184952, -0.00475317845121026, 0.01898604817688465, -0.007566419895738363, 0.029439039528369904, 0.02471919357776642, -0.0030265680979937315, 0.004959838464856148, 0.015186171978712082, -0.0009899677243083715, -0.01494617946445942, 0.023105913773179054, -0.059518057852983475, 0.0218792874366045, -0.041625309735536575, 0.02997235581278801, 0.0074197580106556416, 0.0299990214407444, 0.011919611133635044, -0.002836574101820588, -0.006019803695380688, 0.005553152412176132]",LIDAO: Towards Limited Interventions for Debiasing (Large) Language Models.pdf
" In the remaining part of this paper, we review
related works in Sec 5, and conclude the paper in Sec 6.
2. Proposed Method
Grounded in a theoretic analysis, we propose LIDAO to
debias language models (LMs) with limited interventions,
thereby achieving a better fairness-ﬂuency tradeoff. LM
preliminaries are also provided.
2.1. Preliminaries
Given a sentence x= (x1,...,x T)of length Tand each
xt∈Vis a token from the vocabulary V, a language model
(LM) parameterzied by θassigns probability pθ(x)using
the chain rule ( Bengio et al. ,2000 ) as follows:
pθ(x) =T/productdisplay
t=1pθ(xt|x1,...,x t−1)/definesT/productdisplay
t=1pθ(xt|x<t),
wherepθ(xt|x<t)is the predicted distribution of the next
tokenxtgiven previous x<t/defines(x1,...,x t−1). To gen-
eratex, the LM iteratively computes pθ(xt|x<t)and
drawsxtfrom it; then the sampled xtis fed back into the
LM as part of the inputs for future steps. The generation
completes if a pre-speciﬁed special token that marks the
end of the sentence is returned, or the maximum length is
reached. Different strategies to draw xthave also been pro-
posed ( Fan et al. ,2018 ;Holtzman et al. ,2019 ) to improve
the overall ﬂuency and diversity of generated x. We refer
interested readers to ( Zhao et al. ,2023 ;Min et al. ,2023 )
and references therein for more detailed backgrounds of
LMs. From now on, we use x∼pθ(x)to denote sen-
tencexgenerated by the LM where pθis the sampling dis-
tribution parameterized by the LM. We treat xas a random
variable.
2.2. Debiasing Formulation
Given sentence x∼pθ(x), we further assume that the sen-
tencexcontains some global property g/definesg(x)and men-
tions some demographic group a/definesa(x). Representative
global property includes sentiment ( Huang et al. ,2019 ),
regard ( Sheng et al. ,2019 ), and toxicity ( Gehman et al. ,
2020 ). We follow previous works ( Yang et al. ,2023 ;
Wang et al. ,2023b ) and treat aas another (global) property
ofx. Built upon the deﬁnition of ganda, anunbiased LM
2
LIDAO: Towards Limited Interventions for Debiasing (Large ) Language Models
should generate gandaindependently. Mathematically,
this concept resembles the demographic parity fairness no-
tion ( Pedreshi et al. ,2008 ;Huang et al. ,2019 ), whose vio-
lation can be quantiﬁed by a positive mutual information
(MI)I(g;a)>0(Zemel et al. ,2013 ). To mitigate the bias
in the LM, we alter x∼pθ(x)by solving
minθI(g(x);a(x)),x∼pθ(x). (1)
The aforementioned bias is known as global bias
(Sheng et al. ,2020 ) and has been identiﬁed in various LMs
(Huang et al. ,2019 ;Ranaldi et al. ,2023 ). As remedies, dif-
ferent interventions have been proposed ( Liang et al. ,2021 ;
Liu et al. ,2021 ;Yang et al. ,2023 ). However, most ex-
isting machinery enforced the LMs to output constant g
orain lieu of solving Eqn ( 1) exactly. For instance, if
a(x) =bfor all possible xwherebis a constant, then
I(g(x);a(x)) =I(g(x);b) = 0 holds and is minimized
naturally by the non-negativity of MI ( Cover ,1999 ).
Nonetheless, these constant constraints hinder a LM from
producing property- or demographic group-speciﬁc texts,
inevitably degrading its generation quality. As a conse-
quence, a fairness-ﬂuency trade-off occurs after debiasin g
(Liang et al. ,2021 ). This raises a crucial yet still open ques-
tion:
With elaborated tuning, are trade-offs from the constant
constraints able to achieve","[0.02162829414010048, 0.008045080117881298, 0.010457932949066162, 0.03554084151983261, 0.014813164249062538, 0.02184336818754673, -0.015861645340919495, 0.024007542058825493, -0.014934143051505089, 0.04591812193393707, 0.020835213363170624, -0.028981108218431473, -0.04589123651385307, 0.006563092116266489, -0.0036327200941741467, -0.016345560550689697, 0.03234162554144859, -0.01085447333753109, -0.019074300304055214, 0.037610918283462524, 0.031185608357191086, 0.026400230824947357, -0.012736364267766476, 0.04882160946726799, -0.0032042539678514004, -0.02013622410595417, 0.03255670145153999, 0.019423795863986015, 0.01332109421491623, -0.024881277233362198, 0.05860743671655655, -0.022905291989445686, -0.04750428348779678, -0.024760298430919647, -0.006751281209290028, 0.039170198142528534, 0.013421909883618355, -0.0026144832372665405, 0.03543330356478691, -0.008004753850400448, -0.03731519356369972, -0.06220991164445877, -0.03747649863362312, -0.0030832753982394934, -0.020835213363170624, 0.08140519261360168, 0.04070259630680084, 0.015740666538476944, -0.013018647208809853, 0.006842014845460653, -0.037960413843393326, 0.007359534967690706, 0.0007653580396436155, -0.022999387234449387, 0.006358100567013025, 0.011163641698658466, 0.011687882244586945, -0.012494406662881374, 0.037530265748500824, -0.034573011100292206, -0.017152084037661552, 0.020566370338201523, 0.037933528423309326, 0.021036844700574875, -0.04312216863036156, -0.006596697028726339, -0.0508110336959362, 0.012460801750421524, -0.009698455221951008, 0.022192861884832382, 0.015028237365186214, 0.003871317021548748, 0.03236851096153259, 0.024921603500843048, -0.035917218774557114, 0.0024683005176484585, 0.025768453255295753, 0.024168847128748894, 0.007944265380501747, -0.017515020444989204, 0.030728578567504883, 0.014503996819257736, 0.005927953869104385, 0.0019255769439041615, -0.044439490884542465, -0.06828572601079941, 0.008932257071137428, 0.031024303287267685, -0.04906356707215309, -0.006008606404066086, -0.0506228469312191, -0.03656243905425072, -0.05726322904229164, 0.029572559520602226, 0.05984410643577576, -0.005692717619240284, 0.04218122363090515, -0.015928857028484344, 0.056187864392995834, 0.004862669855356216, 0.018845785409212112, 0.0035621493589133024, 0.04250383377075195, -0.013616819866001606, 0.041320931166410446, -0.01701766438782215, -0.013220278546214104, -0.019652310758829117, -0.030997419729828835, 0.018899554386734962, -0.012427195906639099, -0.018039261922240257, -0.012769969180226326, 0.003693209495395422, -0.02039162442088127, -0.03839055821299553, -0.05538133904337883, 0.057747144252061844, 0.0005826298147439957, -0.008683579042553902, -0.04207368940114975, -0.008979304693639278, 0.029196182265877724, -0.0049466826021671295, 0.0015601206105202436, -0.044278185814619064, 0.02212565205991268, -0.06575862318277359, -0.02691102959215641, -0.02182992547750473, 0.05871497467160225, 0.01662784442305565, 0.0165875181555748, -0.01825433410704136, -0.0664576068520546, 0.016305234283208847, 0.0034848572686314583, 0.05156379193067551, -0.04659022390842438, -0.020969633013010025, 0.006384984590113163, -0.02014966681599617, -0.003289947286248207, 0.02043195068836212, -0.014221712946891785, -0.03726142644882202, 0.0016054875450208783, 0.010491537861526012, -0.027556249871850014, 0.08866391330957413, -0.03164263814687729, -0.035890333354473114, -0.03546018898487091, 0.022838082164525986, -0.015095447190105915, -0.028900455683469772, 0.00274722371250391, 0.03212655335664749, 0.050380889326334, -0.028981108218431473, 0.01423515472561121, 0.014638417400419712, 0.02017655037343502, -0.046321380883455276, 0.0334438756108284, 0.00675464142113924, -0.004849227610975504, -0.017084874212741852, -0.05331125855445862, -0.07226458191871643, -0.03704635053873062, 0.016345560550689697, -0.029491906985640526, -0.04204680398106575, -0.0011871031019836664, -0.007850170135498047, -0.022475145757198334, -0.03965411335229874, 0.01848285086452961, -0.01824089325964451, -0.018200566992163658, 0.047880664467811584, -0.014571206644177437, 0.01093512587249279, -0.039412155747413635, -0.005904430523514748, 0.013226999901235104, -0.01855006068944931, 0.00507102208212018, 0.009584197774529457, -0.007319208700209856, 0.034142863005399704, 0.07204950600862503, 0.03575591370463371, 0.012427195906639099, 0.004600549582391977, 0.07194197177886963, 0.030836114659905434, -0.00506430072709918, 0.006055653560906649, 0.018899554386734962, 0.03231474384665489, -0.0337664857506752, -0.0833946168422699, -0.009449777193367481, 0.00908684078603983, 0.0033201919868588448, 0.005430597346276045, -0.01411417592316866, -0.003111839760094881, -0.006542928982526064, -0.013112741522490978, 0.03677751123905182, 0.006240482442080975, 0.004314905498176813, 0.04357919842004776, -0.0060623749159276485, 0.014974469318985939, 0.0007867813110351562, 0.0677480474114418, 0.0168160330504179, 0.02847030945122242, 0.054332856088876724, 0.00841473788022995, -0.04728921130299568, -0.01262210588902235, 0.017770420759916306, -0.020821770653128624, -0.011929839849472046, -0.01677570678293705, 0.068178191781044, -0.025674358010292053, -0.02340264804661274, -0.014598091132938862, 0.034653663635253906, -0.02692447230219841, -0.008891930803656578, -0.003602475393563509, 0.01008827518671751, -0.03226097300648689, 0.0016987419221550226, 0.0003301709075458348, 0.002992541529238224, -0.03207278624176979, -0.006321134511381388, 0.019665751606225967, -0.02865849807858467, -0.034761201590299606, -0.0024212533608078957, -0.002197778783738613, -0.01001434400677681, -0.03521823137998581, -0.06403803080320358, -0.041025206446647644, -0.0676405131816864, 0.013119462877511978, -0.00014586749603040516, -0.03140068054199219, -0.006183353252708912, -0.011573624797165394, -0.0503002367913723, -0.007924102246761322, -0.0022633089683949947, 0.003921724855899811, 0.019652310758829117, -0.020875539630651474, -0.01411417592316866, 0.0038276303093880415, 0.019275931641459465, 0.0005376829067245126, -0.019665751606225967, -0.011587066575884819, -0.006915946491062641, 0.01520298421382904, 0.007077251095324755, -0.04167042672634125, 0.034357938915491104, 0.05505872890353203, -0.018899554386734962, 0.014638417400419712, -0.028013279661536217, -0.012978320941329002, 0.0832870826125145, 0.029223065823316574, -0.011318225413560867, -0.003011024324223399, -0.020606696605682373, -0.01838875561952591, 0.010202533565461636, -0.014302365481853485, 0.004600549582391977, -0.01868448033928871, 0.034115981310606, -0.02174927294254303, 0.03976165130734444, 0.01262210588902235, 0.02531142346560955, -0.024155404418706894, -0.023967215791344643, 0.014745953492820263, 0.08016852289438248, 0.009059957228600979, -0.013489119708538055, -0.03524511307477951, 0.024531783536076546, 0.031078072264790535, -0.004207368940114975, 0.024921603500843048, 0.0335245281457901, -0.015673456713557243, -0.017515020444989204, 0.02156108431518078, -0.01859038695693016, 0.015444941818714142, -0.019491005688905716, 0.010491537861526012, 0.04379427433013916, -0.005074382293969393, -0.01085447333753109, -0.015458383597433567, -0.051294948905706406, 0.020768001675605774, -0.007581328973174095, -0.04408999904990196, 0.029330601915717125, -0.015485268086194992, 0.0335245281457901, -0.021305685862898827, -0.0069495514035224915, -0.024128520861268044, 0.009469940327107906, 0.03586345165967941, 0.017756978049874306, 0.00675800209864974, 0.002723699901252985, -0.049332406371831894, -0.030836114659905434, 0.024357035756111145, 0.03750338405370712, 0.029814517125487328, -0.04513847827911377, 0.026615304872393608, 0.01863071322441101, 0.007406582124531269, -0.008663415908813477, -0.04336412623524666, 0.0338471382856369, 0.0067311180755496025, 0.09038449823856354, 0.04855276644229889, -0.017851073294878006, -0.01660095900297165, 0.011130035854876041, 0.0023406008258461952, -0.0019087743712589145, 0.025177001953125, 0.014853490516543388, -0.04180484637618065, 0.03145445138216019, -0.01182902418076992, -0.018980206921696663, -0.02332199551165104, 0.022676777094602585, 0.02377902716398239, -0.01090824231505394, -0.0011526577873155475, 0.031024303287267685, 0.021413221955299377, 0.0041031925939023495, 0.0010274784872308373, 0.02349674329161644, 0.03484185412526131, -0.032798659056425095, 0.017178969457745552, -0.01670849695801735, 0.01863071322441101, 0.03054038994014263, 0.006593336816877127, 0.0018768494483083487, -0.008085406385362148, -0.003461333690211177, 0.0167219378054142, 0.002794270869344473, 0.0007993832696229219, 0.0028967666439712048, 0.04917110130190849, -0.0011341748759150505, -0.03911643102765083, -0.0249350443482399, -0.013684029690921307, -0.0008888570591807365, -0.010457932949066162, 0.0010862875496968627, 0.03220720589160919, 0.011432482860982418, -0.028013279661536217, -0.031212491914629936, 0.08016852289438248, 0.06328527629375458, 0.020687349140644073, -0.02334888093173504, -0.02672284096479416, -0.049439944326877594, -0.002795951208099723, 0.0007422544294968247, 0.019195279106497765, 0.010377280414104462, 0.04349854588508606, 0.024383919313549995, 0.015982624143362045, 0.029303718358278275, -0.016238024458289146, 0.025660917162895203, -5.492346826940775e-05, 0.01842908188700676, -0.025620590895414352, 0.02833588980138302, 0.03675062581896782, 0.032583583146333694, 0.042584486305713654, 0.03997672349214554, -0.010968731716275215, 0.011540018953382969, -0.05527380108833313, 0.017031105235219002, 0.021440105512738228, -0.0510261096060276, -0.022730544209480286, 0.014033524319529533, -0.09613770246505737, -0.041267164051532745, 0.030621042475104332, 0.039627231657505035, -0.049735669046640396, -0.07140429317951202, -0.008965862914919853, -0.005323060788214207, -0.0014088972238823771, -0.007816565223038197, -0.04570304602384567, 0.005665833596140146, 0.030943650752305984, -0.034438591450452805, 0.0030026230961084366, 0.01021597534418106, -0.002391008660197258, -0.024464571848511696, 0.0250291395932436, 0.02325478568673134, -0.017501577734947205, -0.017474694177508354, -0.012534732930362225, 0.10253612697124481, 0.031293146312236786, 0.01833498664200306, -0.016412770375609398, 0.0664576068520546, -0.009994180873036385, 0.03183082863688469, -0.04661710932850838, 0.04656333848834038, 0.010962010361254215, -0.007655260618776083, -0.01021597534418106, 0.023227902129292488, 0.0253383070230484, 0.0169101282954216, 0.011573624797165394, -0.003113520098850131, 0.03559460863471031, -0.034169748425483704, -0.001982705667614937, 0.03158887103199959, -0.03742273151874542, -0.025849105790257454, 0.007695586420595646, 0.0329599604010582, -0.05575771629810333, 0.0049500432796776295, -0.015955740585923195, 0.022354166954755783, -0.02157452702522278, 0.037691570818424225, -0.03473431617021561, 0.052719809114933014, 0.05984410643577576, 0.0827493965625763, -0.006348019000142813, -0.02017655037343502, -0.010995615273714066, -0.010659563355147839, -0.05417155474424362, 0.032664235681295395, -0.014759396202862263, -0.015875088050961494, -0.014987911097705364, -0.022905291989445686, -0.007265440188348293, 0.03185771405696869, -0.018886111676692963, 0.005632228683680296, -0.008273595944046974, -0.023053154349327087, 0.02884668856859207, 0.009617802686989307, 0.025983527302742004, 0.03658932074904442, -0.03750338405370712, -0.01660095900297165, 0.0165606327354908, -0.023080037906765938, -0.015364289283752441, -0.02193746343255043, 0.0025640754029154778, 0.007446908392012119, 0.034250400960445404, -0.024034425616264343, 0.02830900438129902, -0.0051046269945800304, 0.044466376304626465, 0.017864514142274857, -0.0025405518244951963, -0.030889883637428284, -0.01097545213997364, 0.03594410419464111, -0.026615304872393608, -0.022999387234449387, -0.08237302303314209, -0.01867103949189186, 0.011607229709625244, 0.046133194118738174, 0.013650424778461456, -0.022851523011922836, 0.01837531290948391, -0.013280767947435379, -0.03992295637726784, -0.00376041978597641, -0.029196182265877724, -0.03005647473037243, -0.006828573066741228, -0.013038810342550278, 0.015552477911114693, 0.00832064263522625, 0.00925486721098423, -0.0031185608822852373, -0.02997582219541073, 0.027771322056651115, 0.017689768224954605, 0.003847793210297823, 0.0168294757604599, 0.012279333546757698, -0.03156198561191559, 0.005783451721072197, -0.018845785409212112, -0.006405147723853588, 0.008112290874123573, -0.0012391910422593355, -0.014840047806501389, -0.005050858948379755, 0.006784886121749878, 0.01871136575937271, -0.03024466335773468, -0.003286586841568351, 0.007668702397495508, -0.02040506713092327, -0.017770420759916306, -0.009476661682128906, -0.030809231102466583, 0.039680998772382736, 0.03521823137998581, -0.04129404574632645, -0.005212163552641869, 0.03153510391712189, 0.002952215261757374, 0.006132945884019136, -0.0036528832279145718, 0.04753116890788078, -0.02352362684905529, 0.017864514142274857, -0.010578910820186138, -0.022233188152313232, -0.01848285086452961, -0.004798819776624441, -0.022609565407037735, -0.03720765560865402, 0.011056104674935341, 0.0058876280672848225, -0.008354248479008675, -0.04013802856206894, 0.0012963198823854327, 0.039465926587581635, -0.027206754311919212, -0.029223065823316574, 0.0051247901283204556, -0.017420927062630653, -0.0065462891943752766, 0.03642801567912102, -0.001352608553133905, -0.0013131224550306797, -0.019249048084020615, 0.03462677821516991, -0.011183804832398891, -0.018939880654215813, 0.004237613640725613, 0.00426113698631525, 0.007830007001757622, -0.027502480894327164, 0.031104955822229385, 3.3605181670282036e-05, -0.032771773636341095, -0.03559460863471031, 0.027610016986727715, 0.008582763373851776, -0.029249949380755424, -0.02695135585963726, -0.012091143988072872, 0.017541904002428055, -0.026574978604912758, 0.06860833615064621, -0.024760298430919647, 0.006512684281915426, -0.033336341381073, -0.03043285198509693, -0.01420827116817236, 0.032744888216257095, -0.016291791573166847, -0.032852426171302795, -0.019800173118710518, 0.02664218842983246, -0.008616368286311626, -0.067371666431427, -0.02207188308238983, 0.007332650478929281, -0.021413221955299377, 0.0046812016516923904, -0.0023288391530513763, -0.023940332233905792, 0.010121881030499935, -0.016211139038205147, -0.0498700886964798, -0.0037906644865870476, 0.0031236016657203436, 0.007789681199938059, -0.051160529255867004, 0.0047080861404538155, -0.02359083667397499, -0.006825212389230728, -0.01855006068944931, -0.022918734699487686, -0.004553501959890127, -0.013005205430090427, -0.01351600419729948, 0.02838965691626072, 0.0073729767464101315, 0.04390180855989456, 0.007675423286855221, 0.00629088981077075, -0.004741691052913666, 0.029626328498125076, -0.007467071525752544, -0.049708783626556396, 0.003572230925783515, -0.0040124584920704365, 0.021265359595417976, 0.024182287976145744, 0.036159176379442215, 0.008468505926430225, 0.00676136277616024, -0.014934143051505089, -0.0007645178702659905, -0.008979304693639278, 0.026158273220062256, 0.04640203341841698, -0.015512151643633842, -0.024047868326306343, -0.0009527069050818682, -0.012991763651371002, -0.024478014558553696, -0.00752083957195282, -0.004745051730424166, -0.03876693919301033, 0.015942297875881195, -0.02152075804769993, -0.02691102959215641, -0.011997049674391747, -0.009443055838346481, 0.051187414675951004, -0.004456046968698502, -0.020526045933365822, -0.024612434208393097, 0.009033072739839554, -0.002888365415856242, -0.0016777387354522943, -0.037772223353385925, 0.0047685750760138035, 0.0168294757604599, -0.019679194316267967, 0.052854228764772415, 0.013072415255010128, -0.061349619179964066, -0.03185771405696869, 0.029276834800839424, -0.005726322997361422, 0.01982705667614937, 0.0011383754899725318, -0.019571658223867416, -0.013193394057452679, 0.03637424856424332, 0.021238474175333977, -0.011640834622085094, -0.009765665978193283, 0.003867956344038248, -0.012917831540107727, 0.0339277908205986, -0.007742634043097496, -0.0336858332157135, 0.0330406129360199, -0.0005347424303181469, 0.004294742364436388, 0.0012022253358736634, -0.044197533279657364, 3.9459835534216836e-05, -0.027959510684013367, -0.0016979017527773976, -0.021023401990532875, 0.005114708561450243, -0.029518792405724525, 0.027798205614089966, 0.00760149210691452, -0.028927341103553772, 0.0014046966098248959, 0.04352543130517006, 0.02693791314959526, -0.023133806884288788, -0.04368673637509346, 0.03481496870517731, -0.017703209072351456, -0.0017189050558954477, -0.017434367910027504, 0.0066437446512281895, 0.011445924639701843, 0.01653374917805195, -0.012460801750421524, 0.017716651782393456, 0.0047080861404538155, 0.003100078087300062, 0.04048752412199974, 0.03723454102873802, -0.0026598500553518534, -0.0036159176379442215, -0.04032621905207634, 0.012319659814238548, -0.011230851523578167, 0.01668161153793335, 0.0331750363111496, -0.024545224383473396, 0.0026128028985112906, -0.011163641698658466, -0.0340084433555603, -0.011217409744858742, 0.012850621715188026, 0.006314413622021675, -0.024854391813278198, 0.014638417400419712, -0.009543871507048607, -0.02192402072250843, -0.04347166419029236, -0.014678743667900562, 0.04231564328074455, -0.017635999247431755, -0.003693209495395422, -0.019168395549058914, 0.04019179567694664, 0.011983607895672321, 0.04540732130408287, -0.014006639830768108, 0.03696570172905922, -0.007567886728793383, -0.00502397445961833, -0.01699077896773815, -0.0021171264816075563, -0.0041905660182237625, 0.006448834203183651, -0.04882160946726799, -0.000703188416082412, -0.013495841063559055, -0.029169296845793724, -0.004587107338011265, 0.006421950180083513, -0.02332199551165104, -0.024061311036348343, 0.015256752260029316, -0.009120446629822254, -0.0075544449500739574, -0.008979304693639278, 0.02547272853553295, -0.012796853668987751, -0.09377189725637436, -0.024236056953668594, 0.0501658171415329, 0.028093932196497917, 0.017447810620069504, 0.008589484728872776, 0.021009959280490875, 0.022905291989445686, 0.005743125453591347, -0.01828121952712536, -0.01086791604757309, -0.02193746343255043, -0.011156920343637466, -0.004341789521276951, 0.006482439581304789, -0.067371666431427, -0.03011024370789528, -0.0074872346594929695, 0.047800011932849884, 0.002711938228458166, -0.0330943837761879, 0.007231835275888443, -0.04242318123579025, 0.013173230923712254, -0.003901561489328742, 0.0016928610857576132, 0.01863071322441101, 0.030647926032543182, 0.008663415908813477, -0.013092578388750553, 0.005847301799803972, -0.027448711916804314, -0.026507766917347908, 0.002343961503356695, -0.03462677821516991, -0.010323511436581612, -0.01496102660894394, -0.022313840687274933, -0.03226097300648689, 0.03153510391712189, -0.019275931641459465, -0.01668161153793335, 0.01082086842507124, -0.0059514776803553104, -0.005766649264842272, -0.043095286935567856, 0.015216425992548466, -0.010370559059083462, -0.0017289866227656603, -0.013939429074525833, -0.025808779522776604, 0.021453548222780228, 0.010155485942959785, 0.00019659030658658594, -0.01836187206208706, -0.016453096643090248, -0.005857383366674185, 0.00998073909431696, 0.003074874170124531, 0.017555346712470055, -0.02506946586072445, 0.029948938637971878, -0.012541454285383224, 0.002391008660197258, -0.039412155747413635, -0.0051247901283204556, -0.010565469041466713, 0.05554264411330223, -0.03680439665913582, -0.044358838349580765, -0.021332569420337677, -0.0005179398576729, 0.02161485329270363, 0.03255670145153999, 0.018899554386734962, 0.001791156129911542, 0.012138191610574722, 0.026265809312462807, -0.024733413010835648, 0.03134691342711449, 0.013576493598520756, -0.029948938637971878, -0.030809231102466583, 0.01342863030731678, 0.03677751123905182, 0.042665138840675354, 0.02674972452223301, 0.0254189595580101, -0.024330152198672295, 0.039250850677490234, 0.04583746939897537, -0.010565469041466713, 0.00468792300671339, 0.0024414164945483208, 0.0047954595647752285, -0.0253517497330904, -0.0013845334760844707, 0.041347816586494446, 0.002439736155793071, -0.005786812398582697, -0.010269743390381336, 3.714947888511233e-05, -0.04882160946726799, -0.039277736097574234, 0.011983607895672321, 0.01685635931789875, 0.011835744604468346, -0.036105405539274216, 0.015794435515999794, -0.007285603322088718, -0.014947584830224514, 